{"learner":{"attributes":{"scikit_learn":"{\"_estimator_type\": \"regressor\"}"},"feature_names":[],"feature_types":[],"gradient_booster":{"model":{"gbtree_model_param":{"num_parallel_tree":"1","num_trees":"1000"},"iteration_indptr":[0,1,2,3,4,5,6,7,8,9,10,11,12,13,14,15,16,17,18,19,20,21,22,23,24,25,26,27,28,29,30,31,32,33,34,35,36,37,38,39,40,41,42,43,44,45,46,47,48,49,50,51,52,53,54,55,56,57,58,59,60,61,62,63,64,65,66,67,68,69,70,71,72,73,74,75,76,77,78,79,80,81,82,83,84,85,86,87,88,89,90,91,92,93,94,95,96,97,98,99,100,101,102,103,104,105,106,107,108,109,110,111,112,113,114,115,116,117,118,119,120,121,122,123,124,125,126,127,128,129,130,131,132,133,134,135,136,137,138,139,140,141,142,143,144,145,146,147,148,149,150,151,152,153,154,155,156,157,158,159,160,161,162,163,164,165,166,167,168,169,170,171,172,173,174,175,176,177,178,179,180,181,182,183,184,185,186,187,188,189,190,191,192,193,194,195,196,197,198,199,200,201,202,203,204,205,206,207,208,209,210,211,212,213,214,215,216,217,218,219,220,221,222,223,224,225,226,227,228,229,230,231,232,233,234,235,236,237,238,239,240,241,242,243,244,245,246,247,248,249,250,251,252,253,254,255,256,257,258,259,260,261,262,263,264,265,266,267,268,269,270,271,272,273,274,275,276,277,278,279,280,281,282,283,284,285,286,287,288,289,290,291,292,293,294,295,296,297,298,299,300,301,302,303,304,305,306,307,308,309,310,311,312,313,314,315,316,317,318,319,320,321,322,323,324,325,326,327,328,329,330,331,332,333,334,335,336,337,338,339,340,341,342,343,344,345,346,347,348,349,350,351,352,353,354,355,356,357,358,359,360,361,362,363,364,365,366,367,368,369,370,371,372,373,374,375,376,377,378,379,380,381,382,383,384,385,386,387,388,389,390,391,392,393,394,395,396,397,398,399,400,401,402,403,404,405,406,407,408,409,410,411,412,413,414,415,416,417,418,419,420,421,422,423,424,425,426,427,428,429,430,431,432,433,434,435,436,437,438,439,440,441,442,443,444,445,446,447,448,449,450,451,452,453,454,455,456,457,458,459,460,461,462,463,464,465,466,467,468,469,470,471,472,473,474,475,476,477,478,479,480,481,482,483,484,485,486,487,488,489,490,491,492,493,494,495,496,497,498,499,500,501,502,503,504,505,506,507,508,509,510,511,512,513,514,515,516,517,518,519,520,521,522,523,524,525,526,527,528,529,530,531,532,533,534,535,536,537,538,539,540,541,542,543,544,545,546,547,548,549,550,551,552,553,554,555,556,557,558,559,560,561,562,563,564,565,566,567,568,569,570,571,572,573,574,575,576,577,578,579,580,581,582,583,584,585,586,587,588,589,590,591,592,593,594,595,596,597,598,599,600,601,602,603,604,605,606,607,608,609,610,611,612,613,614,615,616,617,618,619,620,621,622,623,624,625,626,627,628,629,630,631,632,633,634,635,636,637,638,639,640,641,642,643,644,645,646,647,648,649,650,651,652,653,654,655,656,657,658,659,660,661,662,663,664,665,666,667,668,669,670,671,672,673,674,675,676,677,678,679,680,681,682,683,684,685,686,687,688,689,690,691,692,693,694,695,696,697,698,699,700,701,702,703,704,705,706,707,708,709,710,711,712,713,714,715,716,717,718,719,720,721,722,723,724,725,726,727,728,729,730,731,732,733,734,735,736,737,738,739,740,741,742,743,744,745,746,747,748,749,750,751,752,753,754,755,756,757,758,759,760,761,762,763,764,765,766,767,768,769,770,771,772,773,774,775,776,777,778,779,780,781,782,783,784,785,786,787,788,789,790,791,792,793,794,795,796,797,798,799,800,801,802,803,804,805,806,807,808,809,810,811,812,813,814,815,816,817,818,819,820,821,822,823,824,825,826,827,828,829,830,831,832,833,834,835,836,837,838,839,840,841,842,843,844,845,846,847,848,849,850,851,852,853,854,855,856,857,858,859,860,861,862,863,864,865,866,867,868,869,870,871,872,873,874,875,876,877,878,879,880,881,882,883,884,885,886,887,888,889,890,891,892,893,894,895,896,897,898,899,900,901,902,903,904,905,906,907,908,909,910,911,912,913,914,915,916,917,918,919,920,921,922,923,924,925,926,927,928,929,930,931,932,933,934,935,936,937,938,939,940,941,942,943,944,945,946,947,948,949,950,951,952,953,954,955,956,957,958,959,960,961,962,963,964,965,966,967,968,969,970,971,972,973,974,975,976,977,978,979,980,981,982,983,984,985,986,987,988,989,990,991,992,993,994,995,996,997,998,999,1000],"tree_info":[0,0,0,0,0,0,0,0,0,0,0,0,0,0,0,0,0,0,0,0,0,0,0,0,0,0,0,0,0,0,0,0,0,0,0,0,0,0,0,0,0,0,0,0,0,0,0,0,0,0,0,0,0,0,0,0,0,0,0,0,0,0,0,0,0,0,0,0,0,0,0,0,0,0,0,0,0,0,0,0,0,0,0,0,0,0,0,0,0,0,0,0,0,0,0,0,0,0,0,0,0,0,0,0,0,0,0,0,0,0,0,0,0,0,0,0,0,0,0,0,0,0,0,0,0,0,0,0,0,0,0,0,0,0,0,0,0,0,0,0,0,0,0,0,0,0,0,0,0,0,0,0,0,0,0,0,0,0,0,0,0,0,0,0,0,0,0,0,0,0,0,0,0,0,0,0,0,0,0,0,0,0,0,0,0,0,0,0,0,0,0,0,0,0,0,0,0,0,0,0,0,0,0,0,0,0,0,0,0,0,0,0,0,0,0,0,0,0,0,0,0,0,0,0,0,0,0,0,0,0,0,0,0,0,0,0,0,0,0,0,0,0,0,0,0,0,0,0,0,0,0,0,0,0,0,0,0,0,0,0,0,0,0,0,0,0,0,0,0,0,0,0,0,0,0,0,0,0,0,0,0,0,0,0,0,0,0,0,0,0,0,0,0,0,0,0,0,0,0,0,0,0,0,0,0,0,0,0,0,0,0,0,0,0,0,0,0,0,0,0,0,0,0,0,0,0,0,0,0,0,0,0,0,0,0,0,0,0,0,0,0,0,0,0,0,0,0,0,0,0,0,0,0,0,0,0,0,0,0,0,0,0,0,0,0,0,0,0,0,0,0,0,0,0,0,0,0,0,0,0,0,0,0,0,0,0,0,0,0,0,0,0,0,0,0,0,0,0,0,0,0,0,0,0,0,0,0,0,0,0,0,0,0,0,0,0,0,0,0,0,0,0,0,0,0,0,0,0,0,0,0,0,0,0,0,0,0,0,0,0,0,0,0,0,0,0,0,0,0,0,0,0,0,0,0,0,0,0,0,0,0,0,0,0,0,0,0,0,0,0,0,0,0,0,0,0,0,0,0,0,0,0,0,0,0,0,0,0,0,0,0,0,0,0,0,0,0,0,0,0,0,0,0,0,0,0,0,0,0,0,0,0,0,0,0,0,0,0,0,0,0,0,0,0,0,0,0,0,0,0,0,0,0,0,0,0,0,0,0,0,0,0,0,0,0,0,0,0,0,0,0,0,0,0,0,0,0,0,0,0,0,0,0,0,0,0,0,0,0,0,0,0,0,0,0,0,0,0,0,0,0,0,0,0,0,0,0,0,0,0,0,0,0,0,0,0,0,0,0,0,0,0,0,0,0,0,0,0,0,0,0,0,0,0,0,0,0,0,0,0,0,0,0,0,0,0,0,0,0,0,0,0,0,0,0,0,0,0,0,0,0,0,0,0,0,0,0,0,0,0,0,0,0,0,0,0,0,0,0,0,0,0,0,0,0,0,0,0,0,0,0,0,0,0,0,0,0,0,0,0,0,0,0,0,0,0,0,0,0,0,0,0,0,0,0,0,0,0,0,0,0,0,0,0,0,0,0,0,0,0,0,0,0,0,0,0,0,0,0,0,0,0,0,0,0,0,0,0,0,0,0,0,0,0,0,0,0,0,0,0,0,0,0,0,0,0,0,0,0,0,0,0,0,0,0,0,0,0,0,0,0,0,0,0,0,0,0,0,0,0,0,0,0,0,0,0,0,0,0,0,0,0,0,0,0,0,0,0,0,0,0,0,0,0,0,0,0,0,0,0,0,0,0,0,0,0,0,0,0,0,0,0,0,0,0,0,0,0,0,0,0,0,0,0,0,0,0,0,0,0,0,0,0,0,0,0,0,0,0,0,0,0,0,0,0,0,0,0,0,0,0,0,0,0,0,0,0,0,0,0,0,0,0,0,0,0,0,0,0,0,0,0,0,0,0,0,0,0,0,0,0,0,0,0,0,0,0,0,0,0,0,0,0,0,0,0,0,0,0,0,0,0,0,0,0,0,0,0,0,0,0,0,0,0,0,0,0,0,0,0,0,0,0,0,0,0,0,0,0,0,0,0,0,0,0,0,0,0,0,0,0,0,0,0,0,0,0,0,0,0,0,0,0,0,0,0,0,0,0,0,0,0,0,0,0,0,0,0,0,0,0,0,0,0,0,0,0,0,0,0,0,0,0,0,0,0,0,0,0,0,0,0,0,0,0,0,0,0,0,0],"trees":[{"base_weights":[-7.9667006E0,-3.9992612E2,1.5107686E2,-6.2583295E2,-2.261464E2,4.0989216E1,3.3521338E2,-1.4193252E1,-4.4202838E2,-2.8984637E2,-8.962267E0,-7.007627E1,1.6479001E2,1.8762733E2,4.2314746E2,-5.391906E0,-1.0115406E1,-3.3553726E2,-1.7872124E2,1.7087743E0,-1.8377911E0,-1.4549559E2,3.0963234E1,-1.7804409E0,1.9267972E2,1.0853828E2,2.4479973E2,3.4889053E2,1.0559978E1,-7.2406335E0,-4.017042E0,-4.3719673E0,-1.3832692E0,-4.7495117E0,-1.1644081E2,-5.551994E1,6.452773E1,1.6211809E2,7.563294E0,1.481786E2,9.6036154E-1,5.5006733E0,3.0743878E0,4.6445036E0,7.488849E0,-1.3280522E2,-5.6752926E1,-5.9781084E-3,-1.898131E0,1.8823614E1,1.1540932E2,6.8762344E1,1.924818E2,1.622562E0,3.8103197E0,-3.370185E0,-1.7856649E0,-1.8348643E0,-2.457429E-1,1.3073248E0,-8.339025E-1,1.0105016E0,2.916622E0,7.476636E-2,1.8695266E0,2.2799E0,4.738122E0],"categories":[],"categories_nodes":[],"categories_segments":[],"categories_sizes":[],"default_left":[0,0,0,0,0,0,0,0,0,0,0,0,0,0,0,0,0,0,0,0,0,0,0,0,0,0,0,0,0,0,0,0,0,0,0,0,0,0,0,0,0,0,0,0,0,0,0,0,0,0,0,0,0,0,0,0,0,0,0,0,0,0,0,0,0,0,0],"id":0,"left_children":[1,3,5,7,9,11,13,-1,15,17,19,21,23,25,27,-1,-1,29,31,-1,-1,33,35,-1,37,39,41,43,-1,-1,-1,-1,-1,-1,45,47,49,51,-1,53,-1,-1,-1,-1,-1,55,57,-1,-1,59,61,63,65,-1,-1,-1,-1,-1,-1,-1,-1,-1,-1,-1,-1,-1,-1],"loss_changes":[2.4621862E7,4.3338E6,5.682416E6,4.41198E5,9.104575E5,2.4453065E6,1.283219E6,0E0,6.1411E4,1.98929E5,1.3310625E5,7.208276E5,6.117775E5,1.5878462E5,3.21785E5,0E0,0E0,5.2123E4,5.9122625E4,0E0,0E0,1.166255E5,1.2259681E5,0E0,3.6946175E5,3.844686E4,2.101475E4,3.52065E4,0E0,0E0,0E0,0E0,0E0,0E0,3.44445E4,2.6061746E4,6.7579086E4,1.7665812E5,0E0,1.57428125E4,0E0,0E0,0E0,0E0,0E0,3.6208188E4,1.597691E4,0E0,0E0,5.0611746E4,2.0246766E4,2.8566898E4,1.47295E5,0E0,0E0,0E0,0E0,0E0,0E0,0E0,0E0,0E0,0E0,0E0,0E0,0E0,0E0],"parents":[2147483647,0,0,1,1,2,2,3,3,4,4,5,5,6,6,8,8,9,9,10,10,11,11,12,12,13,13,14,14,17,17,18,18,21,21,22,22,24,24,25,25,26,26,27,27,34,34,35,35,36,36,37,37,39,39,45,45,46,46,49,49,50,50,51,51,52,52],"right_children":[2,4,6,8,10,12,14,-1,16,18,20,22,24,26,28,-1,-1,30,32,-1,-1,34,36,-1,38,40,42,44,-1,-1,-1,-1,-1,-1,46,48,50,52,-1,54,-1,-1,-1,-1,-1,56,58,-1,-1,60,62,64,66,-1,-1,-1,-1,-1,-1,-1,-1,-1,-1,-1,-1,-1,-1],"split_conditions":[3.651838E-1,2.0447342E-1,4.5247367E-1,4.260783E-1,3.831459E-1,4.312852E-1,4.151983E-1,-1.4193252E1,9.932846E-2,3.0062756E-1,6.178862E-1,3.52533E-1,2.3560265E-1,5.149107E-1,5.793697E-1,-5.391906E0,-1.0115406E1,6.5023464E-1,4.3688637E-1,1.7087743E0,-1.8377911E0,2.5903127E-1,4.8409486E-1,-1.7804409E0,5.0217974E-1,9.975999E-2,1.07586354E-1,4.5381767E-1,1.0559978E1,-7.2406335E0,-4.017042E0,-4.3719673E0,-1.3832692E0,-4.7495117E0,4.0175784E-1,5E-1,3.7127525E-1,5.6244063E-1,7.563294E0,3.7673315E-1,9.6036154E-1,5.5006733E0,3.0743878E0,4.6445036E0,7.488849E0,3.1778517E-1,4.2833608E-1,-5.9781084E-3,-1.898131E0,6.5023464E-1,4.3629658E-1,4.5883864E-1,3.612131E-1,1.622562E0,3.8103197E0,-3.370185E0,-1.7856649E0,-1.8348643E0,-2.457429E-1,1.3073248E0,-8.339025E-1,1.0105016E0,2.916622E0,7.476636E-2,1.8695266E0,2.2799E0,4.738122E0],"split_indices":[1,1,9,16,9,0,0,0,5,9,4,9,9,9,9,0,0,23,23,0,0,10,3,0,24,6,6,0,0,0,0,0,0,0,5,18,0,8,0,5,0,0,0,0,0,9,23,0,0,23,10,5,9,0,0,0,0,0,0,0,0,0,0,0,0,0,0],"split_type":[0,0,0,0,0,0,0,0,0,0,0,0,0,0,0,0,0,0,0,0,0,0,0,0,0,0,0,0,0,0,0,0,0,0,0,0,0,0,0,0,0,0,0,0,0,0,0,0,0,0,0,0,0,0,0,0,0,0,0,0,0,0,0,0,0,0,0],"sum_hessian":[3.93E2,1.13E2,2.8E2,4.8E1,6.5E1,1.76E2,1.04E2,3.1E1,1.7E1,5E1,1.5E1,9.3E1,8.3E1,4E1,6.4E1,6E0,1.1E1,3.4E1,1.6E1,7E0,8E0,5.3E1,4E1,8E0,7.5E1,1.8E1,2.2E1,4E1,2.4E1,2.7E1,7E0,1.1E1,5E0,1.1E1,4.2E1,1.1E1,2.9E1,6.6E1,9E0,1E1,8E0,1.5E1,7E0,9E0,3.1E1,3.2E1,1E1,5E0,6E0,1.6E1,1.3E1,1.7E1,4.9E1,5E0,5E0,1.6E1,1.6E1,5E0,5E0,9E0,7E0,5E0,8E0,5E0,1.2E1,1.9E1,3E1],"tree_param":{"num_deleted":"0","num_feature":"25","num_nodes":"67","size_leaf_vector":"1"}},{"base_weights":[-1.2850902E0,-3.5591214E2,1.554459E2,-6.071574E2,-1.983169E2,2.9946367E1,3.1855267E2,-4.8207507E0,-6.468939E2,-2.7872626E2,-4.8018124E1,-5.8968594E1,1.2446577E2,2.595629E2,9.580026E0,-1.5750634E1,-1.1169818E1,-6.6956615E0,-1.9070639E2,-1.5019388E2,5.7580357E1,-1.484413E2,2.3384537E1,7.16933E1,2.1366995E2,1.6510657E2,3.4016077E2,-2.2883589E2,-1.1445332E0,-1.4666935E0,-4.808674E0,-3.2504442E-1,3.1749833E0,-5.418559E0,-1.1204019E2,-3.0965292E1,1.1364459E2,-9.199142E0,1.6002417E2,7.7259266E-1,2.516914E2,9.2384476E1,2.2701373E2,4.7715883E0,3.7294495E2,-6.285525E0,-3.228394E0,-1.279279E2,-7.8556633E-1,-6.1878677E1,1.3236836E0,8.4627366E-1,3.0440352E0,-7.6408356E1,8.93869E1,7.781681E1,4.5777574E0,3.0168253E2,2.529682E0,4.831501E-1,1.2476528E2,2.8199265E0,5.1549754E0,1.004995E1,6.227684E0,-3.0384624E0,-1.7852899E0,-4.2035738E-1,-2.8116689E0,8.885078E-2,-3.6201687E0,1.5030956E-1,3.1268768E0,6.9902736E-1,2.0685527E0,7.409503E0,3.4024618E0,1.7019291E0,3.2691526E0],"categories":[],"categories_nodes":[],"categories_segments":[],"categories_sizes":[],"default_left":[0,0,0,0,0,0,0,0,0,0,0,0,0,0,0,0,0,0,0,0,0,0,0,0,0,0,0,0,0,0,0,0,0,0,0,0,0,0,0,0,0,0,0,0,0,0,0,0,0,0,0,0,0,0,0,0,0,0,0,0,0,0,0,0,0,0,0,0,0,0,0,0,0,0,0,0,0,0,0],"id":1,"left_children":[1,3,5,7,9,11,13,-1,15,17,19,21,23,25,-1,-1,-1,-1,27,29,31,33,35,37,39,41,43,45,-1,-1,-1,-1,-1,-1,47,49,51,53,55,-1,57,59,61,-1,63,-1,-1,65,-1,67,-1,-1,-1,69,71,73,-1,75,-1,-1,77,-1,-1,-1,-1,-1,-1,-1,-1,-1,-1,-1,-1,-1,-1,-1,-1,-1,-1],"loss_changes":[2.139847E7,4.551728E6,5.4558675E6,4.9866E5,8.8090525E5,1.284783E6,9.73516E5,0E0,5.7348E4,1.729395E5,2.999768E5,5.85584E5,3.3300962E5,6.06116E5,0E0,0E0,0E0,0E0,9.3755625E4,7.943716E4,1.0716803E5,1.3903562E5,2.0956328E5,3.4446162E5,1.69941E5,1.6808025E5,6.41535E4,4.1383062E4,0E0,0E0,0E0,0E0,0E0,0E0,3.0795094E4,8.5181875E4,3.7545438E4,1.7910177E5,1.12363375E5,0E0,9.9502875E4,4.3365234E4,2.1781E4,0E0,1.066355E5,0E0,0E0,9.608E3,0E0,6.4563836E4,0E0,0E0,0E0,1.3613394E5,5.910908E4,9.545055E3,0E0,7.267425E4,0E0,0E0,7.553797E3,0E0,0E0,0E0,0E0,0E0,0E0,0E0,0E0,0E0,0E0,0E0,0E0,0E0,0E0,0E0,0E0,0E0,0E0],"parents":[2147483647,0,0,1,1,2,2,3,3,4,4,5,5,6,6,8,8,9,9,10,10,11,11,12,12,13,13,18,18,19,19,20,20,21,21,22,22,23,23,24,24,25,25,26,26,27,27,34,34,35,35,36,36,37,37,38,38,40,40,41,41,42,42,44,44,47,47,49,49,53,53,54,54,55,55,57,57,60,60],"right_children":[2,4,6,8,10,12,14,-1,16,18,20,22,24,26,-1,-1,-1,-1,28,30,32,34,36,38,40,42,44,46,-1,-1,-1,-1,-1,-1,48,50,52,54,56,-1,58,60,62,-1,64,-1,-1,66,-1,68,-1,-1,-1,70,72,74,-1,76,-1,-1,78,-1,-1,-1,-1,-1,-1,-1,-1,-1,-1,-1,-1,-1,-1,-1,-1,-1,-1],"split_conditions":[3.2109421E-1,1.9258234E-1,4.2855155E-1,5.464576E-1,3.831459E-1,4.196919E-1,5.7393634E-1,-4.8207507E0,8.9255385E-2,4.2833608E-1,2.6340437E-1,3.4352288E-1,5.466522E-1,4.5010862E-1,9.580026E0,-1.5750634E1,-1.1169818E1,-6.6956615E0,9.9968694E-2,6.666667E-1,4.158408E-1,2.2710523E-1,6.8496877E-1,3.4642544E-1,2.816657E-1,6.0388124E-1,4.8756507E-1,2.6482964E-1,-1.1445332E0,-1.4666935E0,-4.808674E0,-3.2504442E-1,3.1749833E0,-5.418559E0,3.9974323E-1,6E-1,5.216888E-1,5.6825876E-1,5.1185656E-1,7.7259266E-1,6.803283E-1,5.2226957E-2,3.7673315E-1,4.7715883E0,5.400697E-1,-6.285525E0,-3.228394E0,3.1778517E-1,-7.8556633E-1,3.973446E-1,1.3236836E0,8.4627366E-1,3.0440352E0,2.2015491E-1,4.880703E-1,5.9148836E-1,4.5777574E0,5.6390977E-1,2.529682E0,4.831501E-1,2.4428195E-1,2.8199265E0,5.1549754E0,1.004995E1,6.227684E0,-3.0384624E0,-1.7852899E0,-4.2035738E-1,-2.8116689E0,8.885078E-2,-3.6201687E0,1.5030956E-1,3.1268768E0,6.9902736E-1,2.0685527E0,7.409503E0,3.4024618E0,1.7019291E0,3.2691526E0],"split_indices":[5,9,9,4,9,5,9,0,5,23,8,9,5,5,0,0,0,0,6,18,13,9,16,9,3,11,3,8,0,0,0,0,0,0,5,22,3,11,3,0,11,23,5,0,4,0,0,9,0,9,0,0,0,17,5,2,0,3,0,0,17,0,0,0,0,0,0,0,0,0,0,0,0,0,0,0,0,0,0],"split_type":[0,0,0,0,0,0,0,0,0,0,0,0,0,0,0,0,0,0,0,0,0,0,0,0,0,0,0,0,0,0,0,0,0,0,0,0,0,0,0,0,0,0,0,0,0,0,0,0,0,0,0,0,0,0,0,0,0,0,0,0,0,0,0,0,0,0,0,0,0,0,0,0,0,0,0,0,0,0,0],"sum_hessian":[3.83E2,1.17E2,2.66E2,4.4E1,7.3E1,1.51E2,1.15E2,5E0,3.9E1,4.7E1,2.6E1,7.8E1,7.3E1,8.6E1,2.9E1,1.2E1,2.7E1,2.7E1,2E1,1.3E1,1.3E1,3.7E1,4.1E1,4.7E1,2.6E1,4.1E1,4.5E1,1.5E1,5E0,8E0,5E0,8E0,5E0,7E0,3E1,2.6E1,1.5E1,2.5E1,2.2E1,5E0,2.1E1,2E1,2.1E1,1.3E1,3.2E1,5E0,1E1,2.4E1,6E0,2E1,6E0,6E0,9E0,1.5E1,1E1,1.1E1,1.1E1,1.4E1,7E0,7E0,1.3E1,7E0,1.4E1,8E0,2.4E1,1.3E1,1.1E1,1.4E1,6E0,9E0,6E0,5E0,5E0,5E0,6E0,8E0,6E0,8E0,5E0],"tree_param":{"num_deleted":"0","num_feature":"25","num_nodes":"79","size_leaf_vector":"1"}},{"base_weights":[1.5398393E1,-4.329997E2,1.2170019E2,-5.9872375E2,-2.5109122E2,1.2240838E1,2.8535263E2,-6.9130282E0,-1.2894316E1,-3.2087015E2,-1.3944572E2,-7.609915E1,1.3779979E2,2.2558112E2,4.593153E2,-3.627578E0,-7.024435E0,-1.772236E0,-3.2214978E0,-1.7958061E2,1.8146894E1,-1.7414132E0,1.6474457E2,1.3781259E2,3.2003696E2,4.9921193E0,9.800799E0,-5.752283E0,-1.3727687E2,-4.9439213E1,7.672077E1,4.4774616E-1,1.777392E2,-1.604609E-1,1.6119833E2,3.428985E2,4.114435E0,-1.6630734E2,-1.05960686E2,-7.316314E1,6.4340293E-1,5.143748E1,3.5538428E0,1.3901567E2,2.4534247E2,1.2292453E2,2.2048845E2,7.5571666E0,4.58169E0,-3.6853924E0,-1.9332162E0,-2.3413508E0,-1.1362894E0,-1.9666235E0,2.0647004E-1,1.8828343E0,1.0104E-1,7.3193663E-1,3.3787932E0,3.2884166E0,5.774194E0,9.2612034E-1,3.216153E0,2.6864996E0,4.948664E0],"categories":[],"categories_nodes":[],"categories_segments":[],"categories_sizes":[],"default_left":[0,0,0,0,0,0,0,0,0,0,0,0,0,0,0,0,0,0,0,0,0,0,0,0,0,0,0,0,0,0,0,0,0,0,0,0,0,0,0,0,0,0,0,0,0,0,0,0,0,0,0,0,0,0,0,0,0,0,0,0,0,0,0,0,0],"id":2,"left_children":[1,3,5,7,9,11,13,-1,-1,15,17,19,21,23,25,-1,-1,-1,-1,27,29,-1,31,33,35,-1,-1,-1,37,39,41,-1,43,-1,45,47,-1,49,51,53,-1,55,-1,57,59,61,63,-1,-1,-1,-1,-1,-1,-1,-1,-1,-1,-1,-1,-1,-1,-1,-1,-1,-1],"loss_changes":[1.840389E7,2.08043E6,5.5854245E6,2.19348E5,2.4345875E5,2.0957654E6,1.196071E6,0E0,0E0,2.938575E4,3.2938125E3,1.0858268E6,4.8696075E5,7.434225E5,7.73505E4,0E0,0E0,0E0,0E0,2.0269675E5,2.373638E5,0E0,1.254925E5,1.7524294E5,4.7008E4,0E0,0E0,0E0,1.8715688E4,5.65684E4,7.252947E4,0E0,1.3339662E5,0E0,7.27095E4,5.66185E4,0E0,5.9294375E3,5.3404062E3,4.7250234E4,0E0,5.2997594E4,0E0,1.25582375E5,2.96905E4,7.670681E4,3.8718125E3,0E0,0E0,0E0,0E0,0E0,0E0,0E0,0E0,0E0,0E0,0E0,0E0,0E0,0E0,0E0,0E0,0E0,0E0],"parents":[2147483647,0,0,1,1,2,2,3,3,4,4,5,5,6,6,9,9,10,10,11,11,12,12,13,13,14,14,19,19,20,20,22,22,23,23,24,24,28,28,29,29,30,30,32,32,34,34,35,35,37,37,38,38,39,39,41,41,43,43,44,44,45,45,46,46],"right_children":[2,4,6,8,10,12,14,-1,-1,16,18,20,22,24,26,-1,-1,-1,-1,28,30,-1,32,34,36,-1,-1,-1,38,40,42,-1,44,-1,46,48,-1,50,52,54,-1,56,-1,58,60,62,64,-1,-1,-1,-1,-1,-1,-1,-1,-1,-1,-1,-1,-1,-1,-1,-1,-1,-1],"split_conditions":[3.217231E-1,2.3745689E-1,4.2855155E-1,2.4857543E-2,3.1531778E-1,4.304869E-1,5.7393634E-1,-6.9130282E0,-1.2894316E1,3.5418683E-1,2.6340437E-1,3.4463352E-1,2.3560265E-1,4.5381767E-1,3.5411367E-1,-3.627578E0,-7.024435E0,-1.772236E0,-3.2214978E0,2.4279395E-1,3.5636225E-1,-1.7414132E0,1.1988665E-1,3.1782335E-1,9.0844405E-1,4.9921193E0,9.800799E0,-5.752283E0,9.485547E-2,1.1948242E-1,5.492256E-1,4.4774616E-1,5.558126E-1,-1.604609E-1,5.149107E-1,6.299056E-1,4.114435E0,5.53441E-1,7.102156E-2,4.0871826E-1,6.4340293E-1,4.4544208E-1,3.5538428E0,5.2266306E-1,1.8315025E-1,3.6994416E-1,4.0556857E-1,7.5571666E0,4.58169E0,-3.6853924E0,-1.9332162E0,-2.3413508E0,-1.1362894E0,-1.9666235E0,2.0647004E-1,1.8828343E0,1.0104E-1,7.3193663E-1,3.3787932E0,3.2884166E0,5.774194E0,9.2612034E-1,3.216153E0,2.6864996E0,4.948664E0],"split_indices":[1,1,9,7,9,0,9,0,0,12,8,9,9,0,0,0,0,0,0,9,13,0,17,13,20,0,0,0,6,6,21,0,3,0,9,12,0,11,7,9,0,13,0,1,17,0,13,0,0,0,0,0,0,0,0,0,0,0,0,0,0,0,0,0,0],"split_type":[0,0,0,0,0,0,0,0,0,0,0,0,0,0,0,0,0,0,0,0,0,0,0,0,0,0,0,0,0,0,0,0,0,0,0,0,0,0,0,0,0,0,0,0,0,0,0,0,0,0,0,0,0,0,0,0,0,0,0,0,0,0,0,0,0],"sum_hessian":[3.84E2,7.3E1,3.11E2,3.7E1,3.6E1,1.87E2,1.24E2,7E0,3E1,2.1E1,1.5E1,1.1E2,7.7E1,9.4E1,3E1,5E0,1.6E1,6E0,9E0,5.2E1,5.8E1,8E0,6.9E1,5E1,4.4E1,5E0,2.5E1,1.3E1,3.9E1,2.7E1,3.1E1,6E0,6.3E1,7E0,4.3E1,3.5E1,9E0,1.8E1,2.1E1,2.1E1,6E0,2.6E1,5E0,4.2E1,2.1E1,2.8E1,1.5E1,2.5E1,1E1,1.3E1,5E0,1.6E1,5E0,1.6E1,5E0,1.3E1,1.3E1,1E1,3.2E1,9E0,1.2E1,1E1,1.8E1,5E0,1E1],"tree_param":{"num_deleted":"0","num_feature":"25","num_nodes":"65","size_leaf_vector":"1"}},{"base_weights":[7.8379077E-1,-3.9955942E2,1.6007288E2,-6.285489E2,-2.269662E2,5.9841934E1,2.8528357E2,-1.5520186E1,-5.305652E2,-7.116219E1,-3.0324863E2,2.1316467E2,-6.4012237E0,4.93481E2,2.3649582E2,-6.40732E0,-1.1152437E1,-1.3529243E2,1.3196216E0,-6.5400467E0,-3.795514E0,1.3466753E2,3.1632233E2,3.446429E1,-1.1429383E2,6.5917935E0,1.1178207E1,1.9379683E2,3.151339E2,-4.617694E0,-7.084281E1,5.558036E1,2.0477019E2,9.072278E0,4.5014987E0,-4.2936546E1,8.486156E1,-4.8026953E0,-6.0078083E1,2.273903E2,-6.098608E-1,3.4935016E2,3.8929665E0,-7.614456E-1,-1.8357906E0,-1.9483949E-1,2.0044427E0,1.9811453E0,5.2845597E0,-1.167377E2,-7.251631E-1,-2.8058252E0,1.1903514E2,-2.4545484E0,-1.1030124E1,2.8281516E2,1.6832043E2,2.8387808E2,8.514152E0,-3.4944801E0,-5.922808E-1,8.79473E-1,-1.4037437E0,-5.022848E-1,5.252594E-1,2.7677438E0,-1.5460123E-2,4.3891677E-1,-1.1734475E0,2.988975E0,6.07013E0,1.4702728E0,4.044363E0,6.4350243E0,3.216043E0],"categories":[],"categories_nodes":[],"categories_segments":[],"categories_sizes":[],"default_left":[0,0,0,0,0,0,0,0,0,0,0,0,0,0,0,0,0,0,0,0,0,0,0,0,0,0,0,0,0,0,0,0,0,0,0,0,0,0,0,0,0,0,0,0,0,0,0,0,0,0,0,0,0,0,0,0,0,0,0,0,0,0,0,0,0,0,0,0,0,0,0,0,0,0,0],"id":3,"left_children":[1,3,5,7,9,11,13,-1,15,17,19,21,23,25,27,-1,-1,29,-1,-1,-1,31,33,35,37,-1,-1,39,41,-1,43,45,47,-1,-1,49,51,-1,53,55,-1,57,-1,-1,-1,-1,-1,-1,-1,59,61,63,65,-1,67,69,71,73,-1,-1,-1,-1,-1,-1,-1,-1,-1,-1,-1,-1,-1,-1,-1,-1,-1],"loss_changes":[2.5316974E7,4.323244E6,3.5470885E6,2.81684E5,7.6279975E5,1.616282E6,1.163064E6,0E0,3.262E3,2.1121942E5,5.6489E4,3.4604025E5,4.9776475E5,6.23365E4,2.880845E5,0E0,0E0,8.218747E4,0E0,0E0,0E0,1.4937512E5,1.48385E5,3.2351262E5,1.9704253E5,0E0,0E0,5.3438075E5,7.623525E4,0E0,4.0431719E3,4.4726984E4,6.807181E4,0E0,0E0,1.027068E5,1.501411E5,0E0,6.9307836E4,1.5206175E5,0E0,9.06125E3,0E0,0E0,0E0,0E0,0E0,0E0,0E0,5.5429062E4,7.139615E4,1.0386642E4,8.358797E4,0E0,2.3285977E4,3.738175E4,8.7946125E4,2.7455E4,0E0,0E0,0E0,0E0,0E0,0E0,0E0,0E0,0E0,0E0,0E0,0E0,0E0,0E0,0E0,0E0,0E0],"parents":[2147483647,0,0,1,1,2,2,3,3,4,4,5,5,6,6,8,8,9,9,10,10,11,11,12,12,13,13,14,14,17,17,21,21,22,22,23,23,24,24,27,27,28,28,30,30,31,31,32,32,35,35,36,36,38,38,39,39,41,41,49,49,50,50,51,51,52,52,54,54,55,55,56,56,57,57],"right_children":[2,4,6,8,10,12,14,-1,16,18,20,22,24,26,28,-1,-1,30,-1,-1,-1,32,34,36,38,-1,-1,40,42,-1,44,46,48,-1,-1,50,52,-1,54,56,-1,58,-1,-1,-1,-1,-1,-1,-1,60,62,64,66,-1,68,70,72,74,-1,-1,-1,-1,-1,-1,-1,-1,-1,-1,-1,-1,-1,-1,-1,-1,-1],"split_conditions":[3.552538E-1,2.0447342E-1,5.030486E-1,4.507239E-2,4.338957E-1,4.3280342E-1,4.6255597E-1,-1.5520186E1,1.01856604E-1,2.5528103E-1,9.610769E-2,3.981313E-1,5.898451E-1,2.6469874E-1,5.883917E-1,-6.40732E0,-1.1152437E1,2.5441843E-1,1.3196216E0,-6.5400467E0,-3.795514E0,2.3669496E-1,3.5645106E-1,3.7127525E-1,3.4309772E-1,6.5917935E0,1.1178207E1,7.024002E-1,3.9300442E-1,-4.617694E0,4.5160505E-1,3.124902E-1,4.7737113E-1,9.072278E0,4.5014987E0,2.7767923E-1,3.2878464E-1,-4.8026953E0,3.9579302E-1,5.9522194E-1,-6.098608E-1,6.8227255E-1,3.8929665E0,-7.614456E-1,-1.8357906E0,-1.9483949E-1,2.0044427E0,1.9811453E0,5.2845597E0,5.1348597E-1,5.1154244E-1,1.7426693E-1,1.7928813E-1,-2.4545484E0,6.18285E-1,5.3963906E-1,4.9009764E-1,3.622925E-1,8.514152E0,-3.4944801E0,-5.922808E-1,8.79473E-1,-1.4037437E0,-5.022848E-1,5.252594E-1,2.7677438E0,-1.5460123E-2,4.3891677E-1,-1.1734475E0,2.988975E0,6.07013E0,1.4702728E0,4.044363E0,6.4350243E0,3.216043E0],"split_indices":[1,1,1,0,21,21,21,0,5,0,6,0,21,17,0,0,0,15,0,0,0,17,21,0,11,0,0,21,14,0,12,0,12,0,0,15,14,0,5,21,0,0,0,0,0,0,0,0,0,11,21,6,7,0,2,2,0,7,0,0,0,0,0,0,0,0,0,0,0,0,0,0,0,0,0],"split_type":[0,0,0,0,0,0,0,0,0,0,0,0,0,0,0,0,0,0,0,0,0,0,0,0,0,0,0,0,0,0,0,0,0,0,0,0,0,0,0,0,0,0,0,0,0,0,0,0,0,0,0,0,0,0,0,0,0,0,0,0,0,0,0,0,0,0,0,0,0,0,0,0,0,0,0],"sum_hessian":[3.95E2,1.12E2,2.83E2,4.7E1,6.5E1,1.58E2,1.25E2,1.6E1,3.1E1,2.2E1,4.3E1,4.7E1,1.11E2,2.2E1,1.03E2,5E0,2.6E1,1.5E1,7E0,3.4E1,9E0,2.8E1,1.9E1,8.1E1,3E1,8E0,1.4E1,6.9E1,3.4E1,5E0,1E1,1.4E1,1.4E1,6E0,1.3E1,3.2E1,4.9E1,8E0,2.2E1,6E1,9E0,2.5E1,9E0,5E0,5E0,6E0,8E0,6E0,8E0,1.1E1,2.1E1,1.4E1,3.5E1,9E0,1.3E1,2.9E1,3.1E1,1.6E1,9E0,6E0,5E0,1.3E1,8E0,8E0,6E0,3E1,5E0,8E0,5E0,5E0,2.4E1,9E0,2.2E1,1.1E1,5E0],"tree_param":{"num_deleted":"0","num_feature":"25","num_nodes":"75","size_leaf_vector":"1"}},{"base_weights":[3.4335768E0,-4.2619293E2,1.3151064E2,-5.91671E2,-2.6211765E2,2.7684368E1,3.1319098E2,-1.5774758E1,-4.9312085E2,-6.7460423E0,-1.7973958E2,-5.8724865E1,1.4193948E2,2.127519E2,4.0832E2,-1.0834931E1,-6.4446893E0,-4.482666E0,-1.2567116E2,-1.4997731E2,3.506787E1,-3.312301E0,1.7021506E2,1.6240448E2,3.6297543E2,6.8654065E0,1.0976655E1,-6.7226523E-1,-3.8100085E0,-5.47703E0,-1.16577965E2,-3.8048584E1,7.957357E1,1.3938634E2,7.5646644E0,9.428355E-1,1.8916455E2,4.5545E0,8.256013E0,-4.1557436E0,-9.371063E1,-1.0897473E2,2.488497E1,-7.1271276E-1,1.07646904E2,1.9216858E-2,1.5405174E2,1.9303812E0,2.0062106E2,-4.4930613E-1,-2.0595798E0,-2.8129086E0,-1.1824983E0,-5.6683592E-2,1.1542602E0,1.304951E0,3.3160062E0,1.6561807E0,3.5038247E0,2.0484214E0,4.3001833E0],"categories":[],"categories_nodes":[],"categories_segments":[],"categories_sizes":[],"default_left":[0,0,0,0,0,0,0,0,0,0,0,0,0,0,0,0,0,0,0,0,0,0,0,0,0,0,0,0,0,0,0,0,0,0,0,0,0,0,0,0,0,0,0,0,0,0,0,0,0,0,0,0,0,0,0,0,0,0,0,0,0],"id":4,"left_children":[1,3,5,7,9,11,13,-1,15,-1,17,19,21,23,25,-1,-1,-1,27,29,31,-1,33,35,37,-1,-1,-1,-1,-1,39,41,43,45,-1,-1,47,-1,-1,-1,49,51,53,-1,55,-1,57,-1,59,-1,-1,-1,-1,-1,-1,-1,-1,-1,-1,-1,-1],"loss_changes":[2.3001568E7,2.451312E6,6.065242E6,5.23714E5,2.4899925E5,2.0421191E6,1.030963E6,0E0,1.078665E5,0E0,3.4205688E4,1.0152113E6,8.021596E5,3.8723725E5,3.50792E5,0E0,0E0,0E0,7.712689E4,2.1627488E5,1.9502362E5,0E0,4.73088E5,1.32943E5,2.75375E2,0E0,0E0,0E0,0E0,0E0,8.2697875E4,1.0538384E5,1.2351259E5,1.480315E5,0E0,0E0,1.9878125E4,0E0,0E0,0E0,2.4747469E4,9.0309375E3,1.1998605E4,0E0,6.3128844E4,0E0,8.4865E4,0E0,2.316E4,0E0,0E0,0E0,0E0,0E0,0E0,0E0,0E0,0E0,0E0,0E0,0E0],"parents":[2147483647,0,0,1,1,2,2,3,3,4,4,5,5,6,6,8,8,10,10,11,11,12,12,13,13,14,14,18,18,19,19,20,20,22,22,23,23,24,24,30,30,31,31,32,32,33,33,36,36,40,40,41,41,42,42,44,44,46,46,48,48],"right_children":[2,4,6,8,10,12,14,-1,16,-1,18,20,22,24,26,-1,-1,-1,28,30,32,-1,34,36,38,-1,-1,-1,-1,-1,40,42,44,46,-1,-1,48,-1,-1,-1,50,52,54,-1,56,-1,58,-1,60,-1,-1,-1,-1,-1,-1,-1,-1,-1,-1,-1,-1],"split_conditions":[2.5877726E-1,2.2710523E-1,4.416883E-1,9.222359E-2,3.1778517E-1,4.312852E-1,4.6570215E-1,-1.5774758E1,1.8948612E-1,-6.7460423E0,3.5266015E-1,3.52533E-1,1.6414651E-1,5.6634766E-1,4.763649E-1,-1.0834931E1,-6.4446893E0,-4.482666E0,4.8030588E-1,2.324194E-1,3.3743435E-1,-3.312301E0,4.420551E-1,4.717808E-1,3.7396386E-1,6.8654065E0,1.0976655E1,-6.7226523E-1,-3.8100085E0,-5.47703E0,1.8726954E-1,3.4781307E-1,3.7213248E-1,2.9257876E-1,7.5646644E0,9.428355E-1,3.43719E-1,4.5545E0,8.256013E0,-4.1557436E0,3.6817655E-1,3.840258E-1,3.702252E-2,-7.1271276E-1,4.421088E-1,1.9216858E-2,4.6256942E-1,1.9303812E0,5.002147E-1,-4.4930613E-1,-2.0595798E0,-2.8129086E0,-1.1824983E0,-5.6683592E-2,1.1542602E0,1.304951E0,3.3160062E0,1.6561807E0,3.5038247E0,2.0484214E0,4.3001833E0],"split_indices":[0,9,9,0,9,0,0,0,0,0,23,9,9,9,24,0,0,0,12,9,13,0,24,9,13,0,0,0,0,0,14,0,8,10,0,0,10,0,0,0,4,9,24,0,14,0,0,0,12,0,0,0,0,0,0,0,0,0,0,0,0],"split_type":[0,0,0,0,0,0,0,0,0,0,0,0,0,0,0,0,0,0,0,0,0,0,0,0,0,0,0,0,0,0,0,0,0,0,0,0,0,0,0,0,0,0,0,0,0,0,0,0,0,0,0,0,0,0,0,0,0,0,0,0,0],"sum_hessian":[4.16E2,9.5E1,3.21E2,4.6E1,4.9E1,2.05E2,1.16E2,1.3E1,3.3E1,2.4E1,2.5E1,1.17E2,8.8E1,5.8E1,5.8E1,2.4E1,9E0,1.2E1,1.3E1,5.9E1,5.8E1,7E0,8.1E1,4.5E1,1.3E1,4.2E1,1.6E1,6E0,7E0,1.1E1,4.8E1,2.2E1,3.6E1,7.2E1,9E0,9E0,3.6E1,5E0,8E0,8E0,4E1,1E1,1.2E1,7E0,2.9E1,7E0,6.5E1,5E0,3.1E1,5E0,3.5E1,5E0,5E0,7E0,5E0,1.8E1,1.1E1,1.6E1,4.9E1,5E0,2.6E1],"tree_param":{"num_deleted":"0","num_feature":"25","num_nodes":"61","size_leaf_vector":"1"}},{"base_weights":[-5.3361435E0,-4.2654034E2,1.2396164E2,-6.0208124E2,-2.340925E2,2.5581259E1,3.039324E2,-1.5502292E1,-5.0803174E2,-1.2334986E2,-2.8904025E2,-5.994583E1,1.488058E2,2.3249994E2,4.5706583E2,-5.6771502E0,-1.0737816E1,-2.8364198E0,-1.316652E0,-6.362708E0,-2.3924086E0,-1.3411247E2,1.5235142E1,-2.1369417E0,1.70684E2,1.5406769E2,3.1773203E2,5.19802E0,5.0014865E2,-2.3542258E2,-9.0938416E1,-5.3613205E1,7.110697E1,1.3504202E2,2.6194235E2,1.09944786E2,1.948945E2,4.5788684E0,6.8817143E0,7.1095257E0,1.1116472E1,-5.7292905E0,-2.8435962E0,-1.3166699E2,-6.1922703E1,-8.5429115E1,4.2167303E-1,-1.023403E0,9.477325E1,1.12233475E2,6.1278205E0,2.4431581E0,6.0077324E0,1.0416584E0,2.7856271E0,2.683627E0,4.64723E0,-3.0130303E0,-1.4347359E0,-1.7273746E0,-4.8318884E-1,-2.3188074E0,-7.3197806E-1,-6.139005E-1,6.296952E-1,5.2088666E-1,2.5190604E0,1.1536938E0,3.7481728E0],"categories":[],"categories_nodes":[],"categories_segments":[],"categories_sizes":[],"default_left":[0,0,0,0,0,0,0,0,0,0,0,0,0,0,0,0,0,0,0,0,0,0,0,0,0,0,0,0,0,0,0,0,0,0,0,0,0,0,0,0,0,0,0,0,0,0,0,0,0,0,0,0,0,0,0,0,0,0,0,0,0,0,0,0,0,0,0,0,0],"id":5,"left_children":[1,3,5,7,9,11,13,-1,15,17,19,21,23,25,27,-1,-1,-1,-1,-1,-1,29,31,-1,33,35,37,-1,39,41,43,45,47,49,51,53,55,-1,-1,-1,-1,-1,-1,57,59,61,63,-1,65,67,-1,-1,-1,-1,-1,-1,-1,-1,-1,-1,-1,-1,-1,-1,-1,-1,-1,-1,-1],"loss_changes":[2.1564908E7,3.000744E6,5.3569875E6,3.87226E5,2.442185E5,2.0851195E6,1.064104E6,0E0,6.7479E4,8.703734E3,1.0977925E5,6.5443775E5,4.7129438E5,4.52371E5,1.5025E5,0E0,0E0,0E0,0E0,0E0,0E0,2.366225E5,2.3076831E5,0E0,2.0853425E5,5.239925E4,3.06325E3,0E0,1.17475E4,4.0135688E4,4.26435E4,4.6462086E4,1.00350766E5,1.8443119E5,7.07415E4,3.0071E4,1.42795E4,0E0,0E0,0E0,0E0,0E0,0E0,8.5121875E3,2.2827695E4,2.1069266E4,1.1598891E4,0E0,5.670708E4,1.9830138E5,0E0,0E0,0E0,0E0,0E0,0E0,0E0,0E0,0E0,0E0,0E0,0E0,0E0,0E0,0E0,0E0,0E0,0E0,0E0],"parents":[2147483647,0,0,1,1,2,2,3,3,4,4,5,5,6,6,8,8,9,9,10,10,11,11,12,12,13,13,14,14,21,21,22,22,24,24,25,25,26,26,28,28,29,29,30,30,31,31,32,32,33,33,34,34,35,35,36,36,43,43,44,44,45,45,46,46,48,48,49,49],"right_children":[2,4,6,8,10,12,14,-1,16,18,20,22,24,26,28,-1,-1,-1,-1,-1,-1,30,32,-1,34,36,38,-1,40,42,44,46,48,50,52,54,56,-1,-1,-1,-1,-1,-1,58,60,62,64,-1,66,68,-1,-1,-1,-1,-1,-1,-1,-1,-1,-1,-1,-1,-1,-1,-1,-1,-1,-1,-1],"split_conditions":[3.249074E-1,2.086365E-1,4.6226245E-1,1.4687097E-1,4.3213978E-1,4.304869E-1,5.7393634E-1,-1.5502292E1,9.3659885E-2,4.080109E-1,5.818392E-1,3.52533E-1,2.4933669E-1,4.5381767E-1,3.993114E-1,-5.6771502E0,-1.0737816E1,-2.8364198E0,-1.316652E0,-6.362708E0,-2.3924086E0,3.2109421E-1,3.5636225E-1,-2.1369417E0,6.149591E-1,5.149107E-1,5.0780797E-1,5.19802E0,2.7555448E-1,2.8750235E-1,1.9598453E-1,3.5411367E-1,4.626952E-1,4.8496625E-1,5E-1,3.6618847E-1,3.9781836E-1,4.5788684E0,6.8817143E0,7.1095257E0,1.1116472E1,-5.7292905E0,-2.8435962E0,3.338347E-1,6.666667E-1,2.1173261E-1,4.8409486E-1,-1.023403E0,6.6455203E-1,6.955257E-1,6.1278205E0,2.4431581E0,6.0077324E0,1.0416584E0,2.7856271E0,2.683627E0,4.64723E0,-3.0130303E0,-1.4347359E0,-1.7273746E0,-4.8318884E-1,-2.3188074E0,-7.3197806E-1,-6.139005E-1,6.296952E-1,5.2088666E-1,2.5190604E0,1.1536938E0,3.7481728E0],"split_indices":[1,1,9,9,21,0,9,0,5,21,3,9,9,0,0,0,0,0,0,0,0,5,13,0,1,9,3,0,17,9,17,0,3,24,18,5,13,0,0,0,0,0,0,9,18,17,3,0,16,16,0,0,0,0,0,0,0,0,0,0,0,0,0,0,0,0,0,0,0],"split_type":[0,0,0,0,0,0,0,0,0,0,0,0,0,0,0,0,0,0,0,0,0,0,0,0,0,0,0,0,0,0,0,0,0,0,0,0,0,0,0,0,0,0,0,0,0,0,0,0,0,0,0,0,0,0,0,0,0,0,0,0,0,0,0,0,0,0,0,0,0],"sum_hessian":[3.94E2,9.2E1,3.02E2,4.7E1,4.5E1,1.96E2,1.06E2,1.4E1,3.3E1,1.6E1,2.9E1,1.16E2,8E1,7.4E1,3.2E1,5E0,2.8E1,1.1E1,5E0,2.4E1,5E0,5.8E1,5.8E1,6E0,7.4E1,4E1,3.4E1,7E0,2.5E1,1.6E1,4.2E1,2.6E1,3.2E1,5.5E1,1.9E1,2.1E1,1.9E1,1E1,2.4E1,9E0,1.6E1,9E0,7E0,1.6E1,2.6E1,1.6E1,1E1,5E0,2.7E1,5E1,5E0,5E0,1.4E1,8E0,1.3E1,9E0,1E1,1.1E1,5E0,1.5E1,1.1E1,9E0,7E0,5E0,5E0,9E0,1.8E1,3E1,2E1],"tree_param":{"num_deleted":"0","num_feature":"25","num_nodes":"69","size_leaf_vector":"1"}},{"base_weights":[3.396003E0,-3.9368246E2,1.3177373E2,-5.942745E2,-2.4855379E2,-6.972132E0,2.322855E2,-1.501135E1,-4.812449E2,-3.4143756E2,-1.8230434E2,-1.10898285E2,9.3862015E1,1.804831E2,3.2770038E2,-5.8324203E0,-1.0470921E1,-4.1600366E0,-7.3388367E0,-7.2071606E-1,-2.0473036E2,-1.6537209E2,-7.3133064E1,5.9483456E1,1.8031805E2,7.921157E1,2.5185207E2,3.572906E2,3.6465984E-2,-5.5710764E0,-1.07408394E2,-1.9950931E2,-4.8005322E-1,-4.6258835E1,-1.3732576E2,3.3195372E0,3.0649673E1,1.7982047E0,2.0816644E2,-3.542559E0,1.1910145E2,1.9421324E2,6.7054095E0,3.0830704E2,1.0142288E1,-6.0586494E-1,-2.8585327E0,-2.68821E0,-4.4843106E0,-7.691284E1,-2.607184E1,-3.905148E0,-1.1297964E0,-1.86739E1,6.961671E1,2.5224888E0,4.8732924E0,6.4519935E0,7.0568474E1,2.5762207E2,1.4078633E2,4.5052795E0,6.5831766E0,-2.2683644E0,-5.514395E-1,-7.0626535E-2,-1.4860879E0,-1.4686865E0,8.846956E-1,1.9741403E0,1.271557E-1,-1.2336125E0,2.476194E0,6.1761675E0,2.6611338E0,3.2966793E0,7.429304E-1],"categories":[],"categories_nodes":[],"categories_segments":[],"categories_sizes":[],"default_left":[0,0,0,0,0,0,0,0,0,0,0,0,0,0,0,0,0,0,0,0,0,0,0,0,0,0,0,0,0,0,0,0,0,0,0,0,0,0,0,0,0,0,0,0,0,0,0,0,0,0,0,0,0,0,0,0,0,0,0,0,0,0,0,0,0,0,0,0,0,0,0,0,0,0,0,0,0],"id":6,"left_children":[1,3,5,7,9,11,13,-1,15,17,19,21,23,25,27,-1,-1,-1,-1,-1,29,31,33,35,37,39,41,43,-1,-1,45,47,-1,49,51,-1,53,-1,55,-1,57,59,-1,61,-1,-1,-1,-1,-1,63,65,-1,-1,67,69,-1,-1,-1,71,73,75,-1,-1,-1,-1,-1,-1,-1,-1,-1,-1,-1,-1,-1,-1,-1,-1],"loss_changes":[2.0238358E7,2.676038E6,4.185321E6,3.45299E5,2.9460475E5,1.3412825E6,8.00838E5,0E0,5.57955E4,1.891E3,1.1068625E5,1.1748656E5,1.8244525E5,8.1119675E5,5.77879E5,0E0,0E0,0E0,0E0,0E0,1.927665E5,1.15837875E5,6.090914E4,1.4228236E5,2.657275E4,5.2213272E5,2.56978E5,2.47211E5,0E0,0E0,3.673786E4,1.9941875E3,0E0,1.5929996E4,4.0457297E4,0E0,7.626284E4,0E0,7.0914375E3,0E0,4.0187944E5,1.059755E5,0E0,1.98725E3,0E0,0E0,0E0,0E0,0E0,1.6672012E4,2.038637E4,0E0,0E0,6.5259574E4,3.9846805E4,0E0,0E0,0E0,2.6112261E5,7.36355E4,5.6164062E4,0E0,0E0,0E0,0E0,0E0,0E0,0E0,0E0,0E0,0E0,0E0,0E0,0E0,0E0,0E0,0E0],"parents":[2147483647,0,0,1,1,2,2,3,3,4,4,5,5,6,6,8,8,9,9,10,10,11,11,12,12,13,13,14,14,20,20,21,21,22,22,23,23,24,24,25,25,26,26,27,27,30,30,31,31,33,33,34,34,36,36,38,38,40,40,41,41,43,43,49,49,50,50,53,53,54,54,58,58,59,59,60,60],"right_children":[2,4,6,8,10,12,14,-1,16,18,20,22,24,26,28,-1,-1,-1,-1,-1,30,32,34,36,38,40,42,44,-1,-1,46,48,-1,50,52,-1,54,-1,56,-1,58,60,-1,62,-1,-1,-1,-1,-1,64,66,-1,-1,68,70,-1,-1,-1,72,74,76,-1,-1,-1,-1,-1,-1,-1,-1,-1,-1,-1,-1,-1,-1,-1,-1],"split_conditions":[2.7771476E-1,1.2627125E-1,4.186804E-1,1.4751942E-1,4.492295E-1,6.0021406E-1,5.57219E-1,-1.501135E1,1.01856604E-1,1.5500319E-1,4.5112783E-1,2.769955E-1,7.8353953E-1,7.097164E-1,4.9457806E-1,-5.8324203E0,-1.0470921E1,-4.1600366E0,-7.3388367E0,-7.2071606E-1,5.558126E-1,3.870235E-1,5.4310733E-1,4.0383186E-2,3.4571296E-1,9.391631E-4,7.912317E-1,3.5535762E-1,3.6465984E-2,-5.5710764E0,4.588004E-1,1.031739E-1,-4.8005322E-1,1.0804109E-1,3.7732083E-1,3.3195372E0,5.216888E-1,1.7982047E0,2.2591577E-1,-3.542559E0,4.5420762E-2,5.9520465E-1,6.7054095E0,2.9327562E-1,1.0142288E1,-6.0586494E-1,-2.8585327E0,-2.68821E0,-4.4843106E0,9.965564E-2,5.5118567E-1,-3.905148E0,-1.1297964E0,3.6438352E-1,5.637049E-1,2.5224888E0,4.8732924E0,6.4519935E0,5.201331E-1,1.0636716E-1,2.3572993E-1,4.5052795E0,6.5831766E0,-2.2683644E0,-5.514395E-1,-7.0626535E-2,-1.4860879E0,-1.4686865E0,8.846956E-1,1.9741403E0,1.271557E-1,-1.2336125E0,2.476194E0,6.1761675E0,2.6611338E0,3.2966793E0,7.429304E-1],"split_indices":[0,0,0,13,16,16,5,0,5,14,3,15,16,16,14,0,0,0,0,0,3,5,12,7,0,6,16,17,0,0,12,20,0,20,0,0,3,0,17,0,7,12,0,13,0,0,0,0,0,6,3,0,0,0,12,0,0,0,16,7,6,0,0,0,0,0,0,0,0,0,0,0,0,0,0,0,0],"split_type":[0,0,0,0,0,0,0,0,0,0,0,0,0,0,0,0,0,0,0,0,0,0,0,0,0,0,0,0,0,0,0,0,0,0,0,0,0,0,0,0,0,0,0,0,0,0,0,0,0,0,0,0,0,0,0,0,0,0,0,0,0,0,0,0,0,0,0,0,0,0,0,0,0,0,0,0,0],"sum_hessian":[3.95E2,9.6E1,2.99E2,3.9E1,5.7E1,1.26E2,1.73E2,1.4E1,2.5E1,2.2E1,3.5E1,6.2E1,6.4E1,1.14E2,5.9E1,6E0,1.9E1,5E0,1.7E1,5E0,3E1,2.4E1,3.8E1,4.7E1,1.7E1,4.8E1,6.6E1,5.4E1,5E0,1.6E1,1.4E1,1.9E1,5E0,2.8E1,1E1,9E0,3.8E1,5E0,1.2E1,6E0,4.2E1,4.1E1,2.5E1,4.3E1,1.1E1,5E0,9E0,7E0,1.2E1,1E1,1.8E1,5E0,5E0,1.7E1,2.1E1,5E0,7E0,7E0,3.5E1,1.7E1,2.4E1,1.1E1,3.2E1,5E0,5E0,1.3E1,5E0,9E0,8E0,1.4E1,7E0,1E1,2.5E1,1.1E1,6E0,1.9E1,5E0],"tree_param":{"num_deleted":"0","num_feature":"25","num_nodes":"77","size_leaf_vector":"1"}},{"base_weights":[-1.7699123E1,-3.8059964E2,1.2752283E2,-5.690375E2,-2.4475731E2,1.8973278E1,2.925799E2,-6.329171E2,-8.114141E0,-3.1990408E2,-1.2597605E2,-5.942266E1,1.2718036E2,2.2945885E2,9.191257E0,-1.4665031E1,-1.0282747E1,-6.854558E0,-4.297348E0,-1.4673796E2,-5.0752085E-1,-1.2069931E2,1.3546242E1,-1.8518869E0,1.4470341E2,1.6989897E2,6.6199994E0,-1.2190425E0,-1.804535E2,-4.5369005E0,-1.0307034E2,-3.1434435E1,1.21824585E2,1.0163607E2,2.3624765E2,3.8300914E-1,1.8458882E2,-2.354208E0,-4.1263666E0,-1.21641556E2,-4.7946495E1,-1.2424347E2,1.240864E1,3.011123E0,1.4314141E0,6.5578865E1,4.641711E0,5.9678683E0,1.5261574E2,2.0368106E2,1.07148285E2,-3.1212986E0,-1.6524496E0,-1.8705878E0,-4.1112915E-2,-8.0379057E-1,-3.7514696E0,-7.8803486E-1,7.213192E-1,2.2281392E0,5.0195485E-1,1.7200979E0,3.8754787E0,2.8096035E0,4.5974913E0,1.2351164E0,2.8446288E0],"categories":[],"categories_nodes":[],"categories_segments":[],"categories_sizes":[],"default_left":[0,0,0,0,0,0,0,0,0,0,0,0,0,0,0,0,0,0,0,0,0,0,0,0,0,0,0,0,0,0,0,0,0,0,0,0,0,0,0,0,0,0,0,0,0,0,0,0,0,0,0,0,0,0,0,0,0,0,0,0,0,0,0,0,0,0,0],"id":7,"left_children":[1,3,5,7,9,11,13,15,-1,17,19,21,23,25,-1,-1,-1,-1,-1,27,-1,29,31,-1,33,35,-1,-1,37,-1,39,41,43,45,47,-1,49,-1,-1,51,53,55,57,-1,-1,59,-1,-1,61,63,65,-1,-1,-1,-1,-1,-1,-1,-1,-1,-1,-1,-1,-1,-1,-1,-1],"loss_changes":[2.1023604E7,2.778796E6,5.1007255E6,2.33492E5,5.66625E5,1.4751222E6,1.085517E6,4.25E3,0E0,2.4594E4,5.4741312E4,4.5324606E5,2.94536E5,4.51726E5,0E0,0E0,0E0,0E0,0E0,5.5500125E4,0E0,7.950419E4,2.3274889E5,0E0,2.4404962E5,1.18240625E5,0E0,0E0,1.6472188E3,0E0,4.4312875E4,1.3990002E5,9.416578E3,2.1052528E5,6.3560125E4,0E0,5.20705E4,0E0,0E0,3.5435688E4,2.9083912E4,5.099325E4,3.0837404E4,0E0,0E0,6.9542016E4,0E0,0E0,1.3463906E4,3.223275E4,1.0306125E4,0E0,0E0,0E0,0E0,0E0,0E0,0E0,0E0,0E0,0E0,0E0,0E0,0E0,0E0,0E0,0E0],"parents":[2147483647,0,0,1,1,2,2,3,3,4,4,5,5,6,6,7,7,9,9,10,10,11,11,12,12,13,13,19,19,21,21,22,22,24,24,25,25,28,28,30,30,31,31,32,32,33,33,34,34,36,36,39,39,40,40,41,41,42,42,45,45,48,48,49,49,50,50],"right_children":[2,4,6,8,10,12,14,16,-1,18,20,22,24,26,-1,-1,-1,-1,-1,28,-1,30,32,-1,34,36,-1,-1,38,-1,40,42,44,46,48,-1,50,-1,-1,52,54,56,58,-1,-1,60,-1,-1,62,64,66,-1,-1,-1,-1,-1,-1,-1,-1,-1,-1,-1,-1,-1,-1,-1,-1],"split_conditions":[3.5044447E-1,2.0447342E-1,4.401771E-1,4.260783E-1,3.1778517E-1,4.304869E-1,5.793697E-1,3.933338E-1,-8.114141E0,5.7462686E-1,4.136012E-1,3.52533E-1,1.875649E-1,5.2096534E-1,9.191257E0,-1.4665031E1,-1.0282747E1,-6.854558E0,-4.297348E0,2.3632415E-1,-5.0752085E-1,2.3534949E-1,6.8496877E-1,-1.8518869E0,4.3188664E-1,4.6226245E-1,6.6199994E0,-1.2190425E0,9.391631E-4,-4.5369005E0,3.9974323E-1,4.79706E-1,4.133608E-1,6.021442E-1,6.884756E-1,3.8300914E-1,1.9565898E-1,-2.354208E0,-4.1263666E0,3.161785E-1,2.7283207E-1,4.4724718E-1,3.6938813E-1,3.011123E0,1.4314141E0,3.2958877E-1,4.641711E0,5.9678683E0,6.2531716E-1,6.0388124E-1,4.4721776E-1,-3.1212986E0,-1.6524496E0,-1.8705878E0,-4.1112915E-2,-8.0379057E-1,-3.7514696E0,-7.8803486E-1,7.213192E-1,2.2281392E0,5.0195485E-1,1.7200979E0,3.8754787E0,2.8096035E0,4.5974913E0,1.2351164E0,2.8446288E0],"split_indices":[1,1,9,16,9,0,9,20,0,11,8,9,9,21,0,0,0,0,0,8,0,9,16,0,14,9,0,0,6,0,5,21,9,0,8,0,6,0,0,9,23,21,9,0,0,14,0,0,23,11,0,0,0,0,0,0,0,0,0,0,0,0,0,0,0,0,0],"split_type":[0,0,0,0,0,0,0,0,0,0,0,0,0,0,0,0,0,0,0,0,0,0,0,0,0,0,0,0,0,0,0,0,0,0,0,0,0,0,0,0,0,0,0,0,0,0,0,0,0,0,0,0,0,0,0,0,0,0,0,0,0,0,0,0,0,0,0],"sum_hessian":[3.97E2,1.13E2,2.84E2,4.6E1,6.7E1,1.72E2,1.12E2,3.1E1,1.5E1,4E1,2.7E1,1E2,7.2E1,8.3E1,2.9E1,1.4E1,1.7E1,3.1E1,9E0,2.2E1,5E0,5.4E1,4.6E1,5E0,6.7E1,5.4E1,2.9E1,7E0,1.5E1,6E0,4.8E1,3.3E1,1.3E1,4.7E1,2E1,5E0,4.9E1,6E0,9E0,3.5E1,1.3E1,1E1,2.3E1,7E0,6E0,3.8E1,9E0,1E1,1E1,3.8E1,1.1E1,1.7E1,1.8E1,6E0,7E0,5E0,5E0,7E0,1.6E1,1.7E1,2.1E1,5E0,5E0,1.3E1,2.5E1,6E0,5E0],"tree_param":{"num_deleted":"0","num_feature":"25","num_nodes":"67","size_leaf_vector":"1"}},{"base_weights":[-1.2194452E1,-3.657339E2,1.2926376E2,-5.5180963E2,-1.9501384E2,1.1124096E1,2.5680716E2,-5.8372064E2,-3.9843578E0,-2.954407E2,-1.00847374E2,-6.971278E1,1.195764E2,1.5717926E2,3.472038E2,-1.4275152E1,-9.980807E0,-3.263062E0,-6.3239684E0,-1.2729406E2,-5.456116E-1,-1.2908476E2,2.4885105E1,-1.8483181E0,1.4310175E2,7.196441E1,2.4813098E2,2.958719E2,9.106575E0,-1.5099496E2,-6.201769E-1,-2.1392558E2,-9.6160866E1,-6.1413975E1,8.123758E1,1.0831662E2,7.6209617E0,-1.6126591E0,9.918118E1,1.4831839E2,3.0059763E2,6.7909765E0,4.457183E0,-1.7931428E0,-3.3298023E0,-5.071446E0,-2.375691E0,-1.09961334E2,-4.9772236E1,3.4193733E-1,-3.3792248E0,-1.0226595E-1,1.08548065E2,3.542647E1,1.5276276E2,2.7734362E1,1.3187802E2,3.786552E0,1.9801834E0,1.9343098E2,8.201512E0,-1.1376759E0,-2.4171278E0,-1.511824E0,-3.1282464E-1,1.2510461E0,3.1747026E0,-3.704425E-1,1.1649477E0,1.9331132E0,4.0564528E0,3.4757E-2,9.818362E-1,1.2140254E0,3.0064135E0,2.3843472E0,4.587908E0],"categories":[],"categories_nodes":[],"categories_segments":[],"categories_sizes":[],"default_left":[0,0,0,0,0,0,0,0,0,0,0,0,0,0,0,0,0,0,0,0,0,0,0,0,0,0,0,0,0,0,0,0,0,0,0,0,0,0,0,0,0,0,0,0,0,0,0,0,0,0,0,0,0,0,0,0,0,0,0,0,0,0,0,0,0,0,0,0,0,0,0,0,0,0,0,0,0],"id":8,"left_children":[1,3,5,7,9,11,13,15,-1,17,19,21,23,25,27,-1,-1,-1,-1,29,-1,31,33,-1,35,37,39,41,-1,43,-1,45,47,49,51,53,-1,-1,55,57,59,-1,-1,-1,-1,-1,-1,61,63,-1,-1,-1,65,67,69,71,73,-1,-1,75,-1,-1,-1,-1,-1,-1,-1,-1,-1,-1,-1,-1,-1,-1,-1,-1,-1],"loss_changes":[1.99517E7,3.513737E6,4.291477E6,4.91218E5,5.4703325E5,1.3146158E6,1.179202E6,1.8325E5,0E0,2.799675E4,6.0716625E4,4.8623866E5,3.324102E5,5.0139062E5,2.59274E5,0E0,0E0,0E0,0E0,5.006872E4,0E0,1.27442125E5,1.7033878E5,0E0,4.3874275E5,1.5751456E5,1.22949625E5,8.691E4,0E0,3.1057188E3,0E0,2.265075E4,2.0118406E4,1.2111464E5,5.0089344E4,1.63033E5,0E0,0E0,6.874516E4,7.5137188E3,1.5526612E5,0E0,0E0,0E0,0E0,0E0,0E0,1.0455969E4,8.502039E3,0E0,0E0,0E0,2.6982906E4,2.6937123E4,7.024494E4,6.0170146E3,1.8420719E4,0E0,0E0,4.6457812E3,0E0,0E0,0E0,0E0,0E0,0E0,0E0,0E0,0E0,0E0,0E0,0E0,0E0,0E0,0E0,0E0,0E0],"parents":[2147483647,0,0,1,1,2,2,3,3,4,4,5,5,6,6,7,7,9,9,10,10,11,11,12,12,13,13,14,14,19,19,21,21,22,22,24,24,25,25,26,26,27,27,29,29,31,31,32,32,33,33,34,34,35,35,38,38,39,39,40,40,47,47,48,48,52,52,53,53,54,54,55,55,56,56,59,59],"right_children":[2,4,6,8,10,12,14,16,-1,18,20,22,24,26,28,-1,-1,-1,-1,30,-1,32,34,-1,36,38,40,42,-1,44,-1,46,48,50,52,54,-1,-1,56,58,60,-1,-1,-1,-1,-1,-1,62,64,-1,-1,-1,66,68,70,72,74,-1,-1,76,-1,-1,-1,-1,-1,-1,-1,-1,-1,-1,-1,-1,-1,-1,-1,-1,-1],"split_conditions":[3.552538E-1,2.1230982E-1,4.1949528E-1,3.4912097E-1,3.1778517E-1,4.196919E-1,5.054151E-1,1.4618716E-1,-3.9843578E0,7.74605E-2,2.5499076E-1,3.52533E-1,2.4933669E-1,5.1217735E-1,4.420551E-1,-1.4275152E1,-9.980807E0,-3.263062E0,-6.3239684E0,4.0871826E-1,-5.456116E-1,3.4309772E-1,3.5636225E-1,-1.8483181E0,4.420551E-1,2.8016964E-1,4.174514E-1,5E-1,9.106575E0,5.324871E-3,-6.201769E-1,2.5620565E-1,3.9974323E-1,3.3490938E-1,2.873053E-1,5.690919E-1,7.6209617E0,-1.6126591E0,4.2733306E-1,3.291578E-1,5.6634766E-1,6.7909765E0,4.457183E0,-1.7931428E0,-3.3298023E0,-5.071446E0,-2.375691E0,3.1778517E-1,8.127585E-3,3.4193733E-1,-3.3792248E0,-1.0226595E-1,4.63666E-1,3.3810875E-1,5.563978E-1,1.6229978E-1,3.3985028E-1,3.786552E0,1.9801834E0,1.003861E-1,8.201512E0,-1.1376759E0,-2.4171278E0,-1.511824E0,-3.1282464E-1,1.2510461E0,3.1747026E0,-3.704425E-1,1.1649477E0,1.9331132E0,4.0564528E0,3.4757E-2,9.818362E-1,1.2140254E0,3.0064135E0,2.3843472E0,4.587908E0],"split_indices":[1,1,9,9,9,5,1,10,0,20,24,9,9,9,24,0,0,0,0,9,0,11,13,0,24,13,1,22,0,24,0,9,5,14,15,8,0,0,1,13,9,0,0,0,0,0,0,10,24,0,0,0,10,9,1,17,13,0,0,6,0,0,0,0,0,0,0,0,0,0,0,0,0,0,0,0,0],"split_type":[0,0,0,0,0,0,0,0,0,0,0,0,0,0,0,0,0,0,0,0,0,0,0,0,0,0,0,0,0,0,0,0,0,0,0,0,0,0,0,0,0,0,0,0,0,0,0,0,0,0,0,0,0,0,0,0,0,0,0,0,0,0,0,0,0,0,0,0,0,0,0,0,0,0,0,0,0],"sum_hessian":[3.97E2,1.13E2,2.84E2,5.3E1,6E1,1.48E2,1.36E2,4.8E1,5E0,2.8E1,3.2E1,8.5E1,6.3E1,6.6E1,7E1,1.6E1,3.2E1,5E0,2.3E1,2.3E1,9E0,5.2E1,3.3E1,6E0,5.7E1,3.5E1,3.1E1,5E1,2E1,1.8E1,5E0,1.3E1,3.9E1,1.3E1,2E1,5.1E1,6E0,5E0,3E1,1.2E1,1.9E1,2.9E1,2.1E1,5E0,1.3E1,8E0,5E0,2.9E1,1E1,8E0,5E0,5E0,1.5E1,2E1,3.1E1,1E1,2E1,5E0,7E0,1.1E1,8E0,6E0,2.3E1,5E0,5E0,9E0,6E0,6E0,1.4E1,1.6E1,1.5E1,5E0,5E0,5E0,1.5E1,5E0,6E0],"tree_param":{"num_deleted":"0","num_feature":"25","num_nodes":"77","size_leaf_vector":"1"}},{"base_weights":[1.6988331E0,-3.5097342E2,1.1925103E2,-5.0972128E2,-2.1146945E2,-5.899579E0,2.1549976E2,-4.2570553E0,-5.563494E2,-5.4710365E1,-2.7280283E2,-6.3915524E1,1.4234637E2,1.7051694E2,3.7623077E2,-1.38980665E1,-9.596578E0,-1.16875786E2,1.574444E0,-2.553315E0,-5.7977242E0,3.2034545E0,-1.4483847E2,1.6409842E2,-1.9951904E-2,1.2503508E2,2.4715265E2,4.1735876E2,1.8831931E0,-3.4586575E0,-1.0423205E0,2.727862E0,-2.2922853E1,-1.9358861E2,-7.04994E1,1.2331546E2,4.3469586E0,6.029567E1,1.9450215E2,6.2749286E0,1.9229526E2,1.0547418E1,2.892615E2,-5.406076E1,1.6715645E1,-2.0443037E0,-4.2094407E0,-2.1740432E0,-5.0473386E-1,1.4615277E2,8.369343E-1,3.6598032E0,3.4246883E1,1.5069551E2,2.7134433E2,1.4488405E2,6.5472593E0,3.3336458E0,6.819217E0,-4.4328675E-1,-3.1334288E0,-4.4486597E-1,6.757755E-1,1.2639468E0,3.5621097E0,-5.0954115E-1,1.1556551E0,7.6757354E-1,3.4498315E0,6.309082E0,3.1987793E0,4.5775476E0,2.214582E0],"categories":[],"categories_nodes":[],"categories_segments":[],"categories_sizes":[],"default_left":[0,0,0,0,0,0,0,0,0,0,0,0,0,0,0,0,0,0,0,0,0,0,0,0,0,0,0,0,0,0,0,0,0,0,0,0,0,0,0,0,0,0,0,0,0,0,0,0,0,0,0,0,0,0,0,0,0,0,0,0,0,0,0,0,0,0,0,0,0,0,0,0,0],"id":9,"left_children":[1,3,5,7,9,11,13,-1,15,17,19,21,23,25,27,-1,-1,29,-1,-1,-1,31,33,35,-1,37,39,41,-1,-1,-1,-1,43,45,47,49,-1,51,53,-1,55,-1,57,59,61,-1,-1,-1,-1,63,-1,-1,65,67,69,71,-1,-1,-1,-1,-1,-1,-1,-1,-1,-1,-1,-1,-1,-1,-1,-1,-1],"loss_changes":[1.6914992E7,2.151025E6,3.687242E6,5.32097E5,5.2345775E5,1.1615746E6,1.186605E6,0E0,9.0537E4,1.5021769E5,6.212725E4,5.2733025E5,1.1866494E5,4.46578E5,3.898885E5,0E0,0E0,3.452786E4,0E0,0E0,0E0,1.9104456E5,1.457835E5,4.4828812E4,0E0,3.8400562E5,1.2227575E5,2.98322E5,0E0,0E0,0E0,0E0,5.768336E4,1.85655E4,3.0097367E4,3.293625E4,0E0,1.4392547E5,1.0044775E5,0E0,1.4463475E5,0E0,5.0850625E4,8.1605375E4,1.4720904E4,0E0,0E0,0E0,0E0,3.11305E4,0E0,0E0,5.7701582E4,6.4352875E4,1.8296E4,4.3473562E4,0E0,0E0,0E0,0E0,0E0,0E0,0E0,0E0,0E0,0E0,0E0,0E0,0E0,0E0,0E0,0E0,0E0],"parents":[2147483647,0,0,1,1,2,2,3,3,4,4,5,5,6,6,8,8,9,9,10,10,11,11,12,12,13,13,14,14,17,17,21,21,22,22,23,23,25,25,26,26,27,27,32,32,33,33,34,34,35,35,37,37,38,38,40,40,42,42,43,43,44,44,49,49,52,52,53,53,54,54,55,55],"right_children":[2,4,6,8,10,12,14,-1,16,18,20,22,24,26,28,-1,-1,30,-1,-1,-1,32,34,36,-1,38,40,42,-1,-1,-1,-1,44,46,48,50,-1,52,54,-1,56,-1,58,60,62,-1,-1,-1,-1,64,-1,-1,66,68,70,72,-1,-1,-1,-1,-1,-1,-1,-1,-1,-1,-1,-1,-1,-1,-1,-1,-1],"split_conditions":[3.5044447E-1,2.3745689E-1,4.1172862E-1,3.1238198E-1,4.198897E-1,6.8905926E-1,4.5061314E-1,-4.2570553E0,9.222359E-2,2.5096908E-1,7.74605E-2,5.4767317E-1,9.047569E-1,5.3926706E-1,7.5878096E-1,-1.38980665E1,-9.596578E0,7.03252E-1,1.574444E0,-2.553315E0,-5.7977242E0,3.743444E-1,3.7732083E-1,7.8353953E-1,-1.9951904E-2,6.905717E-1,6.307401E-1,4.1933143E-1,1.8831931E0,-3.4586575E0,-1.0423205E0,2.727862E0,3.5411367E-1,4.5586526E-1,1.8740286E-1,7.2941965E-1,4.3469586E0,4.9555603E-1,1E0,6.2749286E0,7.333772E-1,1.0547418E1,7.449251E-1,6.0324407E-1,4.8409486E-1,-2.0443037E0,-4.2094407E0,-2.1740432E0,-5.0473386E-1,4E-1,8.369343E-1,3.6598032E0,5.1529443E-1,3.4602335E-1,5.130305E-1,6.0781237E-2,6.5472593E0,3.3336458E0,6.819217E0,-4.4328675E-1,-3.1334288E0,-4.4486597E-1,6.757755E-1,1.2639468E0,3.5621097E0,-5.0954115E-1,1.1556551E0,7.6757354E-1,3.4498315E0,6.309082E0,3.1987793E0,4.5775476E0,2.214582E0],"split_indices":[1,1,0,21,21,16,24,0,0,0,20,21,20,0,21,0,0,4,0,0,0,21,0,16,0,16,21,13,0,0,0,0,0,4,17,11,0,21,19,0,0,0,16,16,3,0,0,0,0,22,0,0,16,20,21,7,0,0,0,0,0,0,0,0,0,0,0,0,0,0,0,0,0],"split_type":[0,0,0,0,0,0,0,0,0,0,0,0,0,0,0,0,0,0,0,0,0,0,0,0,0,0,0,0,0,0,0,0,0,0,0,0,0,0,0,0,0,0,0,0,0,0,0,0,0,0,0,0,0,0,0,0,0,0,0,0,0,0,0,0,0,0,0,0,0,0,0,0,0],"sum_hessian":[4.06E2,1.01E2,3.05E2,4.6E1,5.5E1,1.33E2,1.72E2,7E0,3.9E1,1.6E1,3.9E1,9.6E1,3.7E1,1.36E2,3.6E1,1.1E1,2.8E1,1.1E1,5E0,5E0,3.4E1,5.3E1,4.3E1,3.2E1,5E0,8.7E1,4.9E1,3.1E1,5E0,5E0,6E0,8E0,4.5E1,2.5E1,1.8E1,2E1,1.2E1,4.6E1,4.1E1,2E1,2.9E1,1.5E1,1.6E1,2.5E1,2E1,5E0,2E1,9E0,9E0,1.5E1,5E0,7E0,3.9E1,2.8E1,1.3E1,2.3E1,6E0,6E0,1E1,2E1,5E0,6E0,1.4E1,5E0,1E1,1.1E1,2.8E1,5E0,2.3E1,8E0,5E0,5E0,1.8E1],"tree_param":{"num_deleted":"0","num_feature":"25","num_nodes":"73","size_leaf_vector":"1"}},{"base_weights":[8.44189E0,-3.9562946E2,1.13720055E2,-5.4506116E2,-2.4060007E2,-9.273931E0,2.1136404E2,-1.3910069E1,-9.287732E0,-1.10872475E2,-5.948811E0,8.587018E1,-1.21073265E2,3.768287E2,1.6996678E2,-1.2422558E0,-2.9152117E0,7.8815303E0,1.6365929E2,-1.9460393E2,-5.420423E1,2.4231487E2,9.227329E0,1.1009415E2,2.569413E2,2.9497094E0,-1.5601947E1,5.329054E0,1.2963116E2,-4.5648546E0,-1.6653329E0,-9.7010414E1,2.3042383E1,5.826309E0,3.4364755E0,1.6708557E2,2.7706255E1,2.1001549E2,8.20867E0,-4.887388E1,5.5006405E1,7.343367E1,1.5967299E2,-6.5752716E1,-3.0258844E0,2.1978042E0,-7.4810654E-1,9.778394E1,2.3528787E2,5.8233536E1,-1.8807548E0,1.3220624E2,4.9683423E0,-1.8043171E0,6.9271696E-1,8.5876785E-2,1.8120395E0,2.0684075E0,4.239155E-1,3.6187108E0,1.8864633E0,-1.7691839E0,-5.827605E-1,8.006639E-1,2.7717736E0,5.378076E0,1.568015E0,-6.978325E-1,2.3778217E0,2.5915867E-1,3.8148446E0],"categories":[],"categories_nodes":[],"categories_segments":[],"categories_sizes":[],"default_left":[0,0,0,0,0,0,0,0,0,0,0,0,0,0,0,0,0,0,0,0,0,0,0,0,0,0,0,0,0,0,0,0,0,0,0,0,0,0,0,0,0,0,0,0,0,0,0,0,0,0,0,0,0,0,0,0,0,0,0,0,0,0,0,0,0,0,0,0,0,0,0],"id":10,"left_children":[1,3,5,7,9,11,13,-1,-1,15,-1,17,19,21,23,-1,-1,25,27,29,31,33,-1,35,37,-1,39,-1,41,-1,-1,43,45,-1,-1,47,49,51,-1,53,55,57,59,61,-1,-1,-1,63,65,67,-1,69,-1,-1,-1,-1,-1,-1,-1,-1,-1,-1,-1,-1,-1,-1,-1,-1,-1,-1,-1],"loss_changes":[1.7699016E7,1.861083E6,3.9651565E6,1.98786E5,2.9142725E5,1.5740464E6,1.196257E6,0E0,0E0,1.6442625E4,0E0,4.8402644E5,3.237775E5,2.975075E5,7.475775E5,0E0,0E0,1.3672806E5,1.05334375E5,1.00812E5,1.2458815E5,5.1645E3,0E0,4.179375E5,3.4590575E5,0E0,8.726171E4,0E0,4.2276188E4,0E0,0E0,3.0753172E4,7.761426E4,0E0,0E0,2.274655E5,1.4670006E5,1.1054375E5,0E0,8.944171E4,2.1263191E4,1.815921E4,1.0696125E4,1.1544359E4,0E0,0E0,0E0,6.0416094E4,1.1600475E5,1.792678E5,0E0,1.2315372E5,0E0,0E0,0E0,0E0,0E0,0E0,0E0,0E0,0E0,0E0,0E0,0E0,0E0,0E0,0E0,0E0,0E0,0E0,0E0],"parents":[2147483647,0,0,1,1,2,2,3,3,4,4,5,5,6,6,9,9,11,11,12,12,13,13,14,14,17,17,18,18,19,19,20,20,21,21,23,23,24,24,26,26,28,28,31,31,32,32,35,35,36,36,37,37,39,39,40,40,41,41,42,42,43,43,47,47,48,48,49,49,51,51],"right_children":[2,4,6,8,10,12,14,-1,-1,16,-1,18,20,22,24,-1,-1,26,28,30,32,34,-1,36,38,-1,40,-1,42,-1,-1,44,46,-1,-1,48,50,52,-1,54,56,58,60,62,-1,-1,-1,64,66,68,-1,70,-1,-1,-1,-1,-1,-1,-1,-1,-1,-1,-1,-1,-1,-1,-1,-1,-1,-1,-1],"split_conditions":[3.2875833E-1,2.0409174E-1,4.6565643E-1,1.4618716E-1,4.198897E-1,5.185773E-1,4.507849E-1,-1.3910069E1,-9.287732E0,2.6340437E-1,-5.948811E0,6.929439E-1,5.3121996E-1,2.6619145E-1,5.6765205E-1,-1.2422558E0,-2.9152117E0,3.7987578E-1,3.2613906E-1,4.3023467E-1,5.7913667E-1,5.0800866E-1,9.227329E0,5.995393E-1,4.3351427E-1,2.9497094E0,3.6496785E-1,5.329054E0,4.2733306E-1,-4.5648546E0,-1.6653329E0,6.1191297E-1,4.0383186E-2,5.826309E0,3.4364755E0,5.054151E-1,7.3250943E-1,6.377238E-1,8.20867E0,4.1173813E-1,5.9471923E-1,4.2447764E-2,8.671533E-1,6.4131E-1,-3.0258844E0,2.1978042E0,-7.4810654E-1,3.3551678E-1,1.5162276E-1,5.0935674E-1,-1.8807548E0,6.149591E-1,4.9683423E0,-1.8043171E0,6.9271696E-1,8.5876785E-2,1.8120395E0,2.0684075E0,4.239155E-1,3.6187108E0,1.8864633E0,-1.7691839E0,-5.827605E-1,8.006639E-1,2.7717736E0,5.378076E0,1.568015E0,-6.978325E-1,2.3778217E0,2.5915867E-1,3.8148446E0],"split_indices":[1,1,1,10,21,21,21,0,0,8,0,16,16,17,1,0,0,21,21,1,8,8,0,21,24,0,15,0,1,0,0,16,7,0,0,1,21,16,0,1,2,7,20,2,0,0,0,13,7,1,0,1,0,0,0,0,0,0,0,0,0,0,0,0,0,0,0,0,0,0,0],"split_type":[0,0,0,0,0,0,0,0,0,0,0,0,0,0,0,0,0,0,0,0,0,0,0,0,0,0,0,0,0,0,0,0,0,0,0,0,0,0,0,0,0,0,0,0,0,0,0,0,0,0,0,0,0,0,0,0,0,0,0,0,0,0,0,0,0,0,0,0,0,0,0],"sum_hessian":[4.14E2,8.5E1,3.29E2,4.2E1,4.3E1,1.46E2,1.83E2,1.2E1,3E1,1.4E1,2.9E1,7.9E1,6.7E1,3.5E1,1.48E2,7E0,7E0,4E1,3.9E1,3.1E1,3.6E1,1.5E1,2E1,8.9E1,5.9E1,5E0,3.5E1,8E0,3.1E1,2.3E1,8E0,2.3E1,1.3E1,7E0,8E0,5.2E1,3.7E1,4.7E1,1.2E1,2.4E1,1.1E1,1.2E1,1.9E1,1.6E1,7E0,5E0,8E0,2.7E1,2.5E1,3E1,7E0,1.7E1,3E1,1.6E1,8E0,5E0,6E0,7E0,5E0,1.3E1,6E0,9E0,7E0,1.2E1,1.5E1,2E1,5E0,1.2E1,1.8E1,6E0,1.1E1],"tree_param":{"num_deleted":"0","num_feature":"25","num_nodes":"71","size_leaf_vector":"1"}},{"base_weights":[4.937012E0,-3.6993777E2,1.1059019E2,-5.249612E2,-2.0991405E2,4.3689327E0,2.4055896E2,-1.330867E1,-4.3095593E2,-2.8282254E2,-1.3421439E2,-7.5882866E1,1.0654905E2,1.9159692E2,4.0390414E2,-9.237514E0,-4.8117485E0,-6.209885E0,-3.2375505E0,-8.265973E1,-4.1042995E0,-1.8719403E2,-2.7508692E1,-1.1670316E0,1.2492414E2,1.1937785E2,2.8523395E2,3.2561847E2,1.1007595E1,-2.1195655E0,-6.0004383E-1,-4.779605E0,-1.3341187E2,-6.534977E1,2.6177402E1,4.919664E1,1.8294579E2,7.0536766E1,1.9173134E2,4.96545E0,7.5379815E0,3.9484155E0,7.034096E0,-3.0615356E0,-1.7249198E0,-8.98225E1,8.139477E-1,-2.0059568E1,7.385434E1,3.4564886E-2,1.1347515E2,1.5533507E2,5.9939065E0,2.8749502E1,1.1080563E2,1.7071517E0,4.304533E0,-2.7680147E0,-6.517594E-1,-1.0426704E0,2.3615185E-2,4.8638216E-1,1.9732136E0,6.856345E-1,-1.4831343E0,2.9217398E0,1.0212703E0,1.1847957E0,3.9263494E0,-4.1828182E-1,1.4258745E0,8.991759E-1,3.0919597E0],"categories":[],"categories_nodes":[],"categories_segments":[],"categories_sizes":[],"default_left":[0,0,0,0,0,0,0,0,0,0,0,0,0,0,0,0,0,0,0,0,0,0,0,0,0,0,0,0,0,0,0,0,0,0,0,0,0,0,0,0,0,0,0,0,0,0,0,0,0,0,0,0,0,0,0,0,0,0,0,0,0,0,0,0,0,0,0,0,0,0,0,0,0],"id":11,"left_children":[1,3,5,7,9,11,13,-1,15,17,19,21,23,25,27,-1,-1,-1,-1,29,-1,31,33,-1,35,37,39,41,-1,-1,-1,-1,43,45,47,49,51,53,55,-1,-1,-1,-1,-1,-1,57,-1,59,61,63,65,67,-1,69,71,-1,-1,-1,-1,-1,-1,-1,-1,-1,-1,-1,-1,-1,-1,-1,-1,-1,-1],"loss_changes":[1.5131043E7,1.973552E6,4.1129475E6,2.67734E5,1.9932275E5,1.361111E6,9.942475E5,0E0,5.36205E4,1.9972625E4,6.719759E4,4.9559556E5,2.2849094E5,6.7595875E5,1.64707E5,0E0,0E0,0E0,0E0,1.5225281E4,0E0,4.6064938E4,1.3579622E5,0E0,2.8096944E5,2.0201281E5,5.8827E4,4.08375E3,0E0,0E0,0E0,0E0,1.614E3,1.048757E5,6.321111E4,9.4786664E4,7.2672375E4,6.0744016E4,4.1581625E4,0E0,0E0,0E0,0E0,0E0,0E0,8.4444016E4,0E0,1.028557E4,1.4791398E4,4.8273363E4,1.8980234E4,1.143675E5,0E0,4.3754055E4,4.7817703E4,0E0,0E0,0E0,0E0,0E0,0E0,0E0,0E0,0E0,0E0,0E0,0E0,0E0,0E0,0E0,0E0,0E0,0E0],"parents":[2147483647,0,0,1,1,2,2,3,3,4,4,5,5,6,6,8,8,9,9,10,10,11,11,12,12,13,13,14,14,19,19,21,21,22,22,24,24,25,25,26,26,27,27,32,32,33,33,34,34,35,35,36,36,37,37,38,38,45,45,47,47,48,48,49,49,50,50,51,51,53,53,54,54],"right_children":[2,4,6,8,10,12,14,-1,16,18,20,22,24,26,28,-1,-1,-1,-1,30,-1,32,34,-1,36,38,40,42,-1,-1,-1,-1,44,46,48,50,52,54,56,-1,-1,-1,-1,-1,-1,58,-1,60,62,64,66,68,-1,70,72,-1,-1,-1,-1,-1,-1,-1,-1,-1,-1,-1,-1,-1,-1,-1,-1,-1,-1],"split_conditions":[3.217231E-1,2.2444814E-1,4.2855155E-1,8.9255385E-2,3.1778517E-1,4.2143E-1,5.7393634E-1,-1.330867E1,2.1230982E-1,5.937659E-1,4.005615E-1,3.0531943E-1,2.4933669E-1,5.054151E-1,4.005118E-1,-9.237514E0,-4.8117485E0,-6.209885E0,-3.2375505E0,1.9769947E-1,-4.1042995E0,2.3534949E-1,5.2621037E-1,-1.1670316E0,8.084911E-2,5.1217735E-1,4.1649422E-1,3.997652E-1,1.1007595E1,-2.1195655E0,-6.0004383E-1,-4.779605E0,6.30345E-1,7E-1,4.3898186E-1,5.5522424E-1,7.3544157E-1,6.905717E-1,2.5124885E-2,4.96545E0,7.5379815E0,3.9484155E0,7.034096E0,-3.0615356E0,-1.7249198E0,3.6496785E-1,8.139477E-1,3.8312483E-1,3.3333334E-1,2.2500185E-2,5.5579543E-1,3.52533E-1,5.9939065E0,4.6226245E-1,4.308847E-1,1.7071517E0,4.304533E0,-2.7680147E0,-6.517594E-1,-1.0426704E0,2.3615185E-2,4.8638216E-1,1.9732136E0,6.856345E-1,-1.4831343E0,2.9217398E0,1.0212703E0,1.1847957E0,3.9263494E0,-4.1828182E-1,1.4258745E0,8.991759E-1,3.0919597E0],"split_indices":[1,9,9,5,9,5,9,0,1,16,13,9,9,1,17,0,0,0,0,17,0,9,12,0,24,9,24,10,0,0,0,0,21,22,10,11,21,16,24,0,0,0,0,0,0,15,0,1,18,24,1,9,0,9,1,0,0,0,0,0,0,0,0,0,0,0,0,0,0,0,0,0,0],"split_type":[0,0,0,0,0,0,0,0,0,0,0,0,0,0,0,0,0,0,0,0,0,0,0,0,0,0,0,0,0,0,0,0,0,0,0,0,0,0,0,0,0,0,0,0,0,0,0,0,0,0,0,0,0,0,0,0,0,0,0,0,0,0,0,0,0,0,0,0,0,0,0,0,0],"sum_hessian":[3.8E2,8.3E1,2.97E2,4.1E1,4.2E1,1.64E2,1.33E2,1.4E1,2.7E1,2E1,2.2E1,9.2E1,7.2E1,1.04E2,2.9E1,2.2E1,5E0,1.5E1,5E0,1.4E1,8E0,2.7E1,6.5E1,7E0,6.5E1,6E1,4.4E1,2.1E1,8E0,9E0,5E0,1.2E1,1.5E1,3.8E1,2.7E1,2.9E1,3.6E1,3.7E1,2.3E1,3.4E1,1E1,5E0,1.6E1,9E0,6E0,3.1E1,7E0,1.4E1,1.3E1,1.7E1,1.2E1,3.1E1,5E0,1.9E1,1.8E1,5E0,1.8E1,1.6E1,1.5E1,5E0,9E0,5E0,8E0,1.2E1,5E0,7E0,5E0,1E1,2.1E1,9E0,1E1,8E0,1E1],"tree_param":{"num_deleted":"0","num_feature":"25","num_nodes":"73","size_leaf_vector":"1"}},{"base_weights":[9.038185E0,-4.0080237E2,1.1376121E2,-5.387731E2,-2.5641867E2,-1.6280041E0,2.1083406E2,-1.3471669E1,-9.1387415E0,-1.2643918E2,-3.0583987E2,1.1727944E2,-7.217168E1,8.278107E0,1.8406242E2,-1.2225516E0,-3.1921096E0,-6.718064E0,-2.6919322E0,4.1213257E1,1.5739214E2,-1.3647977E2,-3.399404E0,1.1129349E2,2.655116E2,-1.3701718E0,9.313752E1,2.4600615E2,1.0652296E2,-8.1570915E1,-4.5714717E0,6.0651535E1,-1.028509E2,5.071211E1,1.9532567E2,3.565381E2,2.278679E2,2.4305115E0,7.003169E-1,3.2504492E0,6.047722E0,6.660721E1,3.5603209E0,-1.2859653E2,-2.2830492E1,2.7112858E0,1.1839098E2,-3.3226683E0,-5.735685E1,8.445186E1,-1.7759886E1,2.2883884E2,1.1558102E0,4.6330595E0,7.927005E0,2.4718304E2,1.3122746E0,3.962998E-1,1.8063955E0,-1.4574667E0,-3.643269E0,-1.6089141E0,4.901391E-1,-4.4422925E-1,3.4807613E-1,1.3155291E0,3.2318916E0,-4.5025137E-1,-1.7686473E0,2.0885646E0,-4.565972E-1,2.5561482E-2,-1.0578499E0,3.0263882E0,4.9679933E0,6.3795147E0,4.206966E0],"categories":[],"categories_nodes":[],"categories_segments":[],"categories_sizes":[],"default_left":[0,0,0,0,0,0,0,0,0,0,0,0,0,0,0,0,0,0,0,0,0,0,0,0,0,0,0,0,0,0,0,0,0,0,0,0,0,0,0,0,0,0,0,0,0,0,0,0,0,0,0,0,0,0,0,0,0,0,0,0,0,0,0,0,0,0,0,0,0,0,0,0,0,0,0,0,0],"id":12,"left_children":[1,3,5,7,9,11,13,-1,-1,15,17,19,21,-1,23,-1,-1,-1,-1,25,27,29,31,33,35,-1,37,39,41,43,-1,45,47,49,51,53,55,-1,-1,-1,-1,57,-1,59,61,63,65,-1,67,69,71,73,-1,-1,-1,75,-1,-1,-1,-1,-1,-1,-1,-1,-1,-1,-1,-1,-1,-1,-1,-1,-1,-1,-1,-1,-1],"loss_changes":[1.6870106E7,1.455427E6,3.5063272E6,1.33396E5,2.2466E5,1.2163559E6,8.479685E5,0E0,0E0,1.8381516E4,1.0403775E5,1.5825931E5,4.0197988E5,0E0,8.71312E5,0E0,0E0,0E0,0E0,1.2032771E5,1.3152969E5,2.1899206E5,2.9289056E5,4.0751456E5,1.61984E5,0E0,1.8828477E4,7.2906875E3,5.6607188E4,8.268039E4,0E0,9.333917E4,4.2270375E4,1.1470769E5,1.4346088E5,2.58875E3,1.4985025E5,0E0,0E0,0E0,0E0,1.7061883E4,0E0,3.744325E4,4.2887434E4,5.878753E3,2.1172047E4,0E0,1.0991715E4,7.311456E4,1.1443267E4,3.3135E3,0E0,0E0,0E0,5.7141E4,0E0,0E0,0E0,0E0,0E0,0E0,0E0,0E0,0E0,0E0,0E0,0E0,0E0,0E0,0E0,0E0,0E0,0E0,0E0,0E0,0E0],"parents":[2147483647,0,0,1,1,2,2,3,3,4,4,5,5,6,6,9,9,10,10,11,11,12,12,14,14,19,19,20,20,21,21,22,22,23,23,24,24,26,26,27,27,28,28,29,29,31,31,32,32,33,33,34,34,35,35,36,36,41,41,43,43,44,44,45,45,46,46,48,48,49,49,50,50,51,51,55,55],"right_children":[2,4,6,8,10,12,14,-1,-1,16,18,20,22,-1,24,-1,-1,-1,-1,26,28,30,32,34,36,-1,38,40,42,44,-1,46,48,50,52,54,56,-1,-1,-1,-1,58,-1,60,62,64,66,-1,68,70,72,74,-1,-1,-1,76,-1,-1,-1,-1,-1,-1,-1,-1,-1,-1,-1,-1,-1,-1,-1,-1,-1,-1,-1,-1,-1],"split_conditions":[3.101038E-1,2.0447342E-1,4.6910828E-1,1.4618716E-1,4.3213978E-1,4.5227715E-1,3.9243776E-1,-1.3471669E1,-9.1387415E0,2.6340437E-1,9.252993E-1,3.7396386E-1,4.1173813E-1,8.278107E0,5.2553695E-1,-1.2225516E0,-3.1921096E0,-6.718064E0,-2.6919322E0,3.152802E-1,6.091754E-1,5.3325623E-1,5.639057E-1,4.158408E-1,5.1598823E-1,-1.3701718E0,1.0393405E-1,3.591674E-1,3.751839E-1,4.945055E-1,-4.5714717E0,5.767877E-1,3.7732083E-1,6.385959E-1,6.337051E-1,8.9516304E-2,7.851678E-1,2.4305115E0,7.003169E-1,3.2504492E0,6.047722E0,5.373048E-1,3.5603209E0,4.4260976E-1,3.152802E-1,4.8987854E-1,4.744379E-1,-3.3226683E0,4.2833608E-1,6.563674E-1,1E0,5.696864E-1,1.1558102E0,4.6330595E0,7.927005E0,5.787551E-1,1.3122746E0,3.962998E-1,1.8063955E0,-1.4574667E0,-3.643269E0,-1.6089141E0,4.901391E-1,-4.4422925E-1,3.4807613E-1,1.3155291E0,3.2318916E0,-4.5025137E-1,-1.7686473E0,2.0885646E0,-4.565972E-1,2.5561482E-2,-1.0578499E0,3.0263882E0,4.9679933E0,6.3795147E0,4.206966E0],"split_indices":[1,1,1,10,21,21,21,0,0,8,23,13,1,0,0,0,0,0,0,0,4,3,21,14,12,0,6,10,0,3,0,11,0,21,21,23,21,0,0,0,0,3,0,12,0,3,10,0,23,12,19,4,0,0,0,21,0,0,0,0,0,0,0,0,0,0,0,0,0,0,0,0,0,0,0,0,0],"split_type":[0,0,0,0,0,0,0,0,0,0,0,0,0,0,0,0,0,0,0,0,0,0,0,0,0,0,0,0,0,0,0,0,0,0,0,0,0,0,0,0,0,0,0,0,0,0,0,0,0,0,0,0,0,0,0,0,0,0,0,0,0,0,0,0,0,0,0,0,0,0,0,0,0,0,0,0,0],"sum_hessian":[3.91E2,7.9E1,3.12E2,3.9E1,4E1,1.43E2,1.69E2,1.2E1,2.7E1,1.2E1,2.8E1,5.3E1,9E1,1.8E1,1.51E2,5E0,7E0,2.3E1,5E0,1.9E1,3.4E1,4.6E1,4.4E1,8.1E1,7E1,6E0,1.3E1,1.1E1,2.3E1,3E1,1.6E1,2.7E1,1.7E1,4.8E1,3.3E1,1.8E1,5.2E1,8E0,5E0,6E0,5E0,1.6E1,7E0,1.6E1,1.4E1,1.4E1,1.3E1,6E0,1.1E1,3.2E1,1.6E1,2.6E1,7E0,6E0,1.2E1,4.6E1,6E0,6E0,1E1,9E0,7E0,6E0,8E0,5E0,9E0,7E0,6E0,6E0,5E0,2.7E1,5E0,1.1E1,5E0,7E0,1.9E1,1.3E1,3.3E1],"tree_param":{"num_deleted":"0","num_feature":"25","num_nodes":"77","size_leaf_vector":"1"}},{"base_weights":[-2.9821088E0,-3.265606E2,1.0938154E2,-4.8619095E2,-1.9245299E2,2.4060843E1,2.1888783E2,-5.9498944E0,-1.0378941E1,-5.620265E1,-2.5040051E2,1.2557081E2,-6.175049E1,3.3475064E2,1.6882214E2,-1.2012463E2,1.8329084E0,-2.1765013E2,-6.472031E0,2.952012E2,8.179824E1,-1.1467264E2,-1.2016388E1,3.8971984E0,7.1107445E0,-1.4354744E1,1.9718852E2,-2.862501E0,-1.3883994E0,-5.106575E0,-1.293481E2,3.6995976E0,7.8945684E0,7.6243825E0,1.4449957E2,-5.323272E1,-1.8947397E2,-4.9606735E1,6.3909084E1,1.2457665E0,-1.7792284E0,1.11598595E2,2.428849E2,-3.6728854E0,-1.0695446E0,-1.3800334E0,3.5146385E1,1.090615E2,4.831967E0,2.3476554E-1,-7.437294E1,-4.430224E0,-2.3544273E0,1.011388E0,-7.467313E1,2.0782309E0,-4.7057513E-2,6.847454E1,3.733537E0,7.1130047E0,2.094547E2,1.4685485E0,5.9763335E-2,7.611513E-1,2.664251E0,-2.5377548E0,-6.6314E-1,-3.723725E-1,-1.886792E0,4.4031554E-1,2.2544343E0,3.522992E0,7.4871902E0],"categories":[],"categories_nodes":[],"categories_segments":[],"categories_sizes":[],"default_left":[0,0,0,0,0,0,0,0,0,0,0,0,0,0,0,0,0,0,0,0,0,0,0,0,0,0,0,0,0,0,0,0,0,0,0,0,0,0,0,0,0,0,0,0,0,0,0,0,0,0,0,0,0,0,0,0,0,0,0,0,0,0,0,0,0,0,0,0,0,0,0,0,0],"id":13,"left_children":[1,3,5,7,9,11,13,-1,-1,15,17,19,21,23,25,27,-1,29,-1,31,33,35,37,-1,-1,39,41,-1,-1,-1,43,-1,-1,45,47,49,51,53,55,-1,-1,57,59,-1,-1,-1,61,63,-1,-1,65,-1,-1,-1,67,-1,-1,69,-1,-1,71,-1,-1,-1,-1,-1,-1,-1,-1,-1,-1,-1,-1],"loss_changes":[1.4106465E7,2.047128E6,2.6855368E6,1.23678E5,4.2803662E5,1.4276055E6,6.743315E5,0E0,0E0,1.8112508E5,2.301125E4,5.3270225E5,2.3286053E5,3.825525E4,4.7049475E5,5.2039688E3,0E0,6.6748125E4,0E0,9.14755E4,2.8258184E5,1.8750838E5,1.3730994E5,0E0,0E0,7.987902E4,2.7792875E5,0E0,0E0,0E0,3.5469984E4,0E0,0E0,6.3579938E4,8.7168625E4,3.5216797E4,1.7565812E4,8.4132336E4,4.2664902E4,0E0,0E0,8.108453E4,1.1393925E5,0E0,0E0,0E0,2.6856045E4,3.9498438E4,0E0,0E0,3.6901273E4,0E0,0E0,0E0,2.6894469E4,0E0,0E0,3.8618258E4,0E0,0E0,1.5918075E5,0E0,0E0,0E0,0E0,0E0,0E0,0E0,0E0,0E0,0E0,0E0,0E0],"parents":[2147483647,0,0,1,1,2,2,3,3,4,4,5,5,6,6,9,9,10,10,11,11,12,12,13,13,14,14,15,15,17,17,19,19,20,20,21,21,22,22,25,25,26,26,30,30,33,33,34,34,35,35,36,36,37,37,38,38,41,41,42,42,46,46,47,47,50,50,54,54,57,57,60,60],"right_children":[2,4,6,8,10,12,14,-1,-1,16,18,20,22,24,26,28,-1,30,-1,32,34,36,38,-1,-1,40,42,-1,-1,-1,44,-1,-1,46,48,50,52,54,56,-1,-1,58,60,-1,-1,-1,62,64,-1,-1,66,-1,-1,-1,68,-1,-1,70,-1,-1,72,-1,-1,-1,-1,-1,-1,-1,-1,-1,-1,-1,-1],"split_conditions":[3.5044447E-1,2.1230982E-1,4.5234576E-1,2.4857543E-2,4.3213978E-1,4.939372E-1,6.1854817E-2,-5.9498944E0,-1.0378941E1,2.5096908E-1,5.9065837E-1,3.28174E-1,3.7732083E-1,1.0583875E-1,4.9674347E-1,3.5266015E-1,1.8329084E0,4.2833608E-1,-6.472031E0,3.4830296E-1,3.6994416E-1,5.615596E-1,5.057634E-1,3.8971984E0,7.1107445E0,4.0809897E-1,2.1423467E-1,-2.862501E0,-1.3883994E0,-5.106575E0,4.649797E-1,3.6995976E0,7.8945684E0,1.1545505E-1,8.167418E-1,3.5815123E-1,2.9619268E-1,5.665651E-1,4.467751E-2,1.2457665E0,-1.7792284E0,5.6824017E-1,4.4000047E-1,-3.6728854E0,-1.0695446E0,-1.3800334E0,4.773309E-2,5.700738E-1,4.831967E0,2.3476554E-1,3.2298964E-1,-4.430224E0,-2.3544273E0,1.011388E0,6.2229715E-2,2.0782309E0,-4.7057513E-2,3.6727944E-1,3.733537E0,7.1130047E0,5.1003385E-1,1.4685485E0,5.9763335E-2,7.611513E-1,2.664251E0,-2.5377548E0,-6.6314E-1,-3.723725E-1,-1.886792E0,4.4031554E-1,2.2544343E0,3.522992E0,7.4871902E0],"split_indices":[1,1,0,7,21,21,7,0,0,0,21,21,0,24,16,23,0,23,0,0,0,21,23,0,0,16,17,0,0,0,21,0,0,20,23,8,10,2,7,0,0,5,21,0,0,0,7,2,0,0,0,0,0,0,23,0,0,13,0,0,7,0,0,0,0,0,0,0,0,0,0,0,0],"split_type":[0,0,0,0,0,0,0,0,0,0,0,0,0,0,0,0,0,0,0,0,0,0,0,0,0,0,0,0,0,0,0,0,0,0,0,0,0,0,0,0,0,0,0,0,0,0,0,0,0,0,0,0,0,0,0,0,0,0,0,0,0,0,0,0,0,0,0,0,0,0,0,0,0],"sum_hessian":[3.86E2,9.9E1,2.87E2,4.4E1,5.5E1,1.62E2,1.25E2,8E0,3.6E1,1.7E1,3.8E1,7.4E1,8.8E1,3.6E1,8.9E1,1.2E1,5E0,2.9E1,9E0,1.4E1,6E1,4.2E1,4.6E1,6E0,3E1,1.2E1,7.7E1,7E0,5E0,1.9E1,1E1,8E0,6E0,2.8E1,3.2E1,2.4E1,1.8E1,3.1E1,1.5E1,6E0,6E0,2.8E1,4.9E1,5E0,5E0,7E0,2.1E1,2.5E1,7E0,6E0,1.8E1,1.1E1,7E0,6E0,2.5E1,9E0,6E0,1.9E1,9E0,9E0,4E1,9E0,1.2E1,7E0,1.8E1,7E0,1.1E1,7E0,1.8E1,1E1,9E0,3.5E1,5E0],"tree_param":{"num_deleted":"0","num_feature":"25","num_nodes":"73","size_leaf_vector":"1"}},{"base_weights":[3.491193E-1,-3.2012646E2,1.20385025E2,-4.8527997E2,-1.9033485E2,1.7645615E1,2.4644489E2,-5.18927E2,-4.473421E0,-2.600713E2,-9.885365E1,-6.085263E1,1.2128233E2,1.6519344E2,3.3164658E2,-1.2401389E1,-8.94519E0,-2.787728E2,-2.9619591E0,-1.48058E2,4.2923945E-1,-1.1338586E2,1.882623E0,-2.4825203E0,1.4273103E2,1.1838964E2,3.0697495E2,2.851307E2,9.956341E0,-3.8542752E0,-6.1877904E0,-1.3379551E0,-1.706449E2,-1.9307686E2,-7.599012E1,-5.9647007E1,6.0534424E1,6.5784127E-1,1.6042656E2,5.9421497E1,1.5053732E2,3.1344845E0,7.6288586E0,2.4764032E2,7.121846E0,-4.1007752E0,-2.0406418E0,-4.516427E0,-2.1261313E0,-1.00943886E2,-2.5988054E1,5.7543316E0,-3.3331194E0,2.6034864E1,2.61457E0,4.563618E-1,1.7400052E2,2.1243593E1,2.5454848E0,1.7261613E2,9.750638E1,2.6492162E0,5.32515E0,-2.3003376E0,-1.0466356E0,3.0308625E-1,-1.0721765E0,9.543212E-1,-1.162613E0,1.3271443E0,3.329918E-2,2.8945682E0,4.411633E0,1.1778352E0,-7.750518E-1,3.8631325E0,1.7126411E0,2.401736E0,1.2841591E0],"categories":[],"categories_nodes":[],"categories_segments":[],"categories_sizes":[],"default_left":[0,0,0,0,0,0,0,0,0,0,0,0,0,0,0,0,0,0,0,0,0,0,0,0,0,0,0,0,0,0,0,0,0,0,0,0,0,0,0,0,0,0,0,0,0,0,0,0,0,0,0,0,0,0,0,0,0,0,0,0,0,0,0,0,0,0,0,0,0,0,0,0,0,0,0,0,0,0,0],"id":14,"left_children":[1,3,5,7,9,11,13,15,-1,17,19,21,23,25,27,-1,-1,29,-1,31,-1,33,35,-1,37,39,41,43,-1,-1,-1,-1,45,47,49,51,53,-1,55,57,59,-1,-1,61,-1,-1,-1,-1,-1,63,65,67,-1,69,-1,-1,71,73,-1,75,77,-1,-1,-1,-1,-1,-1,-1,-1,-1,-1,-1,-1,-1,-1,-1,-1,-1,-1],"loss_changes":[1.4964327E7,2.179733E6,3.6608468E6,2.88766E5,3.6340925E5,1.2846285E6,8.243545E5,1.2506E4,0E0,2.986975E4,1.6895172E5,2.968363E5,3.7564944E5,4.08221E5,3.29482E5,0E0,0E0,1.4102E4,0E0,2.5223656E4,0E0,1.3132625E5,1.5518136E5,0E0,1.17154375E5,8.960969E4,1.19186875E5,4.477575E4,0E0,0E0,0E0,0E0,1.44466875E4,1.857925E4,4.103489E4,1.4794422E5,4.9857438E4,0E0,9.6876125E4,4.909089E4,2.1780188E4,0E0,0E0,4.1887E4,0E0,0E0,0E0,0E0,0E0,9.698922E3,1.558924E4,4.0302863E4,0E0,1.5605145E4,0E0,0E0,3.4851875E4,3.390667E4,0E0,2.2739125E4,1.2937578E3,0E0,0E0,0E0,0E0,0E0,0E0,0E0,0E0,0E0,0E0,0E0,0E0,0E0,0E0,0E0,0E0,0E0,0E0],"parents":[2147483647,0,0,1,1,2,2,3,3,4,4,5,5,6,6,7,7,9,9,10,10,11,11,12,12,13,13,14,14,17,17,19,19,21,21,22,22,24,24,25,25,26,26,27,27,32,32,33,33,34,34,35,35,36,36,38,38,39,39,40,40,43,43,49,49,50,50,51,51,53,53,56,56,57,57,59,59,60,60],"right_children":[2,4,6,8,10,12,14,16,-1,18,20,22,24,26,28,-1,-1,30,-1,32,-1,34,36,-1,38,40,42,44,-1,-1,-1,-1,46,48,50,52,54,-1,56,58,60,-1,-1,62,-1,-1,-1,-1,-1,64,66,68,-1,70,-1,-1,72,74,-1,76,78,-1,-1,-1,-1,-1,-1,-1,-1,-1,-1,-1,-1,-1,-1,-1,-1,-1,-1],"split_conditions":[3.552538E-1,2.0447342E-1,4.2855155E-1,3.092038E-1,3.0847126E-1,4.8338053E-1,5.1800567E-1,8.9255385E-2,-4.473421E0,6.038172E-1,2.2558089E-1,3.4352288E-1,2.3560265E-1,5.6634766E-1,4.763649E-1,-1.2401389E1,-8.94519E0,4.9277037E-1,-2.9619591E0,3.1084772E-3,4.2923945E-1,3.271121E-1,4.1173813E-1,-2.4825203E0,1.426098E-1,6.905717E-1,4.1173813E-1,5.7350373E-1,9.956341E0,-3.8542752E0,-6.1877904E0,-1.3379551E0,5.422384E-1,2.5620565E-1,3.9974323E-1,3.9040014E-1,6.704012E-1,6.5784127E-1,3.1712425E-1,6.0728747E-1,6.730758E-1,3.1344845E0,7.6288586E0,5.493618E-1,7.121846E0,-4.1007752E0,-2.0406418E0,-4.516427E0,-2.1261313E0,4.383261E-1,4.8654288E-1,3.9016673E-1,-3.3331194E0,3.1142765E-1,2.61457E0,4.563618E-1,6.248548E-1,6.7479676E-1,2.5454848E0,5.4066765E-1,6.084442E-1,2.6492162E0,5.32515E0,-2.3003376E0,-1.0466356E0,3.0308625E-1,-1.0721765E0,9.543212E-1,-1.162613E0,1.3271443E0,3.329918E-2,2.8945682E0,4.411633E0,1.1778352E0,-7.750518E-1,3.8631325E0,1.7126411E0,2.401736E0,1.2841591E0],"split_indices":[1,1,9,9,9,1,1,5,0,3,24,9,9,9,24,0,0,3,0,24,0,11,1,0,17,16,1,9,0,0,0,0,11,9,5,14,16,0,11,3,2,0,0,1,0,0,0,0,0,14,11,10,0,10,0,0,4,4,0,9,3,0,0,0,0,0,0,0,0,0,0,0,0,0,0,0,0,0,0],"split_type":[0,0,0,0,0,0,0,0,0,0,0,0,0,0,0,0,0,0,0,0,0,0,0,0,0,0,0,0,0,0,0,0,0,0,0,0,0,0,0,0,0,0,0,0,0,0,0,0,0,0,0,0,0,0,0,0,0,0,0,0,0,0,0,0,0,0,0,0,0,0,0,0,0,0,0,0,0,0,0],"sum_hessian":[3.87E2,1.05E2,2.82E2,4.5E1,6E1,1.56E2,1.26E2,3.9E1,6E0,3.3E1,2.7E1,8.9E1,6.7E1,6.6E1,6E1,1.3E1,2.6E1,2.7E1,6E0,1.9E1,8E0,4.8E1,4.1E1,5E0,6.2E1,5.1E1,1.5E1,4.9E1,1.1E1,9E0,1.8E1,5E0,1.4E1,1.4E1,3.4E1,2E1,2.1E1,9E0,5.3E1,1.9E1,3.2E1,6E0,9E0,3.5E1,1.4E1,8E0,6E0,9E0,5E0,2.2E1,1.2E1,1.3E1,7E0,1.5E1,6E0,5E0,4.8E1,1.3E1,6E0,2.1E1,1.1E1,6E0,2.9E1,1.6E1,6E0,5E0,7E0,8E0,5E0,5E0,1E1,3.2E1,1.6E1,8E0,5E0,1.6E1,5E0,5E0,6E0],"tree_param":{"num_deleted":"0","num_feature":"25","num_nodes":"79","size_leaf_vector":"1"}},{"base_weights":[-5.845962E0,-3.6762003E2,1.0380189E2,-5.0299927E2,-2.146531E2,8.478646E0,2.36724E2,-1.28711605E1,-8.606502E0,-1.066781E2,-2.6148218E2,-6.2956745E1,1.08177704E2,1.642847E2,3.6024222E2,-2.858077E0,-5.701098E-1,-5.7089148E0,-3.7000093E0,-1.5830727E2,-3.8672595E0,-1.7407619E0,1.3020268E2,1.2238491E2,2.9235852E2,5.8133087E0,4.1976498E2,-1.9056517E2,-7.91249E1,-5.4472275E1,2.9966013E1,1.031761E2,6.264718E0,6.642603E1,1.609517E2,3.224175E0,6.5535135E0,9.910689E0,6.3064165E0,-4.8324003E0,-1.4035747E2,-2.583308E0,-6.3382804E-1,-1.5367547E0,-3.467452E0,-5.3262177E1,6.89327E1,4.5996376E1,1.4386424E2,9.763036E0,1.110989E2,3.513345E0,1.1615881E0,-3.1990218E0,-1.6205245E0,-9.051482E-1,5.546016E-1,-3.398632E-1,-1.8545432E0,2.1227378E-1,2.0521555E0,-1.7865434E-1,1.7375978E0,1.2235042E0,3.3390057E0,-1.0991949E0,1.1419448E0,2.8518708E0,1.0944046E0],"categories":[],"categories_nodes":[],"categories_segments":[],"categories_sizes":[],"default_left":[0,0,0,0,0,0,0,0,0,0,0,0,0,0,0,0,0,0,0,0,0,0,0,0,0,0,0,0,0,0,0,0,0,0,0,0,0,0,0,0,0,0,0,0,0,0,0,0,0,0,0,0,0,0,0,0,0,0,0,0,0,0,0,0,0,0,0,0,0],"id":15,"left_children":[1,3,5,7,9,11,13,-1,-1,15,17,19,21,23,25,-1,-1,-1,-1,27,29,-1,31,33,35,-1,37,39,41,43,45,47,-1,49,51,-1,-1,-1,-1,-1,53,-1,-1,55,-1,57,59,61,63,65,67,-1,-1,-1,-1,-1,-1,-1,-1,-1,-1,-1,-1,-1,-1,-1,-1,-1,-1],"loss_changes":[1.5349937E7,1.755726E6,3.7611265E6,2.03058E5,1.94549E5,1.2460502E6,1.050265E6,0E0,0E0,3.8387234E4,2.128625E3,5.740614E5,3.2520944E5,3.934795E5,6.42805E4,0E0,0E0,0E0,0E0,8.451056E4,1.112113E5,0E0,2.9412625E5,1.23091375E5,3.5131875E4,0E0,1.77675E4,3.5258938E4,2.6747227E4,1.633614E5,1.30155016E5,1.306295E5,0E0,6.724831E4,4.4271625E4,0E0,0E0,0E0,0E0,0E0,5.6159062E3,0E0,0E0,2.5568484E4,0E0,1.7020938E4,5.1924867E4,5.917192E4,5.4668688E4,4.296508E4,1.8811906E4,0E0,0E0,0E0,0E0,0E0,0E0,0E0,0E0,0E0,0E0,0E0,0E0,0E0,0E0,0E0,0E0,0E0,0E0],"parents":[2147483647,0,0,1,1,2,2,3,3,4,4,5,5,6,6,9,9,10,10,11,11,12,12,13,13,14,14,19,19,20,20,22,22,23,23,24,24,26,26,27,27,28,28,29,29,30,30,31,31,33,33,34,34,40,40,43,43,45,45,46,46,47,47,48,48,49,49,50,50],"right_children":[2,4,6,8,10,12,14,-1,-1,16,18,20,22,24,26,-1,-1,-1,-1,28,30,-1,32,34,36,-1,38,40,42,44,46,48,-1,50,52,-1,-1,-1,-1,-1,54,-1,-1,56,-1,58,60,62,64,66,68,-1,-1,-1,-1,-1,-1,-1,-1,-1,-1,-1,-1,-1,-1,-1,-1,-1,-1],"split_conditions":[3.249074E-1,2.1230982E-1,4.2771778E-1,2.0554577E-1,4.228022E-1,4.814426E-1,5.493618E-1,-1.28711605E1,-8.606502E0,5.23021E-1,3.8596016E-1,3.1778517E-1,2.3560265E-1,5.6634766E-1,5.3025466E-1,-2.858077E0,-5.701098E-1,-5.7089148E0,-3.7000093E0,4.3338948E-1,4.1173813E-1,-1.7407619E0,7.3824286E-1,6.955257E-1,4.1173813E-1,5.8133087E0,2.0275488E-1,2.3534949E-1,8.974225E-2,3.9040014E-1,3.5157296E-1,3.8446498E-1,6.264718E0,4.717808E-1,8.42677E-1,3.224175E0,6.5535135E0,9.910689E0,6.3064165E0,-4.8324003E0,3.3580408E-1,-2.583308E0,-6.3382804E-1,4.534413E-1,-3.467452E0,4.6051303E-1,3.2878464E-1,3.460364E-1,3.2835585E-1,3.136836E-1,3.5762593E-1,3.513345E0,1.1615881E0,-3.1990218E0,-1.6205245E0,-9.051482E-1,5.546016E-1,-3.398632E-1,-1.8545432E0,2.1227378E-1,2.0521555E0,-1.7865434E-1,1.7375978E0,1.2235042E0,3.3390057E0,-1.0991949E0,1.1419448E0,2.8518708E0,1.0944046E0],"split_indices":[1,1,9,11,21,1,1,0,0,23,23,9,9,9,9,0,0,0,0,1,1,0,21,16,1,0,6,9,6,14,9,14,0,9,16,0,0,0,0,0,15,0,0,3,0,1,14,9,9,13,15,0,0,0,0,0,0,0,0,0,0,0,0,0,0,0,0,0,0],"split_type":[0,0,0,0,0,0,0,0,0,0,0,0,0,0,0,0,0,0,0,0,0,0,0,0,0,0,0,0,0,0,0,0,0,0,0,0,0,0,0,0,0,0,0,0,0,0,0,0,0,0,0,0,0,0,0,0,0,0,0,0,0,0,0,0,0,0,0,0,0],"sum_hessian":[3.85E2,8.9E1,2.96E2,4.6E1,4.3E1,1.73E2,1.23E2,1.3E1,3.3E1,1.4E1,2.9E1,1.01E2,7.2E1,7.9E1,4.4E1,9E0,5E0,2E1,9E0,3.8E1,6.3E1,7E0,6.5E1,6.1E1,1.8E1,2.3E1,2.1E1,2.6E1,1.2E1,2.5E1,3.8E1,5.8E1,7E0,2.6E1,3.5E1,5E0,1.3E1,1E1,1.1E1,1.1E1,1.5E1,5E0,7E0,1.8E1,7E0,1.2E1,2.6E1,2.5E1,3.3E1,1.2E1,1.4E1,3E1,5E0,1E1,5E0,7E0,1.1E1,7E0,5E0,1E1,1.6E1,1.1E1,1.4E1,8E0,2.5E1,5E0,7E0,8E0,6E0],"tree_param":{"num_deleted":"0","num_feature":"25","num_nodes":"69","size_leaf_vector":"1"}},{"base_weights":[-4.7088256E0,-3.6127216E2,9.441931E1,-4.81535E2,-2.0934581E2,1.0285721E1,2.5591962E2,-1.0761368E1,-3.179132E2,-1.3501631E2,-5.389731E0,-1.02586075E2,7.291144E1,2.0538167E2,7.6068125E0,-4.0136633E0,-7.614757E0,-5.276124E-1,-1.961804E2,-4.7740655E0,-6.735227E1,-1.0371255E2,9.591633E1,1.47881E2,3.0584518E2,-5.502762E0,-1.4269937E0,-1.04538055E2,-7.8325E0,-3.283204E0,-6.0576653E-1,7.076237E1,2.3231422E2,7.436643E1,1.781237E2,6.910512E0,4.155878E0,-1.4864435E2,-7.812499E1,6.045944E1,-7.5480064E1,2.4099741E1,1.3018098E2,5.7973742E0,2.6263866E0,1.8737456E0,5.306762E-1,1.268365E0,1.9571022E2,-1.6748987E0,-3.991392E0,-2.1205285E0,-9.270505E-1,2.010432E-1,1.9002866E0,-1.9593991E0,-7.329036E-1,2.1391203E-1,2.6353521E0,9.2495847E-1,3.2441857E0,4.294336E0,1.740978E0],"categories":[],"categories_nodes":[],"categories_segments":[],"categories_sizes":[],"default_left":[0,0,0,0,0,0,0,0,0,0,0,0,0,0,0,0,0,0,0,0,0,0,0,0,0,0,0,0,0,0,0,0,0,0,0,0,0,0,0,0,0,0,0,0,0,0,0,0,0,0,0,0,0,0,0,0,0,0,0,0,0,0,0],"id":16,"left_children":[1,3,5,7,9,11,13,-1,15,17,-1,19,21,23,-1,-1,-1,-1,25,-1,27,29,31,33,35,-1,-1,37,39,-1,-1,41,43,45,47,-1,-1,49,51,53,55,57,59,-1,-1,-1,-1,-1,61,-1,-1,-1,-1,-1,-1,-1,-1,-1,-1,-1,-1,-1,-1],"loss_changes":[1.332403E7,1.397353E6,4.0056832E6,2.4511E5,1.3344325E5,1.3858688E6,5.56913E5,0E0,2.6643375E4,1.2104984E5,0E0,3.1960706E5,5.2191225E5,3.82203E5,0E0,0E0,0E0,0E0,9.86105E4,0E0,1.2532747E5,6.1583234E4,3.677967E5,9.5669E4,2.930525E4,0E0,0E0,2.9138875E4,1.1082E5,0E0,0E0,2.6301966E5,6.0708562E4,1.2288766E4,5.6149625E4,0E0,0E0,2.2918938E4,1.6346094E4,1.9936215E4,6.877117E3,7.795216E4,1.05383125E5,0E0,0E0,0E0,0E0,0E0,4.1172125E4,0E0,0E0,0E0,0E0,0E0,0E0,0E0,0E0,0E0,0E0,0E0,0E0,0E0,0E0],"parents":[2147483647,0,0,1,1,2,2,3,3,4,4,5,5,6,6,8,8,9,9,11,11,12,12,13,13,18,18,20,20,21,21,22,22,23,23,24,24,27,27,28,28,31,31,32,32,33,33,34,34,37,37,38,38,39,39,40,40,41,41,42,42,48,48],"right_children":[2,4,6,8,10,12,14,-1,16,18,-1,20,22,24,-1,-1,-1,-1,26,-1,28,30,32,34,36,-1,-1,38,40,-1,-1,42,44,46,48,-1,-1,50,52,54,56,58,60,-1,-1,-1,-1,-1,62,-1,-1,-1,-1,-1,-1,-1,-1,-1,-1,-1,-1,-1,-1],"split_conditions":[3.101038E-1,2.0447342E-1,4.6226245E-1,4.1747487E-1,5.1449336E-2,3.6712262E-1,5.793697E-1,-1.0761368E1,1.01856604E-1,2.1012096E-1,-5.389731E0,2.6661673E-1,2.579232E-1,5.063721E-1,7.6068125E0,-4.0136633E0,-7.614757E0,-5.276124E-1,7.193218E-1,-4.7740655E0,5.10676E-1,6.058161E-1,5.730782E-1,1.22246146E-1,5.8707255E-1,-5.502762E0,-1.4269937E0,4.8393756E-2,5.3679083E-2,-3.283204E0,-6.0576653E-1,6.955257E-1,3.4116077E-1,4.032707E-1,3.8935742E-1,6.910512E0,4.155878E0,4.8932746E-1,3.136836E-1,3.3141872E-1,5.9502333E-1,2.889901E-1,3.5396537E-1,5.7973742E0,2.6263866E0,1.8737456E0,5.306762E-1,1.268365E0,8.4005886E-1,-1.6748987E0,-3.991392E0,-2.1205285E0,-9.270505E-1,2.010432E-1,1.9002866E0,-1.9593991E0,-7.329036E-1,2.1391203E-1,2.6353521E0,9.2495847E-1,3.2441857E0,4.294336E0,1.740978E0],"split_indices":[1,1,9,16,7,0,9,0,5,17,0,9,9,0,0,0,0,0,16,0,12,2,0,24,12,0,0,7,7,0,0,16,20,14,12,0,0,16,14,13,16,17,9,0,0,0,0,0,16,0,0,0,0,0,0,0,0,0,0,0,0,0,0],"split_type":[0,0,0,0,0,0,0,0,0,0,0,0,0,0,0,0,0,0,0,0,0,0,0,0,0,0,0,0,0,0,0,0,0,0,0,0,0,0,0,0,0,0,0,0,0,0,0,0,0,0,0,0,0,0,0,0,0,0,0,0,0,0,0],"sum_hessian":[3.75E2,8.1E1,2.94E2,4.4E1,3.7E1,1.94E2,1E2,3.1E1,1.3E1,1.8E1,1.9E1,6.9E1,1.25E2,7.3E1,2.7E1,6E0,7E0,7E0,1.1E1,1.3E1,5.6E1,1.4E1,1.11E2,4.8E1,2.5E1,6E0,5E0,3.4E1,2.2E1,7E0,7E0,9.5E1,1.6E1,1.5E1,3.3E1,1.6E1,9E0,1.1E1,2.3E1,1.1E1,1.1E1,5.4E1,4.1E1,9E0,7E0,1E1,5E0,5E0,2.8E1,6E0,5E0,1.1E1,1.2E1,5E0,6E0,6E0,5E0,4.9E1,5E0,1.2E1,2.9E1,2.3E1,5E0],"tree_param":{"num_deleted":"0","num_feature":"25","num_nodes":"63","size_leaf_vector":"1"}},{"base_weights":[1.3958439E0,-3.383634E2,9.647762E1,-4.440017E2,-1.8381764E2,-5.2415133E0,2.1556625E2,-9.789298E0,-5.3362975E0,-2.339934E2,-1.0131041E2,-9.42077E1,7.1370575E1,1.3089482E2,2.9706613E2,-5.5308485E0,-2.1874993E0,-2.8093004E0,-7.2963125E-1,-1.8885634E2,-2.5380074E1,-2.8163402E0,9.494003E1,6.307908E1,2.2551805E2,2.4288911E2,3.8626614E2,-4.7306294E0,-1.3567496E2,-7.0714905E1,1.5341239E1,4.9232872E1,1.8986589E2,9.7326744E1,1.3905578E1,1.9769596E0,2.5556679E2,2.6479694E2,3.0218499E0,5.2544775E0,8.6322155E0,-3.0988882E0,-1.7199593E0,-2.7987685E0,-4.033015E1,-4.2565556E1,8.765523E1,-2.2338913E1,1.16493774E2,1.3988962E2,5.9675555E0,6.267377E1,2.5349712E0,-4.0953958E-1,8.6938643E-1,3.3671255E0,6.549261E0,3.0840044E0,2.780864E2,-1.4822766E0,-2.5277117E-1,-1.4273427E0,1.5428825E-1,1.113721E0,2.0999706E0,1.554286E0,-1.3712415E0,7.320757E-1,3.4823456E0,3.5446417E0,1.010816E0,1.7715029E0,5.5609435E-1,5.930079E0,3.099641E0],"categories":[],"categories_nodes":[],"categories_segments":[],"categories_sizes":[],"default_left":[0,0,0,0,0,0,0,0,0,0,0,0,0,0,0,0,0,0,0,0,0,0,0,0,0,0,0,0,0,0,0,0,0,0,0,0,0,0,0,0,0,0,0,0,0,0,0,0,0,0,0,0,0,0,0,0,0,0,0,0,0,0,0,0,0,0,0,0,0,0,0,0,0,0,0],"id":17,"left_children":[1,3,5,7,9,11,13,-1,-1,15,17,19,21,23,25,-1,-1,-1,-1,27,29,-1,31,33,35,37,39,-1,41,43,45,47,49,51,53,-1,55,57,-1,-1,-1,-1,-1,-1,59,61,63,65,67,69,-1,71,-1,-1,-1,-1,-1,-1,73,-1,-1,-1,-1,-1,-1,-1,-1,-1,-1,-1,-1,-1,-1,-1,-1],"loss_changes":[1.2114658E7,1.25705E6,3.5504338E6,2.55991E5,1.21155625E5,1.0904518E6,8.926695E5,0E0,0E0,8.106475E4,3.2933156E4,4.7725406E5,4.434632E5,4.2209775E5,2.34733E5,0E0,0E0,0E0,0E0,4.646975E4,8.2318516E4,0E0,3.2905406E5,6.768269E4,8.1278125E4,5.04475E4,2.09835E4,0E0,2.92425E3,3.8508375E4,1.0423491E5,2.6256684E5,9.379175E4,1.6506516E4,1.9189008E4,0E0,8.2762375E4,8.5175E3,0E0,0E0,0E0,0E0,0E0,0E0,1.402301E4,2.083092E4,2.3594531E2,1.30196266E5,1.2250469E5,5.4413344E4,0E0,9.266582E3,0E0,0E0,0E0,0E0,0E0,0E0,2.20205E4,0E0,0E0,0E0,0E0,0E0,0E0,0E0,0E0,0E0,0E0,0E0,0E0,0E0,0E0,0E0,0E0],"parents":[2147483647,0,0,1,1,2,2,3,3,4,4,5,5,6,6,9,9,10,10,11,11,12,12,13,13,14,14,19,19,20,20,22,22,23,23,24,24,25,25,26,26,28,28,29,29,30,30,31,31,32,32,33,33,34,34,36,36,37,37,44,44,45,45,46,46,47,47,48,48,49,49,51,51,58,58],"right_children":[2,4,6,8,10,12,14,-1,-1,16,18,20,22,24,26,-1,-1,-1,-1,28,30,-1,32,34,36,38,40,-1,42,44,46,48,50,52,54,-1,56,58,-1,-1,-1,-1,-1,-1,60,62,64,66,68,70,-1,72,-1,-1,-1,-1,-1,-1,74,-1,-1,-1,-1,-1,-1,-1,-1,-1,-1,-1,-1,-1,-1,-1,-1],"split_conditions":[2.5877726E-1,2.5532314E-1,4.1949528E-1,1.6276036E-1,3.4912097E-1,3.9974323E-1,4.5626077E-1,-9.789298E0,-5.3362975E0,1.2794136E-1,5.558126E-1,3.1778517E-1,1.875649E-1,5.1217735E-1,5.270874E-1,-5.5308485E0,-2.1874993E0,-2.8093004E0,-7.2963125E-1,4.3860564E-1,5.246948E-1,-2.8163402E0,5.443981E-1,5.202742E-2,3.7396386E-1,9.0844405E-1,2.6619145E-1,-4.7306294E0,3.498716E-1,2.417297E-1,3.7711394E-1,3.4848073E-1,3.091655E-1,3.7321746E-1,5.789602E-1,1.9769596E0,5.6634766E-1,4.366631E-1,3.0218499E0,5.2544775E0,8.6322155E0,-3.0988882E0,-1.7199593E0,-2.7987685E0,4.9913245E-1,2.2386913E-1,1.8521784E-1,4.715447E-1,5.7319576E-1,3.774878E-1,5.9675555E0,4.661981E-1,2.5349712E0,-4.0953958E-1,8.6938643E-1,3.3671255E0,6.549261E0,3.0840044E0,4.9530765E-1,-1.4822766E0,-2.5277117E-1,-1.4273427E0,1.5428825E-1,1.113721E0,2.0999706E0,1.554286E0,-1.3712415E0,7.320757E-1,3.4823456E0,3.5446417E0,1.010816E0,1.7715029E0,5.5609435E-1,5.930079E0,3.099641E0],"split_indices":[0,9,9,0,9,5,0,0,0,24,3,9,9,9,9,0,0,0,0,16,11,0,0,7,13,20,17,0,5,15,9,9,24,5,16,0,9,11,0,0,0,0,0,0,3,17,17,4,21,7,0,9,0,0,0,0,0,0,15,0,0,0,0,0,0,0,0,0,0,0,0,0,0,0,0],"split_type":[0,0,0,0,0,0,0,0,0,0,0,0,0,0,0,0,0,0,0,0,0,0,0,0,0,0,0,0,0,0,0,0,0,0,0,0,0,0,0,0,0,0,0,0,0,0,0,0,0,0,0,0,0,0,0,0,0,0,0,0,0,0,0,0,0,0,0,0,0,0,0,0,0,0,0],"sum_hessian":[3.73E2,8.1E1,2.92E2,4.7E1,3.4E1,1.58E2,1.34E2,3.6E1,1.1E1,2E1,1.4E1,7.3E1,8.5E1,6.7E1,6.7E1,1.4E1,6E0,8E0,6E0,3E1,4.3E1,8E0,7.7E1,4E1,2.7E1,4.4E1,2.3E1,1.4E1,1.6E1,2E1,2.3E1,5.3E1,2.4E1,2.3E1,1.7E1,6E0,2.1E1,3.4E1,1E1,8E0,1.5E1,1E1,6E0,5E0,1.5E1,1.3E1,1E1,2.6E1,2.7E1,1.8E1,6E0,1.2E1,1.1E1,8E0,9E0,1.1E1,1E1,5E0,2.9E1,6E0,9E0,8E0,5E0,5E0,5E0,8E0,1.8E1,1.2E1,1.5E1,1.2E1,6E0,6E0,6E0,2.4E1,5E0],"tree_param":{"num_deleted":"0","num_feature":"25","num_nodes":"75","size_leaf_vector":"1"}},{"base_weights":[3.8086138E0,-3.3841678E2,1.0125886E2,-4.5136743E2,-1.9158932E2,1.1889472E1,2.2586739E2,-5.181008E2,-3.0764874E2,-5.316189E0,-9.5561325E1,-5.6700493E1,1.073993E2,1.8144928E2,3.663955E2,-1.19542E1,-8.022571E0,-7.2129855E0,-2.8304546E0,-2.9145503E0,-4.5819767E1,-1.1203869E2,1.7913212E1,-2.11562E0,1.2390328E2,1.4075546E2,3.0444406E2,2.951406E2,9.997048E0,-3.3495605E-2,-1.646229E0,-1.6867798E2,-8.029323E1,-3.3726112E1,5.5504814E1,1.0208982E2,2.3359583E2,8.002004E1,1.635929E2,4.166182E0,7.1645107E0,6.510642E0,3.196492E0,-4.618565E0,-9.108425E1,-1.1012126E2,-4.3462738E1,4.964627E-1,-8.389578E1,-1.884236E-1,8.334319E1,2.9894041E1,1.4204655E2,6.4935403E0,2.0713065E0,4.822781E1,2.915681E0,1.9817531E2,1.2316432E2,-2.566444E0,-7.729784E-1,-2.9966247E0,-1.6318904E0,1.3823618E-1,-1.3110534E0,-2.4974375E0,-5.784077E-1,2.1785538E0,8.5603535E-1,1.1964866E0,-4.6600443E-1,3.3677483E-1,3.2859664E0,1.7203078E0,3.9575458E-1,3.1999907E0,5.0176344E0,9.671455E-1,2.7463977E0],"categories":[],"categories_nodes":[],"categories_segments":[],"categories_sizes":[],"default_left":[0,0,0,0,0,0,0,0,0,0,0,0,0,0,0,0,0,0,0,0,0,0,0,0,0,0,0,0,0,0,0,0,0,0,0,0,0,0,0,0,0,0,0,0,0,0,0,0,0,0,0,0,0,0,0,0,0,0,0,0,0,0,0,0,0,0,0,0,0,0,0,0,0,0,0,0,0,0,0],"id":18,"left_children":[1,3,5,7,9,11,13,15,17,-1,19,21,23,25,27,-1,-1,-1,-1,-1,29,31,33,-1,35,37,39,41,-1,-1,-1,43,45,47,49,51,53,55,57,-1,-1,-1,-1,-1,59,61,63,-1,65,-1,67,69,71,-1,-1,73,-1,75,77,-1,-1,-1,-1,-1,-1,-1,-1,-1,-1,-1,-1,-1,-1,-1,-1,-1,-1,-1,-1],"loss_changes":[1.3240824E7,1.372873E6,3.4383728E6,3.10475E5,2.5965112E5,1.1918286E6,7.386805E5,5.8128E4,1.073955E5,0E0,4.0715188E4,4.3968912E5,2.80501E5,4.5761625E5,1.3767725E5,0E0,0E0,0E0,0E0,0E0,1.7573926E4,9.611181E4,9.116957E4,0E0,1.4600562E5,9.3687125E4,4.94085E4,3.8397375E4,0E0,0E0,0E0,8.036881E4,4.024028E4,6.08364E4,4.9593305E4,1.7170369E5,9.660856E4,4.1037812E4,5.245625E4,0E0,0E0,0E0,0E0,0E0,1.6502219E4,1.2672969E4,2.2714355E4,0E0,2.1152734E4,0E0,1.50299375E4,3.801632E4,1.05873E5,0E0,0E0,1.6556965E4,0E0,1.6157E4,2.299125E4,0E0,0E0,0E0,0E0,0E0,0E0,0E0,0E0,0E0,0E0,0E0,0E0,0E0,0E0,0E0,0E0,0E0,0E0,0E0,0E0],"parents":[2147483647,0,0,1,1,2,2,3,3,4,4,5,5,6,6,7,7,8,8,10,10,11,11,12,12,13,13,14,14,20,20,21,21,22,22,24,24,25,25,26,26,27,27,31,31,32,32,33,33,34,34,35,35,36,36,37,37,38,38,44,44,45,45,46,46,48,48,50,50,51,51,52,52,55,55,57,57,58,58],"right_children":[2,4,6,8,10,12,14,16,18,-1,20,22,24,26,28,-1,-1,-1,-1,-1,30,32,34,-1,36,38,40,42,-1,-1,-1,44,46,48,50,52,54,56,58,-1,-1,-1,-1,-1,60,62,64,-1,66,-1,68,70,72,-1,-1,74,-1,76,78,-1,-1,-1,-1,-1,-1,-1,-1,-1,-1,-1,-1,-1,-1,-1,-1,-1,-1,-1,-1],"split_conditions":[3.249074E-1,2.1230982E-1,4.2611942E-1,4.260783E-1,3.1778517E-1,4.312852E-1,5.793697E-1,3.933338E-1,6E-1,-5.316189E0,3.5266015E-1,3.5157296E-1,1.6414651E-1,5.501207E-1,4.2615712E-1,-1.19542E1,-8.022571E0,-7.2129855E0,-2.8304546E0,-2.9145503E0,6.3949835E-1,2.579232E-1,3.5411367E-1,-2.11562E0,7.3824286E-1,3.7321746E-1,4.6680117E-1,3.136668E-1,9.997048E0,-3.3495605E-2,-1.646229E0,1.11029945E-1,9.662945E-2,3.0734837E-1,4.818692E-1,3.460364E-1,3.6956373E-1,5.1217735E-1,5.1284168E-2,4.166182E0,7.1645107E0,6.510642E0,3.196492E0,-4.618565E0,2.380976E-1,5.1529443E-1,5.002892E-1,4.964627E-1,4.731152E-1,-1.884236E-1,5.708502E-1,3.333688E-1,5.252888E-1,6.4935403E0,2.0713065E0,9.391631E-4,2.915681E0,8.299769E-1,3.465754E-1,-2.566444E0,-7.729784E-1,-2.9966247E0,-1.6318904E0,1.3823618E-1,-1.3110534E0,-2.4974375E0,-5.784077E-1,2.1785538E0,8.5603535E-1,1.1964866E0,-4.6600443E-1,3.3677483E-1,3.2859664E0,1.7203078E0,3.9575458E-1,3.1999907E0,5.0176344E0,9.671455E-1,2.7463977E0],"split_indices":[1,1,9,16,9,0,9,20,22,0,23,9,9,21,17,0,0,0,0,0,20,9,0,0,21,5,9,17,0,0,0,6,6,0,12,9,10,9,7,0,0,0,0,0,9,16,3,0,21,0,3,9,16,0,0,6,0,23,10,0,0,0,0,0,0,0,0,0,0,0,0,0,0,0,0,0,0,0,0],"split_type":[0,0,0,0,0,0,0,0,0,0,0,0,0,0,0,0,0,0,0,0,0,0,0,0,0,0,0,0,0,0,0,0,0,0,0,0,0,0,0,0,0,0,0,0,0,0,0,0,0,0,0,0,0,0,0,0,0,0,0,0,0,0,0,0,0,0,0,0,0,0,0,0,0,0,0,0,0,0,0],"sum_hessian":[3.95E2,8.7E1,3.08E2,4.8E1,3.9E1,1.8E2,1.28E2,3.1E1,1.7E1,2.1E1,1.8E1,1.05E2,7.5E1,9.9E1,2.9E1,1.6E1,1.5E1,1.2E1,5E0,8E0,1E1,6E1,4.5E1,5E0,7E1,7.6E1,2.3E1,2.1E1,8E0,5E0,5E0,2E1,4E1,1.9E1,2.6E1,6E1,1E1,2.2E1,5.4E1,1E1,1.3E1,1.6E1,5E0,1E1,1E1,2.1E1,1.9E1,9E0,1E1,8E0,1.8E1,2.2E1,3.8E1,5E0,5E0,1.6E1,6E0,2.7E1,2.7E1,5E0,5E0,7E0,1.4E1,6E0,1.3E1,5E0,5E0,1E1,8E0,1.4E1,8E0,6E0,3.2E1,6E0,1E1,1.8E1,9E0,5E0,2.2E1],"tree_param":{"num_deleted":"0","num_feature":"25","num_nodes":"79","size_leaf_vector":"1"}},{"base_weights":[-3.3488086E-1,-3.2468774E2,8.993884E1,-4.34798E2,-1.871885E2,3.8273392E0,1.7885713E2,-4.6971994E2,-2.3572276E0,-1.1895338E2,-5.279458E0,1.3156209E2,-6.9562195E1,7.1898694E0,1.5190901E2,-1.1888384E1,-8.125875E0,-1.7383807E2,-4.3266617E1,2.449035E2,9.337448E1,-1.2365991E2,-1.4098542E1,1.0064185E2,2.1537163E2,-1.7951994E0,-4.3030877E0,-2.430778E-2,-1.5618014E0,2.7931676E0,6.127351E0,4.4144302E1,1.428313E2,-6.865316E1,-1.8763539E2,-5.385133E1,6.1767754E1,1.5401308E2,1.3668892E1,2.257038E2,1.729405E0,4.8298883E0,8.304789E1,1.3687614E0,1.6644513E2,-3.1045544E0,-3.9315117E1,-2.707544E0,-4.484979E0,-2.6958394E0,-7.819544E1,2.177361E0,5.119786E-2,9.953721E1,2.1671475E2,-1.2976971E0,5.0429302E1,2.360068E2,2.0785713E0,8.6566556E-1,-4.9202782E-1,2.596199E0,6.2175703E-1,4.401454E0,2.441065E0,3.0717278E-1,-1.3901005E0,7.9838777E-1,-7.7704686E-1,-2.073841E0,-8.189061E-1,2.5144265E0,-2.6088127E-1,4.8635654E0,2.8660345E0,1.599713E0,-4.019126E-1,5.530429E0,3.7209578E0],"categories":[],"categories_nodes":[],"categories_segments":[],"categories_sizes":[],"default_left":[0,0,0,0,0,0,0,0,0,0,0,0,0,0,0,0,0,0,0,0,0,0,0,0,0,0,0,0,0,0,0,0,0,0,0,0,0,0,0,0,0,0,0,0,0,0,0,0,0,0,0,0,0,0,0,0,0,0,0,0,0,0,0,0,0,0,0,0,0,0,0,0,0,0,0,0,0,0,0],"id":19,"left_children":[1,3,5,7,9,11,13,15,-1,17,-1,19,21,-1,23,-1,-1,25,27,29,31,33,35,37,39,-1,-1,-1,-1,-1,-1,41,43,45,47,49,51,53,55,57,-1,59,61,-1,63,-1,65,-1,-1,67,69,-1,-1,71,73,-1,75,77,-1,-1,-1,-1,-1,-1,-1,-1,-1,-1,-1,-1,-1,-1,-1,-1,-1,-1,-1,-1,-1],"loss_changes":[1.1565759E7,1.220595E6,2.3652752E6,4.64778E5,1.78137E5,1.490312E6,6.852455E5,9.0577E4,0E0,8.799994E4,0E0,2.2813606E5,3.0128894E5,0E0,4.1426825E5,0E0,0E0,2.5816625E4,1.6005219E4,4.7731688E4,1.0324066E5,1.6656588E5,1.5713622E5,3.5065888E5,5.903E4,0E0,0E0,0E0,0E0,0E0,0E0,3.629742E4,2.7232938E4,6.753569E4,1.36130625E4,4.2122492E4,4.9906906E4,1.3893638E5,8.99007E4,4.31895E4,0E0,1.5779219E4,2.5105492E4,0E0,1.119525E4,0E0,3.9036625E4,0E0,0E0,2.0040668E4,1.758414E4,0E0,0E0,8.1242875E4,5.911625E3,0E0,4.5387008E4,4.768675E4,0E0,0E0,0E0,0E0,0E0,0E0,0E0,0E0,0E0,0E0,0E0,0E0,0E0,0E0,0E0,0E0,0E0,0E0,0E0,0E0,0E0],"parents":[2147483647,0,0,1,1,2,2,3,3,4,4,5,5,6,6,7,7,9,9,11,11,12,12,14,14,17,17,18,18,19,19,20,20,21,21,22,22,23,23,24,24,31,31,32,32,33,33,34,34,35,35,36,36,37,37,38,38,39,39,41,41,42,42,44,44,46,46,49,49,50,50,53,53,54,54,56,56,57,57],"right_children":[2,4,6,8,10,12,14,16,-1,18,-1,20,22,-1,24,-1,-1,26,28,30,32,34,36,38,40,-1,-1,-1,-1,-1,-1,42,44,46,48,50,52,54,56,58,-1,60,62,-1,64,-1,66,-1,-1,68,70,-1,-1,72,74,-1,76,78,-1,-1,-1,-1,-1,-1,-1,-1,-1,-1,-1,-1,-1,-1,-1,-1,-1,-1,-1,-1,-1],"split_conditions":[3.217231E-1,2.1230982E-1,4.8338053E-1,7E-1,5.442233E-2,4.5227715E-1,4.228022E-1,1.08249016E-1,-2.3572276E0,5.23021E-1,-5.279458E0,3.28174E-1,4.2466348E-1,7.1898694E0,5.3926706E-1,-1.1888384E1,-8.125875E0,4.3213978E-1,5.446692E-1,1.6666667E-1,3.6908948E-1,5.615596E-1,6.35705E-1,6.2274796E-1,8.630062E-1,-1.7951994E0,-4.3030877E0,-2.430778E-2,-1.5618014E0,2.7931676E0,6.127351E0,6.33663E-1,6.316647E-1,4.7355506E-1,6.253556E-1,5.687329E-1,4.627775E-1,7.404295E-1,5.201331E-1,5.327442E-1,1.729405E0,3.3490938E-1,4.5734757E-1,1.3687614E0,5.2178633E-1,-3.1045544E0,5.0953895E-1,-2.707544E0,-4.484979E0,3.199366E-1,3.8344443E-1,2.177361E0,5.119786E-2,2.0175077E-1,1.5889008E-1,-1.2976971E0,6.20974E-1,5.6650823E-1,2.0785713E0,8.6566556E-1,-4.9202782E-1,2.596199E0,6.2175703E-1,4.401454E0,2.441065E0,3.0717278E-1,-1.3901005E0,7.9838777E-1,-7.7704686E-1,-2.073841E0,-8.189061E-1,2.5144265E0,-2.6088127E-1,4.8635654E0,2.8660345E0,1.599713E0,-4.019126E-1,5.530429E0,3.7209578E0],"split_indices":[1,1,1,22,7,21,21,10,0,23,0,21,1,0,0,0,0,21,20,18,5,21,16,21,21,0,0,0,0,0,0,23,16,21,21,21,1,16,16,7,0,14,14,0,8,0,21,0,0,10,20,0,0,7,7,0,2,12,0,0,0,0,0,0,0,0,0,0,0,0,0,0,0,0,0,0,0,0,0],"split_type":[0,0,0,0,0,0,0,0,0,0,0,0,0,0,0,0,0,0,0,0,0,0,0,0,0,0,0,0,0,0,0,0,0,0,0,0,0,0,0,0,0,0,0,0,0,0,0,0,0,0,0,0,0,0,0,0,0,0,0,0,0,0,0,0,0,0,0,0,0,0,0,0,0,0,0,0,0,0,0],"sum_hessian":[3.93E2,8.5E1,3.08E2,4.6E1,3.9E1,1.57E2,1.51E2,4.1E1,5E0,2.2E1,1.7E1,5.7E1,1E2,1.8E1,1.33E2,1.1E1,3E1,1.2E1,1E1,1.3E1,4.4E1,5E1,5E1,7.5E1,5.8E1,5E0,7E0,5E0,5E0,6E0,7E0,2.3E1,2.1E1,2.8E1,2.2E1,3.3E1,1.7E1,4.6E1,2.9E1,5.3E1,5E0,1.2E1,1.1E1,6E0,1.5E1,6E0,2.2E1,1.1E1,1.1E1,1.1E1,2.2E1,9E0,8E0,2.6E1,2E1,9E0,2E1,4.8E1,5E0,5E0,7E0,5E0,6E0,5E0,1E1,8E0,1.4E1,5E0,6E0,1.2E1,1E1,2.1E1,5E0,1.3E1,7E0,1.4E1,6E0,2.4E1,2.4E1],"tree_param":{"num_deleted":"0","num_feature":"25","num_nodes":"79","size_leaf_vector":"1"}},{"base_weights":[-7.4682474E0,-3.0671866E2,9.870966E1,-4.500888E2,-1.8277753E2,-4.4195623E0,1.7308492E2,-5.027576E2,-2.8626044E2,-8.2790504E1,-2.2936377E2,-7.310687E1,1.1931358E2,3.122293E2,1.3780367E2,-1.1567395E1,-7.984179E0,-3.6721072E0,-6.8057714E0,-1.179673E2,3.7866446E-1,-2.5197385E2,-2.771742E0,-2.8822908E1,-1.156053E2,1.3596776E2,1.893397E-1,4.292388E0,7.5597754E0,3.2052876E1,1.7174055E2,-3.218323E0,-9.1761166E-1,-5.430828E0,-2.97749E0,-4.5454685E1,1.1687851E0,-1.3942448E2,-3.7959827E1,4.1506867E0,1.1080108E2,5.3894222E1,-1.6495864E0,2.3368597E2,1.2673273E2,-7.81243E1,-6.2619042E0,-1.6623714E2,-8.310971E1,-1.2239431E0,-1.6758373E-1,6.70721E1,3.0593436E0,7.091952E1,-5.2020454E-1,2.0239333E2,6.1262126E0,5.8430447E1,2.2168094E2,-5.1592064E-1,-2.1298223E0,3.7859535E-1,-1.1123652E0,-3.8489861E0,-2.4154003E0,-8.921089E-1,-2.0845253E0,6.849198E-1,2.1811993E0,4.4627014E-1,1.7017825E0,2.5298014E0,4.291444E0,-8.493765E-1,1.9197243E0,5.213782E0,2.0262802E0],"categories":[],"categories_nodes":[],"categories_segments":[],"categories_sizes":[],"default_left":[0,0,0,0,0,0,0,0,0,0,0,0,0,0,0,0,0,0,0,0,0,0,0,0,0,0,0,0,0,0,0,0,0,0,0,0,0,0,0,0,0,0,0,0,0,0,0,0,0,0,0,0,0,0,0,0,0,0,0,0,0,0,0,0,0,0,0,0,0,0,0,0,0,0,0,0,0],"id":20,"left_children":[1,3,5,7,9,11,13,15,17,19,21,23,25,27,29,-1,-1,-1,-1,31,-1,33,-1,35,37,39,-1,-1,-1,41,43,-1,-1,-1,-1,45,-1,47,49,-1,51,53,-1,55,57,59,61,63,65,-1,-1,67,-1,69,-1,71,-1,73,75,-1,-1,-1,-1,-1,-1,-1,-1,-1,-1,-1,-1,-1,-1,-1,-1,-1,-1],"loss_changes":[1.273981E7,1.783464E6,2.2711798E6,2.70175E5,2.5114462E5,1.07108E6,8.01309E5,4.3046E4,1.51165E4,7.380969E4,4.508675E4,1.490954E5,8.102144E4,1.3705525E5,4.933255E5,0E0,0E0,0E0,0E0,3.903703E4,0E0,2.0054625E4,0E0,6.215937E4,7.051725E4,4.721575E4,0E0,0E0,0E0,9.199609E4,2.6309125E5,0E0,0E0,0E0,0E0,4.4316805E4,0E0,3.29675E4,7.0413887E3,0E0,4.687847E4,4.2661047E4,0E0,3.567625E4,3.9558544E5,2.544307E4,2.2193785E4,5.624375E2,5.092992E3,0E0,0E0,1.9681875E4,0E0,1.5308836E4,0E0,3.33025E3,0E0,1.4807706E5,9.5629875E4,0E0,0E0,0E0,0E0,0E0,0E0,0E0,0E0,0E0,0E0,0E0,0E0,0E0,0E0,0E0,0E0,0E0,0E0],"parents":[2147483647,0,0,1,1,2,2,3,3,4,4,5,5,6,6,7,7,8,8,9,9,10,10,11,11,12,12,13,13,14,14,19,19,21,21,23,23,24,24,25,25,29,29,30,30,35,35,37,37,38,38,40,40,41,41,43,43,44,44,45,45,46,46,47,47,48,48,51,51,53,53,55,55,57,57,58,58],"right_children":[2,4,6,8,10,12,14,16,18,20,22,24,26,28,30,-1,-1,-1,-1,32,-1,34,-1,36,38,40,-1,-1,-1,42,44,-1,-1,-1,-1,46,-1,48,50,-1,52,54,-1,56,58,60,62,64,66,-1,-1,68,-1,70,-1,72,-1,74,76,-1,-1,-1,-1,-1,-1,-1,-1,-1,-1,-1,-1,-1,-1,-1,-1,-1,-1],"split_conditions":[3.5044447E-1,2.0447342E-1,4.1331366E-1,4.260783E-1,4.3213978E-1,6.576427E-1,4.507849E-1,3.933338E-1,1.01856604E-1,5.23021E-1,9.5585935E-2,5.501207E-1,9.060899E-1,2.6619145E-1,4.548135E-1,-1.1567395E1,-7.984179E0,-3.6721072E0,-6.8057714E0,3.977202E-1,3.7866446E-1,6.165413E-1,-2.771742E0,4.383261E-1,3.9579302E-1,3.28174E-1,1.893397E-1,4.292388E0,7.5597754E0,4.2499313E-1,5.9522194E-1,-3.218323E0,-9.1761166E-1,-5.430828E0,-2.97749E0,3.410342E-1,1.1687851E0,3.116289E-1,4.143203E-3,4.1506867E0,4.3338948E-1,5.9522194E-1,-1.6495864E0,4.763649E-1,5.782931E-1,4.4531927E-1,5.1446337E-1,2.7549547E-1,5.7646006E-1,-1.2239431E0,-1.6758373E-1,5.437881E-1,3.0593436E0,4.8987854E-1,-5.2020454E-1,9.704685E-2,6.1262126E0,5.201331E-1,5.633314E-1,-5.1592064E-1,-2.1298223E0,3.7859535E-1,-1.1123652E0,-3.8489861E0,-2.4154003E0,-8.921089E-1,-2.0845253E0,6.849198E-1,2.1811993E0,4.4627014E-1,1.7017825E0,2.5298014E0,4.291444E0,-8.493765E-1,1.9197243E0,5.213782E0,2.0262802E0],"split_indices":[1,1,0,16,21,16,21,20,5,23,6,21,20,17,0,0,0,0,0,21,0,3,0,15,5,21,0,0,0,24,21,0,0,0,0,0,0,15,24,0,1,21,0,24,0,21,21,10,21,0,0,10,0,3,0,6,0,16,3,0,0,0,0,0,0,0,0,0,0,0,0,0,0,0,0,0,0],"split_type":[0,0,0,0,0,0,0,0,0,0,0,0,0,0,0,0,0,0,0,0,0,0,0,0,0,0,0,0,0,0,0,0,0,0,0,0,0,0,0,0,0,0,0,0,0,0,0,0,0,0,0,0,0,0,0,0,0,0,0,0,0,0,0,0,0,0,0,0,0,0,0,0,0,0,0,0,0],"sum_hessian":[3.99E2,1.04E2,2.95E2,4.7E1,5.7E1,1.24E2,1.71E2,3.4E1,1.3E1,1.9E1,3.8E1,8E1,4.4E1,3.3E1,1.38E2,1.7E1,1.7E1,6E0,7E0,1.4E1,5E0,2.9E1,9E0,4E1,4E1,3.8E1,6E0,1.5E1,1.8E1,3.4E1,1.04E2,8E0,6E0,2.3E1,6E0,3.4E1,6E0,3E1,1E1,8E0,3E1,2.9E1,5E0,4.2E1,6.2E1,1.8E1,1.6E1,1.9E1,1.1E1,5E0,5E0,1.6E1,1.4E1,2.4E1,5E0,3.2E1,1E1,3.7E1,2.5E1,7E0,1.1E1,1.1E1,5E0,1E1,9E0,5E0,6E0,1E1,6E0,6E0,1.8E1,6E0,2.6E1,1E1,2.7E1,1.8E1,7E0],"tree_param":{"num_deleted":"0","num_feature":"25","num_nodes":"77","size_leaf_vector":"1"}},{"base_weights":[-3.8461554E0,-3.5619128E2,8.397407E1,-4.9252432E2,-2.1781863E2,7.7499666E0,1.964624E2,-1.1370664E1,-8.158863E0,-2.6778598E2,-8.959002E1,-1.2225879E2,5.1335773E1,1.711822E2,8.5312805E0,-6.4638677E0,-2.0965761E2,-2.3418443E0,-7.594417E-1,-2.0497688E2,-7.8445206E1,-1.99738E1,1.1446492E2,1.1573725E2,2.431617E2,-2.520075E0,-4.6800947E0,-4.6364884E0,-2.431538E0,-4.623889E1,-3.8289757E0,-8.340058E1,5.8416245E1,8.907287E1,2.0411182E2,6.245436E1,1.6718031E2,7.351042E0,2.211705E2,3.2662916E-1,-7.344912E1,-6.1684105E1,-2.7605658E0,2.7161806E1,1.12764145E2,4.4172558E1,1.4397427E2,2.5408392E0,5.70077E0,1.0220623E1,9.285063E1,9.886927E1,1.9994228E2,2.985077E0,2.3500095E2,-1.8941091E0,-4.6932086E-1,-2.0237446E0,-6.3832474E-1,9.900405E-1,-1.6228536E-1,1.3123313E0,2.8220205E0,-3.2584482E-1,1.8068153E0,1.721892E0,3.4590173E0,-5.847594E-1,7.080368E-1,2.3056443E0,1.0878903E0,9.13522E-1,2.5278597E0,3.229333E0,5.512323E0,3.4837346E0,5.23593E0],"categories":[],"categories_nodes":[],"categories_segments":[],"categories_sizes":[],"default_left":[0,0,0,0,0,0,0,0,0,0,0,0,0,0,0,0,0,0,0,0,0,0,0,0,0,0,0,0,0,0,0,0,0,0,0,0,0,0,0,0,0,0,0,0,0,0,0,0,0,0,0,0,0,0,0,0,0,0,0,0,0,0,0,0,0,0,0,0,0,0,0,0,0,0,0,0,0],"id":21,"left_children":[1,3,5,7,9,11,13,-1,-1,15,17,19,21,23,-1,-1,25,-1,-1,27,29,31,33,35,37,-1,-1,-1,-1,39,-1,41,43,45,47,49,51,-1,53,-1,55,57,-1,59,61,63,65,-1,-1,67,69,71,73,-1,75,-1,-1,-1,-1,-1,-1,-1,-1,-1,-1,-1,-1,-1,-1,-1,-1,-1,-1,-1,-1,-1,-1],"loss_changes":[1.2252435E7,1.382965E6,2.716517E6,1.87E4,2.3867038E5,1.0829111E6,6.714975E5,0E0,0E0,2.5588375E4,1.3993141E4,1.5785262E5,6.460406E5,4.387565E5,0E0,0E0,5.1029375E3,0E0,0E0,7.6055625E3,1.11225E5,3.4297234E5,1.5479025E5,1.7592631E5,5.5424E4,0E0,0E0,0E0,0E0,4.7174184E4,0E0,3.6546094E4,4.9580125E4,1.4399194E5,6.3539062E4,5.461058E4,5.6294062E4,0E0,9.6455E3,0E0,1.7952508E4,3.0858969E4,0E0,1.6955393E4,5.416922E3,9.918357E4,3.0367125E4,0E0,0E0,1.494631E4,1.2690219E4,1.3242625E4,1.9508625E4,0E0,1.301875E4,0E0,0E0,0E0,0E0,0E0,0E0,0E0,0E0,0E0,0E0,0E0,0E0,0E0,0E0,0E0,0E0,0E0,0E0,0E0,0E0,0E0,0E0],"parents":[2147483647,0,0,1,1,2,2,3,3,4,4,5,5,6,6,9,9,10,10,11,11,12,12,13,13,16,16,19,19,20,20,21,21,22,22,23,23,24,24,29,29,31,31,32,32,33,33,34,34,35,35,36,36,38,38,40,40,41,41,43,43,44,44,45,45,46,46,49,49,50,50,51,51,52,52,54,54],"right_children":[2,4,6,8,10,12,14,-1,-1,16,18,20,22,24,-1,-1,26,-1,-1,28,30,32,34,36,38,-1,-1,-1,-1,40,-1,42,44,46,48,50,52,-1,54,-1,56,58,-1,60,62,64,66,-1,-1,68,70,72,74,-1,76,-1,-1,-1,-1,-1,-1,-1,-1,-1,-1,-1,-1,-1,-1,-1,-1,-1,-1,-1,-1,-1,-1],"split_conditions":[2.5096908E-1,1.7544714E-1,4.2855155E-1,9.222359E-2,3.576722E-1,4.2866838E-1,6.5186596E-1,-1.1370664E1,-8.158863E0,1.9587027E-1,3.5266015E-1,2.8431204E-1,4.312852E-1,4.6256942E-1,8.5312805E0,-6.4638677E0,1.6466741E-1,-2.3418443E0,-7.594417E-1,3.6619982E-1,9.4676554E-1,3.576722E-1,5.883917E-1,5.1217735E-1,1.7911994E-1,-2.520075E0,-4.6800947E0,-4.6364884E0,-2.431538E0,2.7419573E-1,-3.8289757E0,2.715926E-1,4.3427992E-1,4.158408E-1,1E0,5.209719E-1,3.744221E-1,7.351042E0,3.768339E-1,3.2662916E-1,3.3994707E-1,1.8740286E-1,-2.7605658E0,4.198075E-1,6.3280076E-1,6.0777795E-1,3.612131E-1,2.5408392E0,5.70077E0,5.3325623E-1,9.923823E-2,4.7737113E-1,5.6634766E-1,2.985077E0,3.5718066E-1,-1.8941091E0,-4.6932086E-1,-2.0237446E0,-6.3832474E-1,9.900405E-1,-1.6228536E-1,1.3123313E0,2.8220205E0,-3.2584482E-1,1.8068153E0,1.721892E0,3.4590173E0,-5.847594E-1,7.080368E-1,2.3056443E0,1.0878903E0,9.13522E-1,2.5278597E0,3.229333E0,5.512323E0,3.4837346E0,5.23593E0],"split_indices":[0,9,9,0,9,8,9,0,0,0,23,9,0,0,0,0,14,0,0,0,23,9,0,9,15,0,0,0,0,8,0,17,14,14,19,8,0,0,10,0,0,17,0,23,2,8,9,0,0,3,6,12,9,0,14,0,0,0,0,0,0,0,0,0,0,0,0,0,0,0,0,0,0,0,0,0,0],"split_type":[0,0,0,0,0,0,0,0,0,0,0,0,0,0,0,0,0,0,0,0,0,0,0,0,0,0,0,0,0,0,0,0,0,0,0,0,0,0,0,0,0,0,0,0,0,0,0,0,0,0,0,0,0,0,0,0,0,0,0,0,0,0,0,0,0,0,0,0,0,0,0,0,0,0,0,0,0],"sum_hessian":[3.94E2,7.8E1,3.16E2,3.8E1,4E1,1.89E2,1.27E2,1.7E1,2.1E1,2.8E1,1.2E1,4.7E1,1.42E2,1.16E2,1.1E1,1.2E1,1.6E1,7E0,5E0,1.5E1,3.2E1,6.7E1,7.5E1,6.7E1,4.9E1,5E0,1.1E1,1E1,5E0,2.6E1,6E0,3.7E1,3E1,6E1,1.5E1,3.4E1,3.3E1,5E0,4.4E1,8E0,1.8E1,2.8E1,9E0,2E1,1E1,3.4E1,2.6E1,9E0,6E0,1.3E1,2.1E1,1.2E1,2.1E1,9E0,3.5E1,1.2E1,6E0,1.1E1,1.7E1,1.2E1,8E0,5E0,5E0,1.5E1,1.9E1,1E1,1.6E1,5E0,8E0,1.2E1,9E0,5E0,7E0,1.6E1,5E0,1.3E1,2.2E1],"tree_param":{"num_deleted":"0","num_feature":"25","num_nodes":"77","size_leaf_vector":"1"}},{"base_weights":[3.6296098E0,-3.4164932E2,9.165261E1,-4.2612552E2,-2.3360071E2,-1.0121232E1,1.762177E2,-9.696107E0,-3.004642E2,-5.1800933E0,-1.2679356E0,-8.6340836E1,9.339723E1,1.4796165E2,2.8475513E2,-3.3797808E0,-6.897078E0,-9.838789E1,3.9235917E-1,-1.2533304E1,1.2071213E2,8.50729E1,1.7809573E2,4.0100974E2,1.3616522E2,-1.3276973E2,-6.2273457E1,-2.0601711E0,1.5943627E0,1.37E2,4.834249E-1,1.8011821E2,4.5049812E1,1.1252499E2,2.0057378E2,4.7487793E0,9.260004E0,2.3397502E2,-1.3166051E0,-2.0564292E-2,-1.5398198E2,-1.5106612E-1,-7.261758E1,1.1081535E0,1.5566347E2,1.7176777E0,4.9721413E0,-4.776558E1,8.748544E1,4.1847496E1,3.711933E0,1.7125783E2,5.0016828E0,2.5140712E0,6.0646796E0,-3.6051638E0,-1.3942282E0,-8.673911E-1,-1.7306101E0,3.4131622E0,1.2445389E0,9.403963E-2,-1.8457774E0,3.2093737E0,1.1658367E0,1.6045779E0,6.0406737E-2,2.319294E0,4.4255056E0],"categories":[],"categories_nodes":[],"categories_segments":[],"categories_sizes":[],"default_left":[0,0,0,0,0,0,0,0,0,0,0,0,0,0,0,0,0,0,0,0,0,0,0,0,0,0,0,0,0,0,0,0,0,0,0,0,0,0,0,0,0,0,0,0,0,0,0,0,0,0,0,0,0,0,0,0,0,0,0,0,0,0,0,0,0,0,0,0,0],"id":22,"left_children":[1,3,5,7,9,11,13,-1,15,-1,-1,17,19,21,23,-1,-1,25,-1,27,29,31,33,35,37,39,41,-1,-1,43,-1,45,47,49,51,-1,-1,53,-1,-1,55,-1,57,-1,59,-1,-1,61,63,65,-1,67,-1,-1,-1,-1,-1,-1,-1,-1,-1,-1,-1,-1,-1,-1,-1,-1,-1],"loss_changes":[1.1519649E7,6.0321E5,2.6009672E6,1.63954E5,1.3920625E5,1.0969021E6,4.638515E5,0E0,3.5050375E4,0E0,0E0,1.04057375E5,1.7223912E5,2.3687025E5,5.153935E5,0E0,0E0,8.111344E4,0E0,1.1671813E5,7.057731E4,1.6304347E5,1.0857625E5,7.25125E4,3.315337E5,1.0042931E5,2.038664E4,0E0,0E0,5.226575E4,0E0,6.251725E4,1.3415919E5,1.213235E5,5.1473E4,0E0,0E0,4.4325938E4,0E0,0E0,5.6052625E4,0E0,8.848922E3,0E0,3.419075E4,0E0,0E0,2.6139016E4,3.9628938E4,2.0612729E4,0E0,9.59935E4,0E0,0E0,0E0,0E0,0E0,0E0,0E0,0E0,0E0,0E0,0E0,0E0,0E0,0E0,0E0,0E0,0E0],"parents":[2147483647,0,0,1,1,2,2,3,3,4,4,5,5,6,