{"learner":{"attributes":{"scikit_learn":"{\"_estimator_type\": \"regressor\"}"},"feature_names":[],"feature_types":[],"gradient_booster":{"model":{"gbtree_model_param":{"num_parallel_tree":"1","num_trees":"1000"},"iteration_indptr":[0,1,2,3,4,5,6,7,8,9,10,11,12,13,14,15,16,17,18,19,20,21,22,23,24,25,26,27,28,29,30,31,32,33,34,35,36,37,38,39,40,41,42,43,44,45,46,47,48,49,50,51,52,53,54,55,56,57,58,59,60,61,62,63,64,65,66,67,68,69,70,71,72,73,74,75,76,77,78,79,80,81,82,83,84,85,86,87,88,89,90,91,92,93,94,95,96,97,98,99,100,101,102,103,104,105,106,107,108,109,110,111,112,113,114,115,116,117,118,119,120,121,122,123,124,125,126,127,128,129,130,131,132,133,134,135,136,137,138,139,140,141,142,143,144,145,146,147,148,149,150,151,152,153,154,155,156,157,158,159,160,161,162,163,164,165,166,167,168,169,170,171,172,173,174,175,176,177,178,179,180,181,182,183,184,185,186,187,188,189,190,191,192,193,194,195,196,197,198,199,200,201,202,203,204,205,206,207,208,209,210,211,212,213,214,215,216,217,218,219,220,221,222,223,224,225,226,227,228,229,230,231,232,233,234,235,236,237,238,239,240,241,242,243,244,245,246,247,248,249,250,251,252,253,254,255,256,257,258,259,260,261,262,263,264,265,266,267,268,269,270,271,272,273,274,275,276,277,278,279,280,281,282,283,284,285,286,287,288,289,290,291,292,293,294,295,296,297,298,299,300,301,302,303,304,305,306,307,308,309,310,311,312,313,314,315,316,317,318,319,320,321,322,323,324,325,326,327,328,329,330,331,332,333,334,335,336,337,338,339,340,341,342,343,344,345,346,347,348,349,350,351,352,353,354,355,356,357,358,359,360,361,362,363,364,365,366,367,368,369,370,371,372,373,374,375,376,377,378,379,380,381,382,383,384,385,386,387,388,389,390,391,392,393,394,395,396,397,398,399,400,401,402,403,404,405,406,407,408,409,410,411,412,413,414,415,416,417,418,419,420,421,422,423,424,425,426,427,428,429,430,431,432,433,434,435,436,437,438,439,440,441,442,443,444,445,446,447,448,449,450,451,452,453,454,455,456,457,458,459,460,461,462,463,464,465,466,467,468,469,470,471,472,473,474,475,476,477,478,479,480,481,482,483,484,485,486,487,488,489,490,491,492,493,494,495,496,497,498,499,500,501,502,503,504,505,506,507,508,509,510,511,512,513,514,515,516,517,518,519,520,521,522,523,524,525,526,527,528,529,530,531,532,533,534,535,536,537,538,539,540,541,542,543,544,545,546,547,548,549,550,551,552,553,554,555,556,557,558,559,560,561,562,563,564,565,566,567,568,569,570,571,572,573,574,575,576,577,578,579,580,581,582,583,584,585,586,587,588,589,590,591,592,593,594,595,596,597,598,599,600,601,602,603,604,605,606,607,608,609,610,611,612,613,614,615,616,617,618,619,620,621,622,623,624,625,626,627,628,629,630,631,632,633,634,635,636,637,638,639,640,641,642,643,644,645,646,647,648,649,650,651,652,653,654,655,656,657,658,659,660,661,662,663,664,665,666,667,668,669,670,671,672,673,674,675,676,677,678,679,680,681,682,683,684,685,686,687,688,689,690,691,692,693,694,695,696,697,698,699,700,701,702,703,704,705,706,707,708,709,710,711,712,713,714,715,716,717,718,719,720,721,722,723,724,725,726,727,728,729,730,731,732,733,734,735,736,737,738,739,740,741,742,743,744,745,746,747,748,749,750,751,752,753,754,755,756,757,758,759,760,761,762,763,764,765,766,767,768,769,770,771,772,773,774,775,776,777,778,779,780,781,782,783,784,785,786,787,788,789,790,791,792,793,794,795,796,797,798,799,800,801,802,803,804,805,806,807,808,809,810,811,812,813,814,815,816,817,818,819,820,821,822,823,824,825,826,827,828,829,830,831,832,833,834,835,836,837,838,839,840,841,842,843,844,845,846,847,848,849,850,851,852,853,854,855,856,857,858,859,860,861,862,863,864,865,866,867,868,869,870,871,872,873,874,875,876,877,878,879,880,881,882,883,884,885,886,887,888,889,890,891,892,893,894,895,896,897,898,899,900,901,902,903,904,905,906,907,908,909,910,911,912,913,914,915,916,917,918,919,920,921,922,923,924,925,926,927,928,929,930,931,932,933,934,935,936,937,938,939,940,941,942,943,944,945,946,947,948,949,950,951,952,953,954,955,956,957,958,959,960,961,962,963,964,965,966,967,968,969,970,971,972,973,974,975,976,977,978,979,980,981,982,983,984,985,986,987,988,989,990,991,992,993,994,995,996,997,998,999,1000],"tree_info":[0,0,0,0,0,0,0,0,0,0,0,0,0,0,0,0,0,0,0,0,0,0,0,0,0,0,0,0,0,0,0,0,0,0,0,0,0,0,0,0,0,0,0,0,0,0,0,0,0,0,0,0,0,0,0,0,0,0,0,0,0,0,0,0,0,0,0,0,0,0,0,0,0,0,0,0,0,0,0,0,0,0,0,0,0,0,0,0,0,0,0,0,0,0,0,0,0,0,0,0,0,0,0,0,0,0,0,0,0,0,0,0,0,0,0,0,0,0,0,0,0,0,0,0,0,0,0,0,0,0,0,0,0,0,0,0,0,0,0,0,0,0,0,0,0,0,0,0,0,0,0,0,0,0,0,0,0,0,0,0,0,0,0,0,0,0,0,0,0,0,0,0,0,0,0,0,0,0,0,0,0,0,0,0,0,0,0,0,0,0,0,0,0,0,0,0,0,0,0,0,0,0,0,0,0,0,0,0,0,0,0,0,0,0,0,0,0,0,0,0,0,0,0,0,0,0,0,0,0,0,0,0,0,0,0,0,0,0,0,0,0,0,0,0,0,0,0,0,0,0,0,0,0,0,0,0,0,0,0,0,0,0,0,0,0,0,0,0,0,0,0,0,0,0,0,0,0,0,0,0,0,0,0,0,0,0,0,0,0,0,0,0,0,0,0,0,0,0,0,0,0,0,0,0,0,0,0,0,0,0,0,0,0,0,0,0,0,0,0,0,0,0,0,0,0,0,0,0,0,0,0,0,0,0,0,0,0,0,0,0,0,0,0,0,0,0,0,0,0,0,0,0,0,0,0,0,0,0,0,0,0,0,0,0,0,0,0,0,0,0,0,0,0,0,0,0,0,0,0,0,0,0,0,0,0,0,0,0,0,0,0,0,0,0,0,0,0,0,0,0,0,0,0,0,0,0,0,0,0,0,0,0,0,0,0,0,0,0,0,0,0,0,0,0,0,0,0,0,0,0,0,0,0,0,0,0,0,0,0,0,0,0,0,0,0,0,0,0,0,0,0,0,0,0,0,0,0,0,0,0,0,0,0,0,0,0,0,0,0,0,0,0,0,0,0,0,0,0,0,0,0,0,0,0,0,0,0,0,0,0,0,0,0,0,0,0,0,0,0,0,0,0,0,0,0,0,0,0,0,0,0,0,0,0,0,0,0,0,0,0,0,0,0,0,0,0,0,0,0,0,0,0,0,0,0,0,0,0,0,0,0,0,0,0,0,0,0,0,0,0,0,0,0,0,0,0,0,0,0,0,0,0,0,0,0,0,0,0,0,0,0,0,0,0,0,0,0,0,0,0,0,0,0,0,0,0,0,0,0,0,0,0,0,0,0,0,0,0,0,0,0,0,0,0,0,0,0,0,0,0,0,0,0,0,0,0,0,0,0,0,0,0,0,0,0,0,0,0,0,0,0,0,0,0,0,0,0,0,0,0,0,0,0,0,0,0,0,0,0,0,0,0,0,0,0,0,0,0,0,0,0,0,0,0,0,0,0,0,0,0,0,0,0,0,0,0,0,0,0,0,0,0,0,0,0,0,0,0,0,0,0,0,0,0,0,0,0,0,0,0,0,0,0,0,0,0,0,0,0,0,0,0,0,0,0,0,0,0,0,0,0,0,0,0,0,0,0,0,0,0,0,0,0,0,0,0,0,0,0,0,0,0,0,0,0,0,0,0,0,0,0,0,0,0,0,0,0,0,0,0,0,0,0,0,0,0,0,0,0,0,0,0,0,0,0,0,0,0,0,0,0,0,0,0,0,0,0,0,0,0,0,0,0,0,0,0,0,0,0,0,0,0,0,0,0,0,0,0,0,0,0,0,0,0,0,0,0,0,0,0,0,0,0,0,0,0,0,0,0,0,0,0,0,0,0,0,0,0,0,0,0,0,0,0,0,0,0,0,0,0,0,0,0,0,0,0,0,0,0,0,0,0,0,0,0,0,0,0,0,0,0,0,0,0,0,0,0,0,0,0,0,0,0,0,0,0,0,0,0,0,0,0,0,0,0,0,0,0,0,0,0,0,0,0,0,0,0,0,0,0,0,0,0,0,0,0,0,0,0,0,0,0,0,0,0,0,0,0,0,0,0,0,0,0,0,0,0,0,0,0,0,0,0,0,0,0,0,0,0,0,0,0,0,0,0,0,0,0,0,0,0,0,0,0,0,0,0,0,0,0,0,0,0,0,0,0,0,0,0,0,0,0,0,0,0,0,0,0,0,0,0,0,0,0,0,0,0,0,0,0],"trees":[{"base_weights":[-8.313751E0,-3.7543423E2,3.718394E2,-7.577944E2,-2.025181E2,2.4707509E2,7.3742236E2,-2.0875813E1,-5.936049E2,-3.156225E2,-9.11484E1,1.2539661E2,3.5255695E2,6.1203424E2,2.1782028E1,-6.492805E2,-1.0282812E1,-3.8767896E2,-1.7388956E2,-3.7342712E1,-1.8013115E2,-1.465298E1,1.5475264E2,3.0752625E2,4.820704E2,5.1843877E0,1.2664559E1,-1.3608479E1,-8.403533E0,-3.463176E2,-1.0567222E1,-2.124188E2,1.7523419E0,-1.3939073E2,1.0222921E1,-1.4006766E2,-6.173455E0,9.55719E1,-1.4203592E2,8.505882E1,1.841792E2,3.2398276E2,7.3249227E-1,8.190047E0,1.22243E1,-7.8971767E0,-5.2391686E0,-2.4407558E2,-1.2058195E2,-1.7207751E2,2.9143098E-1,-1.9122917E1,1.5069624E2,-1.8580539E2,-9.221287E1,8.4805286E-1,2.407757E0,-4.6903224E0,-2.0906037E-1,1.9822917E2,3.3903713E1,6.1196876E0,1.683063E2,3.3629742E2,2.1287215E2,-5.4134073E0,-3.422118E0,-3.8451378E0,-6.3333416E-1,-3.708747E0,-2.0215025E0,-1.1575704E0,9.5425504E-1,1.6794468E0,3.8457484E0,-2.18332E0,-4.058521E0,-1.0287082E0,-2.6402466E0,2.4549263E0,4.8131437E0,-7.2958654E-1,1.3443449E0,3.5447316E0,1.7019615E0,5.6955194E0,7.291345E0,2.300902E0,5.088532E0],"categories":[],"categories_nodes":[],"categories_segments":[],"categories_sizes":[],"default_left":[0,0,0,0,0,0,0,0,0,0,0,0,0,0,0,0,0,0,0,0,0,0,0,0,0,0,0,0,0,0,0,0,0,0,0,0,0,0,0,0,0,0,0,0,0,0,0,0,0,0,0,0,0,0,0,0,0,0,0,0,0,0,0,0,0,0,0,0,0,0,0,0,0,0,0,0,0,0,0,0,0,0,0,0,0,0,0,0,0],"id":0,"left_children":[1,3,5,7,9,11,13,-1,15,17,19,21,23,25,-1,27,-1,29,31,33,35,37,39,41,43,-1,-1,-1,-1,45,-1,47,-1,49,51,53,-1,55,57,59,61,63,-1,-1,-1,-1,-1,65,67,69,-1,71,73,75,77,-1,-1,-1,-1,79,81,-1,83,85,87,-1,-1,-1,-1,-1,-1,-1,-1,-1,-1,-1,-1,-1,-1,-1,-1,-1,-1,-1,-1,-1,-1,-1,-1],"loss_changes":[1.12207896E8,2.688798E7,1.7834324E7,5.34384E6,3.535972E6,3.754864E6,3.742904E6,0E0,3.3274E4,1.362318E6,6.826916E5,5.7375225E5,7.73142E5,4.04052E5,0E0,3.507E4,0E0,3.52262E5,5.12331E5,4.431499E5,2.3481075E5,3.645985E5,2.201545E5,5.2307E5,1.15103E5,0E0,0E0,0E0,0E0,1.99521E5,0E0,9.5544625E4,0E0,1.4846662E5,2.6260028E5,7.695569E4,0E0,1.3351203E4,1.4354988E5,2.0166877E5,1.031255E5,8.2974E4,0E0,0E0,0E0,0E0,0E0,1.38015E4,7.673839E4,3.9941875E3,0E0,1.4004617E5,1.43519375E4,5.370625E3,3.0518734E4,0E0,0E0,0E0,0E0,5.6523438E3,6.3417516E4,0E0,3.91355E4,4.1765E4,2.7604625E4,0E0,0E0,0E0,0E0,0E0,0E0,0E0,0E0,0E0,0E0,0E0,0E0,0E0,0E0,0E0,0E0,0E0,0E0,0E0,0E0,0E0,0E0,0E0,0E0],"parents":[2147483647,0,0,1,1,2,2,3,3,4,4,5,5,6,6,8,8,9,9,10,10,11,11,12,12,13,13,15,15,17,17,18,18,19,19,20,20,21,21,22,22,23,23,24,24,29,29,31,31,33,33,34,34,35,35,37,37,38,38,39,39,40,40,41,41,47,47,48,48,49,49,51,51,52,52,53,53,54,54,59,59,60,60,62,62,63,63,64,64],"right_children":[2,4,6,8,10,12,14,-1,16,18,20,22,24,26,-1,28,-1,30,32,34,36,38,40,42,44,-1,-1,-1,-1,46,-1,48,-1,50,52,54,-1,56,58,60,62,64,-1,-1,-1,-1,-1,66,68,70,-1,72,74,76,78,-1,-1,-1,-1,80,82,-1,84,86,88,-1,-1,-1,-1,-1,-1,-1,-1,-1,-1,-1,-1,-1,-1,-1,-1,-1,-1,-1,-1,-1,-1,-1,-1],"split_conditions":[4.489238E-1,2.7839813E-1,6.234802E-1,8.618139E-2,3.7611318E-1,5.2453643E-1,6.447051E-1,-2.0875813E1,2.3998408E-1,2.9070672E-1,3.357465E-1,3.0875024E-1,5.0391775E-1,3.1171533E-1,2.1782028E1,2.6094517E-1,-1.0282812E1,2.0319505E-1,4.0147144E-1,3.983727E-1,2.4370977E-1,2.1251932E-1,4.6967626E-1,4.2605823E-1,3.10214E-1,5.1843877E0,1.2664559E1,-1.3608479E1,-8.403533E0,3.3726484E-1,-1.0567222E1,2.4091272E-1,1.7523419E0,2.566346E-1,2.3404562E-1,4.226697E-1,-6.173455E0,4.8089954E-1,2.8853974E-1,2.6370534E-1,2.7206227E-1,5.130586E-1,7.3249227E-1,8.190047E0,1.22243E1,-7.8971767E0,-5.2391686E0,3.105797E-1,3.3575666E-1,4.9307165E-1,2.9143098E-1,4.3068403E-1,3.2630676E-1,4.484268E-2,3.8795814E-1,8.4805286E-1,2.407757E0,-4.6903224E0,-2.0906037E-1,2.0319505E-1,2.8995994E-1,6.1196876E0,4.3737772E-1,5.4630995E-1,4.063729E-1,-5.4134073E0,-3.422118E0,-3.8451378E0,-6.3333416E-1,-3.708747E0,-2.0215025E0,-1.1575704E0,9.5425504E-1,1.6794468E0,3.8457484E0,-2.18332E0,-4.058521E0,-1.0287082E0,-2.6402466E0,2.4549263E0,4.8131437E0,-7.2958654E-1,1.3443449E0,3.5447316E0,1.7019615E0,5.6955194E0,7.291345E0,2.300902E0,5.088532E0],"split_indices":[25,25,25,0,25,25,0,0,25,0,10,5,5,5,0,26,0,26,26,25,26,26,25,26,26,0,0,0,0,25,0,26,0,26,26,25,0,25,0,10,10,10,0,0,0,0,0,9,25,8,0,25,26,7,10,0,0,0,0,26,15,0,10,25,9,0,0,0,0,0,0,0,0,0,0,0,0,0,0,0,0,0,0,0,0,0,0,0,0],"split_type":[0,0,0,0,0,0,0,0,0,0,0,0,0,0,0,0,0,0,0,0,0,0,0,0,0,0,0,0,0,0,0,0,0,0,0,0,0,0,0,0,0,0,0,0,0,0,0,0,0,0,0,0,0,0,0,0,0,0,0,0,0,0,0,0,0,0,0,0,0,0,0,0,0,0,0,0,0,0,0,0,0,0,0,0,0,0,0,0,0],"sum_hessian":[8.02E2,4.08E2,3.94E2,1.26E2,2.82E2,2.95E2,9.9E1,4.4E1,8.2E1,1.39E2,1.43E2,1.38E2,1.57E2,7.5E1,2.4E1,4.4E1,3.8E1,9.1E1,4.8E1,9E1,5.3E1,2.4E1,1.14E2,1.19E2,3.8E1,5E0,7E1,3.7E1,7E0,7.3E1,1.8E1,4.2E1,6E0,2.8E1,6.2E1,4.2E1,1.1E1,1.3E1,1.1E1,3.5E1,7.9E1,1.12E2,7E0,2.7E1,1.1E1,4.4E1,2.9E1,3E1,1.2E1,2.3E1,5E0,5.2E1,1E1,2E1,2.2E1,5E0,8E0,6E0,5E0,1E1,2.5E1,7E0,7.2E1,9.9E1,1.3E1,2E1,1E1,6E0,6E0,1.8E1,5E0,3.3E1,1.9E1,5E0,5E0,5E0,1.5E1,1.2E1,1E1,5E0,5E0,8E0,1.7E1,6.4E1,8E0,3.9E1,6E1,5E0,8E0],"tree_param":{"num_deleted":"0","num_feature":"31","num_nodes":"89","size_leaf_vector":"1"}},{"base_weights":[-4.4837E-1,-4.4972614E2,3.4376523E2,-8.345976E2,-2.8177405E2,1.8514441E2,7.192459E2,-2.0919533E1,-1.3940896E1,-4.0293457E2,-1.698423E2,7.236265E1,3.118214E2,5.8609186E2,1.0753289E3,-9.3146515E0,-6.7521167E0,-2.2011346E2,-1.1527774E2,4.923308E0,1.2742036E2,2.55416E2,7.4037824E0,1.0249487E1,1.3329287E1,1.7633453E1,2.5003696E1,-4.885377E0,-3.6757305E0,-2.6485133E0,-1.3009073E0,-2.8585537E1,2.8128954E1,9.78945E1,3.1614852E0,4.10686E0,5.495868E0,-7.1089643E-1,-3.134472E-1,1.4007092E1,9.490877E-1,1.4896685E0,2.1159372E0,5.976276E-2,3.374378E-1],"categories":[],"categories_nodes":[],"categories_segments":[],"categories_sizes":[],"default_left":[0,0,0,0,0,0,0,0,0,0,0,0,0,0,0,0,0,0,0,0,0,0,0,0,0,0,0,0,0,0,0,0,0,0,0,0,0,0,0,0,0,0,0,0,0],"id":1,"left_children":[1,3,5,7,9,11,13,-1,-1,15,17,19,21,23,25,-1,-1,27,29,31,33,35,-1,-1,-1,-1,-1,-1,-1,-1,-1,37,39,41,-1,-1,-1,-1,-1,43,-1,-1,-1,-1,-1],"loss_changes":[1.2263544E8,2.2000864E7,2.6608764E7,2.294624E6,3.199878E6,4.506331E6,5.67564E6,0E0,0E0,3.14474E5,3.229565E5,6.2686575E5,3.9593E5,2.441E5,8.27E4,0E0,0E0,1.210075E4,4.56335E4,6.0678805E4,6.86725E4,2.0178E4,0E0,0E0,0E0,0E0,0E0,0E0,0E0,0E0,0E0,2.3135352E3,1.18830625E4,1.3519688E3,0E0,0E0,0E0,0E0,0E0,8.3147705E2,0E0,0E0,0E0,0E0,0E0],"parents":[2147483647,0,0,1,1,2,2,3,3,4,4,5,5,6,6,9,9,10,10,11,11,12,12,13,13,14,14,17,17,18,18,19,19,20,20,21,21,31,31,32,32,33,33,39,39],"right_children":[2,4,6,8,10,12,14,-1,-1,16,18,20,22,24,26,-1,-1,28,30,32,34,36,-1,-1,-1,-1,-1,-1,-1,-1,-1,38,40,42,-1,-1,-1,-1,-1,44,-1,-1,-1,-1,-1],"split_conditions":[4.3480068E-1,2.562357E-1,6.135712E-1,1.4307916E-1,3.531809E-1,5.1987195E-1,7.447838E-1,-2.0919533E1,-1.3940896E1,3.1134757E-1,3.930552E-1,4.7484145E-1,5.6256914E-1,6.602092E-1,8.3656937E-1,-9.3146515E0,-6.7521167E0,3.7695122E-1,4.1884595E-1,4.5028636E-1,4.9703032E-1,5.364498E-1,7.4037824E0,1.0249487E1,1.3329287E1,1.7633453E1,2.5003696E1,-4.885377E0,-3.6757305E0,-2.6485133E0,-1.3009073E0,4.4341025E-1,4.6120372E-1,4.835124E-1,3.1614852E0,4.10686E0,5.495868E0,-7.1089643E-1,-3.134472E-1,4.5579666E-1,9.490877E-1,1.4896685E0,2.1159372E0,5.976276E-2,3.374378E-1],"split_indices":[28,28,28,28,28,28,28,0,0,28,28,28,28,28,28,0,0,28,28,28,28,28,0,0,0,0,0,0,0,0,0,28,28,28,0,0,0,0,0,28,0,0,0,0,0],"split_type":[0,0,0,0,0,0,0,0,0,0,0,0,0,0,0,0,0,0,0,0,0,0,0,0,0,0,0,0,0,0,0,0,0,0,0,0,0,0,0,0,0,0,0,0,0],"sum_hessian":[7.91E2,3.43E2,4.48E2,1.03E2,2.4E2,3.16E2,1.32E2,3.8E1,6.5E1,1.14E2,1.26E2,1.68E2,1.48E2,9.8E1,3.4E1,5.5E1,5.9E1,6.4E1,6.2E1,7.6E1,9.2E1,7.8E1,7E1,5.5E1,4.3E1,1.9E1,1.5E1,3.5E1,2.9E1,4.5E1,1.7E1,3.1E1,4.5E1,4.9E1,4.3E1,2.5E1,5.3E1,1.9E1,1.2E1,2.7E1,1.8E1,1.5E1,3.4E1,6E0,2.1E1],"tree_param":{"num_deleted":"0","num_feature":"31","num_nodes":"45","size_leaf_vector":"1"}},{"base_weights":[2.392261E0,-4.5329214E2,3.328836E2,-8.585825E2,-3.0005756E2,1.7163425E2,7.020453E2,-2.0545813E1,-1.379118E1,-4.1837396E2,-1.8874916E2,5.9381954E1,2.9383423E2,5.7958716E2,1.0206555E3,-9.581205E0,-6.988524E0,-2.4124548E2,-1.269808E2,1.27301E0,1.16782776E2,2.3886772E2,7.0317826E0,9.877974E0,1.30496E1,1.6714582E1,2.3388412E1,-5.164504E0,-3.8350115E0,-2.8973176E0,-1.6792463E0,-3.2541275E1,2.609222E1,1.723923E0,2.7171152E0,4.008002E0,5.3037252E0,-8.9054894E-1,-1.8075804E1,1.3058328E1,8.5688305E-1,-4.108092E-1,-1.9412833E-1,6.298639E-2,3.2126993E-1],"categories":[],"categories_nodes":[],"categories_segments":[],"categories_sizes":[],"default_left":[0,0,0,0,0,0,0,0,0,0,0,0,0,0,0,0,0,0,0,0,0,0,0,0,0,0,0,0,0,0,0,0,0,0,0,0,0,0,0,0,0,0,0,0,0],"id":2,"left_children":[1,3,5,7,9,11,13,-1,-1,15,17,19,21,23,25,-1,-1,27,29,31,33,35,-1,-1,-1,-1,-1,-1,-1,-1,-1,37,39,-1,-1,-1,-1,-1,41,43,-1,-1,-1,-1,-1],"loss_changes":[1.1822107E8,2.0236752E7,2.696424E7,1.857856E6,3.094846E6,4.344594E6,4.792552E6,0E0,0E0,3.17888E5,3.77899E5,5.5686825E5,3.98495E5,3.14724E5,4.0376E4,0E0,0E0,6.7475E3,3.3977188E4,7.1344914E4,3.727125E4,2.88155E4,0E0,0E0,0E0,0E0,0E0,0E0,0E0,0E0,0E0,5.430754E3,1.0133738E4,0E0,0E0,0E0,0E0,0E0,1.6889893E2,8.110591E2,0E0,0E0,0E0,0E0,0E0],"parents":[2147483647,0,0,1,1,2,2,3,3,4,4,5,5,6,6,9,9,10,10,11,11,12,12,13,13,14,14,17,17,18,18,19,19,20,20,21,21,31,31,32,32,38,38,39,39],"right_children":[2,4,6,8,10,12,14,-1,-1,16,18,20,22,24,26,-1,-1,28,30,32,34,36,-1,-1,-1,-1,-1,-1,-1,-1,-1,38,40,-1,-1,-1,-1,-1,42,44,-1,-1,-1,-1,-1],"split_conditions":[4.313832E-1,2.4421096E-1,6.086934E-1,1.4307916E-1,3.4280682E-1,5.167318E-1,7.380457E-1,-2.0545813E1,-1.379118E1,3.0409783E-1,3.8655478E-1,4.7454116E-1,5.591351E-1,6.5505826E-1,8.002751E-1,-9.581205E0,-6.988524E0,3.727398E-1,4.1168863E-1,4.5028636E-1,4.9203897E-1,5.364498E-1,7.0317826E0,9.877974E0,1.30496E1,1.6714582E1,2.3388412E1,-5.164504E0,-3.8350115E0,-2.8973176E0,-1.6792463E0,4.415687E-1,4.6120372E-1,1.723923E0,2.7171152E0,4.008002E0,5.3037252E0,-8.9054894E-1,4.4648948E-1,4.5579666E-1,8.5688305E-1,-4.108092E-1,-1.9412833E-1,6.298639E-2,3.2126993E-1],"split_indices":[28,28,28,28,28,28,28,0,0,28,28,28,28,28,28,0,0,28,28,28,28,28,0,0,0,0,0,0,0,0,0,28,28,0,0,0,0,0,28,28,0,0,0,0,0],"split_type":[0,0,0,0,0,0,0,0,0,0,0,0,0,0,0,0,0,0,0,0,0,0,0,0,0,0,0,0,0,0,0,0,0,0,0,0,0,0,0,0,0,0,0,0,0],"sum_hessian":[7.83E2,3.29E2,4.54E2,8.9E1,2.4E2,3.17E2,1.37E2,4.2E1,4.7E1,1.15E2,1.25E2,1.66E2,1.51E2,1.01E2,3.6E1,5.8E1,5.7E1,6.6E1,5.9E1,8.3E1,8.3E1,8E1,7.1E1,5E1,5.1E1,1.9E1,1.7E1,4.6E1,2E1,4E1,1.9E1,3.5E1,4.8E1,3.4E1,4.9E1,3.6E1,4.4E1,1.8E1,1.7E1,2.8E1,2E1,1.2E1,5E0,7E0,2.1E1],"tree_param":{"num_deleted":"0","num_feature":"31","num_nodes":"45","size_leaf_vector":"1"}},{"base_weights":[7.929118E0,-4.6214297E2,3.2948926E2,-8.4321454E2,-3.0708755E2,1.8034401E2,6.882796E2,-2.0098835E1,-1.3483569E1,-4.112778E2,-1.8382921E2,6.427732E1,2.9810013E2,5.7145374E2,2.044854E1,-9.433519E0,-6.9079113E0,-4.678611E0,-1.3573956E2,-1.5516095E0,1.2021428E2,2.433295E2,6.9994555E0,9.928857E0,1.2971555E1,-3.1691833E0,-1.0755241E2,-3.21778E1,2.6921558E1,8.7122765E1,2.9151175E0,3.964439E0,5.240165E0,-2.3244019E0,-1.4051944E0,-9.523985E-1,-2.0538141E1,1.383265E1,8.71988E-1,1.1978841E0,1.892155E0,-4.7655326E-1,-1.826213E-1,8.274582E-2,3.3342654E-1],"categories":[],"categories_nodes":[],"categories_segments":[],"categories_sizes":[],"default_left":[0,0,0,0,0,0,0,0,0,0,0,0,0,0,0,0,0,0,0,0,0,0,0,0,0,0,0,0,0,0,0,0,0,0,0,0,0,0,0,0,0,0,0,0,0],"id":3,"left_children":[1,3,5,7,9,11,13,-1,-1,15,17,19,21,23,-1,-1,-1,-1,25,27,29,31,-1,-1,-1,-1,33,35,37,39,-1,-1,-1,-1,-1,-1,41,43,-1,-1,-1,-1,-1,-1,-1],"loss_changes":[1.2168203E8,1.9062464E7,2.5454456E7,1.892064E6,2.929436E6,4.614107E6,4.880756E6,0E0,0E0,3.3838E5,2.3082925E5,6.335489E5,3.92086E5,2.91128E5,0E0,0E0,0E0,0E0,2.0074E4,7.062877E4,6.5882625E4,1.96355E4,0E0,0E0,0E0,0E0,1.18975E3,6.0250625E3,8.559535E3,3.0817188E3,0E0,0E0,0E0,0E0,0E0,0E0,6.797051E2,6.169956E2,0E0,0E0,0E0,0E0,0E0,0E0,0E0],"parents":[2147483647,0,0,1,1,2,2,3,3,4,4,5,5,6,6,9,9,10,10,11,11,12,12,13,13,18,18,19,19,20,20,21,21,26,26,27,27,28,28,29,29,36,36,37,37],"right_children":[2,4,6,8,10,12,14,-1,-1,16,18,20,22,24,-1,-1,-1,-1,26,28,30,32,-1,-1,-1,-1,34,36,38,40,-1,-1,-1,-1,-1,-1,42,44,-1,-1,-1,-1,-1,-1,-1],"split_conditions":[4.2763647E-1,2.4421096E-1,6.135712E-1,1.4307916E-1,3.4280682E-1,5.182121E-1,7.447838E-1,-2.0098835E1,-1.3483569E1,3.0409783E-1,3.8539433E-1,4.7454116E-1,5.608566E-1,6.6419643E-1,2.044854E1,-9.433519E0,-6.9079113E0,-4.678611E0,4.0250516E-1,4.5028636E-1,4.9521524E-1,5.364498E-1,6.9994555E0,9.928857E0,1.2971555E1,-3.1691833E0,4.147104E-1,4.3983686E-1,4.6120372E-1,4.8068425E-1,2.9151175E0,3.964439E0,5.240165E0,-2.3244019E0,-1.4051944E0,-9.523985E-1,4.4648948E-1,4.5579666E-1,8.71988E-1,1.1978841E0,1.892155E0,-4.7655326E-1,-1.826213E-1,8.274582E-2,3.3342654E-1],"split_indices":[28,28,28,28,28,28,28,0,0,28,28,28,28,28,0,0,0,0,28,28,28,28,0,0,0,0,28,28,28,28,0,0,0,0,0,0,28,28,0,0,0,0,0,0,0],"split_type":[0,0,0,0,0,0,0,0,0,0,0,0,0,0,0,0,0,0,0,0,0,0,0,0,0,0,0,0,0,0,0,0,0,0,0,0,0,0,0,0,0,0,0,0,0],"sum_hessian":[8.03E2,3.26E2,4.77E2,9.3E1,2.33E2,3.38E2,1.39E2,4.5E1,4.8E1,1.25E2,1.08E2,1.71E2,1.67E2,1.05E2,3.4E1,6.2E1,6.3E1,5.1E1,5.7E1,7.9E1,9.2E1,8.4E1,8.3E1,5.7E1,4.8E1,2.9E1,2.8E1,3.8E1,4.1E1,4.2E1,5E1,2.8E1,5.6E1,2.1E1,7E0,1.5E1,2.3E1,2.4E1,1.7E1,1.1E1,3.1E1,1.7E1,6E0,6E0,1.8E1],"tree_param":{"num_deleted":"0","num_feature":"31","num_nodes":"45","size_leaf_vector":"1"}},{"base_weights":[-1.3926901E1,-4.2947946E2,2.3510226E2,-9.0018756E2,-3.2102103E2,6.565973E1,4.8602072E2,-1.1862259E1,-1.892735E1,-4.2489716E2,-1.6665556E2,-4.9454933E1,1.695022E2,3.8701065E2,8.250536E2,-1.0848338E1,-3.677314E2,-3.627172E2,-1.19764885E2,-1.07432625E2,8.475192E1,9.730628E1,2.9354324E2,3.2711096E2,5.0744113E2,9.179384E0,8.696033E2,-2.3349812E2,-4.017256E2,-2.4594529E0,-8.790987E0,-1.9597572E2,-5.7218807E1,1.6452802E2,-1.4250146E2,5.0805006E0,2.3843797E2,1.5576962E2,4.4512703E1,2.4596881E2,9.945872E0,2.7963403E2,4.5446442E2,5.410394E2,7.5998583E0,1.28850355E1,1.9149923E1,-5.707845E0,-1.4819663E0,-8.947281E0,-6.4633164E0,-1.2046207E2,-2.4776889E2,-1.16698296E2,-1.6272974E1,2.023516E0,3.9062326E0,-1.1864844E2,-8.16732E0,-5.156257E1,7.350562E1,5.9464173E0,2.0108697E0,1.1732335E2,6.1864624E0,-2.2869995E1,1.0143062E2,7.253689E0,2.1787848E2,2.0517197E0,2.9738672E2,1.0593046E1,5.323018E0,1.1336959E1,6.178051E0,-2.116762E-2,-3.7097206E0,-3.9165945E0,-6.4731445E0,-1.1225808E0,-2.9468923E0,1.7073318E0,-1.86092E0,-2.7918966E0,6.6081536E-1,4.2223787E-1,-2.3703794E0,-3.5930654E-1,2.5266016E0,2.7419918E0,4.2136833E-1,-1.3245193E0,1.658934E0,2.6264508E0,-8.001497E-1,2.1198666E0,4.6715794E0,7.0324664E0,5.174921E0],"categories":[],"categories_nodes":[],"categories_segments":[],"categories_sizes":[],"default_left":[0,0,0,0,0,0,0,0,0,0,0,0,0,0,0,0,0,0,0,0,0,0,0,0,0,0,0,0,0,0,0,0,0,0,0,0,0,0,0,0,0,0,0,0,0,0,0,0,0,0,0,0,0,0,0,0,0,0,0,0,0,0,0,0,0,0,0,0,0,0,0,0,0,0,0,0,0,0,0,0,0,0,0,0,0,0,0,0,0,0,0,0,0,0,0,0,0,0,0],"id":4,"left_children":[1,3,5,7,9,11,13,-1,-1,15,17,19,21,23,25,-1,27,29,31,33,35,37,39,41,43,-1,45,47,49,-1,-1,51,53,55,57,59,61,63,65,67,-1,69,71,73,-1,-1,-1,-1,-1,-1,-1,75,77,79,81,-1,-1,83,-1,85,87,-1,-1,89,-1,91,93,-1,95,-1,97,-1,-1,-1,-1,-1,-1,-1,-1,-1,-1,-1,-1,-1,-1,-1,-1,-1,-1,-1,-1,-1,-1,-1,-1,-1,-1,-1,-1],"loss_changes":[8.3406184E7,1.5128688E7,2.1396228E7,2.3266E5,3.889746E6,3.6184395E6,6.494812E6,0E0,0E0,7.88008E5,8.8505075E5,1.1295719E6,1.395283E6,9.80914E5,3.34648E5,0E0,3.71575E5,2.95873E5,3.8439638E5,9.867149E5,5.3751725E5,3.078682E5,4.398195E5,5.31895E5,1.2701E4,0E0,1.55438E5,1.69071E5,1.42177E5,0E0,0E0,1.14826875E5,1.12553234E5,3.6120625E3,5.2224588E5,1.2006661E5,9.186081E4,2.4703738E5,2.132681E5,8.157125E4,0E0,2.271845E5,2.55402E5,5.2474E4,0E0,0E0,0E0,0E0,0E0,0E0,0E0,1.3177477E5,1.9339375E4,2.6977594E4,2.3423592E5,0E0,0E0,2.7151975E5,0E0,8.523425E4,6.992704E4,0E0,0E0,7.323819E4,0E0,1.24773984E5,1.3209875E5,0E0,4.898775E4,0E0,6.40425E4,0E0,0E0,0E0,0E0,0E0,0E0,0E0,0E0,0E0,0E0,0E0,0E0,0E0,0E0,0E0,0E0,0E0,0E0,0E0,0E0,0E0,0E0,0E0,0E0,0E0,0E0,0E0,0E0],"parents":[2147483647,0,0,1,1,2,2,3,3,4,4,5,5,6,6,9,9,10,10,11,11,12,12,13,13,14,14,16,16,17,17,18,18,19,19,20,20,21,21,22,22,23,23,24,24,26,26,27,27,28,28,31,31,32,32,33,33,34,34,35,35,36,36,37,37,38,38,39,39,41,41,42,42,43,43,51,51,52,52,53,53,54,54,57,57,59,59,60,60,63,63,65,65,66,66,68,68,70,70],"right_children":[2,4,6,8,10,12,14,-1,-1,16,18,20,22,24,26,-1,28,30,32,34,36,38,40,42,44,-1,46,48,50,-1,-1,52,54,56,58,60,62,64,66,68,-1,70,72,74,-1,-1,-1,-1,-1,-1,-1,76,78,80,82,-1,-1,84,-1,86,88,-1,-1,90,-1,92,94,-1,96,-1,98,-1,-1,-1,-1,-1,-1,-1,-1,-1,-1,-1,-1,-1,-1,-1,-1,-1,-1,-1,-1,-1,-1,-1,-1,-1,-1,-1,-1],"split_conditions":[3.3641803E-1,1.4758396E-1,8.127018E-1,3.9624017E-1,4.1225E-1,4.7744253E-1,6.1523885E-1,-1.1862259E1,-1.892735E1,2.4203089E-1,2.4754602E-1,4.3107218E-1,4.5373932E-1,6.8485266E-1,6.087339E-1,-1.0848338E1,4.5718446E-1,3.6570066E-1,4.6070698E-1,4.6282285E-1,5.0214255E-1,4.774524E-1,2.968759E-1,4.7574285E-1,5.457639E-1,9.179384E0,2.6396367E-1,3.4627342E-1,2.9971182E-1,-2.4594529E0,-8.790987E0,2.708091E-1,4.4202235E-1,4.0120268E-1,6.8747324E-1,1.7948195E-1,3.9234906E-1,3.810638E-1,4.076863E-1,4.9549642E-1,9.945872E0,5.361076E-1,6.186323E-1,5.9521794E-1,7.5998583E0,1.28850355E1,1.9149923E1,-5.707845E0,-1.4819663E0,-8.947281E0,-6.4633164E0,2.760512E-1,4.912597E-1,3.1914234E-1,2.1504019E-1,2.023516E0,3.9062326E0,3.2630676E-1,-8.16732E0,5.903503E-1,4.0293702E-1,5.9464173E0,2.0108697E0,2.3229624E-1,6.1864624E0,5.441774E-1,2.3792528E-1,7.253689E0,3.5496777E-1,2.0517197E0,4.528852E-1,1.0593046E1,5.323018E0,1.1336959E1,6.178051E0,-2.116762E-2,-3.7097206E0,-3.9165945E0,-6.4731445E0,-1.1225808E0,-2.9468923E0,1.7073318E0,-1.86092E0,-2.7918966E0,6.6081536E-1,4.2223787E-1,-2.3703794E0,-3.5930654E-1,2.5266016E0,2.7419918E0,4.2136833E-1,-1.3245193E0,1.658934E0,2.6264508E0,-8.001497E-1,2.1198666E0,4.6715794E0,7.0324664E0,5.174921E0],"split_indices":[1,1,24,21,16,16,1,0,0,1,1,1,1,16,16,0,21,21,16,21,24,21,26,5,13,0,26,17,1,0,0,15,24,21,21,26,16,17,1,21,0,16,21,21,0,0,0,0,0,0,0,13,21,15,26,0,0,26,0,21,16,0,0,26,0,16,26,0,8,0,21,0,0,0,0,0,0,0,0,0,0,0,0,0,0,0,0,0,0,0,0,0,0,0,0,0,0,0,0],"split_type":[0,0,0,0,0,0,0,0,0,0,0,0,0,0,0,0,0,0,0,0,0,0,0,0,0,0,0,0,0,0,0,0,0,0,0,0,0,0,0,0,0,0,0,0,0,0,0,0,0,0,0,0,0,0,0,0,0,0,0,0,0,0,0,0,0,0,0,0,0,0,0,0,0,0,0,0,0,0,0,0,0,0,0,0,0,0,0,0,0,0,0,0,0,0,0,0,0,0,0],"sum_hessian":[8.04E2,3.01E2,5.03E2,5.5E1,2.46E2,3.01E2,2.02E2,9E0,4.6E1,1.46E2,1E2,1.43E2,1.58E2,1.58E2,4.4E1,4.5E1,1.01E2,1.8E1,8.2E1,1E2,4.3E1,1.01E2,5.7E1,1.08E2,5E1,6E0,3.8E1,2.2E1,7.9E1,5E0,1.3E1,3.6E1,4.6E1,1.1E1,8.9E1,2.9E1,1.4E1,4.7E1,5.4E1,4.8E1,9E0,8.1E1,2.7E1,3.7E1,1.3E1,1.3E1,2.5E1,1.6E1,6E0,4.7E1,3.2E1,1.6E1,2E1,1.8E1,2.8E1,5E0,6E0,8.3E1,6E0,1.6E1,1.3E1,9E0,5E0,3.9E1,8E0,2.5E1,2.9E1,7E0,4.1E1,8E0,7.3E1,1.8E1,9E0,3.2E1,5E0,6E0,1E1,1.4E1,6E0,7E0,1.1E1,1.2E1,1.6E1,7.3E1,1E1,8E0,8E0,5E0,8E0,3.2E1,7E0,1.8E1,7E0,2.4E1,5E0,6E0,3.5E1,2.7E1,4.6E1],"tree_param":{"num_deleted":"0","num_feature":"31","num_nodes":"99","size_leaf_vector":"1"}},{"base_weights":[9.772725E0,-3.8591357E2,3.537072E2,-7.580548E2,-2.4053772E2,2.0666566E2,6.800238E2,-1.8571598E1,-1.2236817E1,-3.5691196E2,-1.26600876E2,9.216815E1,3.0244855E2,5.6706134E2,2.0517956E1,-8.250194E0,-5.7757225E0,-1.6754546E2,-5.186141E1,3.9491894E1,1.3659067E2,5.037802E0,7.210664E0,9.907754E0,1.2807159E1,-3.9744112E0,-2.639042E0,-6.903361E1,-3.123697E1,9.080561E0,5.9530716E1,2.1915574E0,3.149698E0,-1.6482711E0,-1.0935559E0,-7.2676265E-1,-4.286405E-1,-3.6337426E0,1.6779196E1,8.3566636E-1,1.4011145E0,-1.939322E-1,6.036165E-2,2.0244335E-1,3.7402216E-1],"categories":[],"categories_nodes":[],"categories_segments":[],"categories_sizes":[],"default_left":[0,0,0,0,0,0,0,0,0,0,0,0,0,0,0,0,0,0,0,0,0,0,0,0,0,0,0,0,0,0,0,0,0,0,0,0,0,0,0,0,0,0,0,0,0],"id":5,"left_children":[1,3,5,7,9,11,13,-1,-1,15,17,19,21,23,-1,-1,-1,25,27,29,31,-1,-1,-1,-1,-1,-1,33,35,37,39,-1,-1,-1,-1,-1,-1,41,43,-1,-1,-1,-1,-1,-1],"loss_changes":[1.1091389E8,2.0321592E7,2.0779568E7,2.07462E6,3.587818E6,3.284088E6,4.692648E6,0E0,0E0,3.92134E5,4.1971375E5,3.1984975E5,3.90739E5,2.2902E5,0E0,0E0,0E0,7.361175E4,1.5896094E4,3.906404E4,2.504725E4,0E0,0E0,0E0,0E0,0E0,0E0,6.662656E2,4.6583594E2,2.7051208E3,4.3465312E3,0E0,0E0,0E0,0E0,0E0,0E0,4.735536E2,2.532373E1,0E0,0E0,0E0,0E0,0E0,0E0],"parents":[2147483647,0,0,1,1,2,2,3,3,4,4,5,5,6,6,9,9,10,10,11,11,12,12,13,13,17,17,18,18,19,19,20,20,27,27,28,28,29,29,30,30,37,37,38,38],"right_children":[2,4,6,8,10,12,14,-1,-1,16,18,20,22,24,-1,-1,-1,26,28,30,32,-1,-1,-1,-1,-1,-1,34,36,38,40,-1,-1,-1,-1,-1,-1,42,44,-1,-1,-1,-1,-1,-1],"split_conditions":[4.4648948E-1,2.6369926E-1,6.185377E-1,1.6243114E-1,3.6024946E-1,5.25371E-1,7.595025E-1,-1.8571598E1,-1.2236817E1,3.1922412E-1,4.1168863E-1,4.8726004E-1,5.7169765E-1,6.7065567E-1,2.0517956E1,-8.250194E0,-5.7757225E0,3.8902977E-1,4.3480068E-1,4.653871E-1,5.0374407E-1,5.037802E0,7.210664E0,9.907754E0,1.2807159E1,-3.9744112E0,-2.639042E0,4.2726627E-1,4.415687E-1,4.5579666E-1,4.7454116E-1,2.1915574E0,3.149698E0,-1.6482711E0,-1.0935559E0,-7.2676265E-1,-4.286405E-1,4.5028636E-1,4.580562E-1,8.3566636E-1,1.4011145E0,-1.939322E-1,6.036165E-2,2.0244335E-1,3.7402216E-1],"split_indices":[28,28,28,28,28,28,28,0,0,28,28,28,28,28,0,0,0,28,28,28,28,0,0,0,0,0,0,28,28,28,28,0,0,0,0,0,0,28,28,0,0,0,0,0,0],"split_type":[0,0,0,0,0,0,0,0,0,0,0,0,0,0,0,0,0,0,0,0,0,0,0,0,0,0,0,0,0,0,0,0,0,0,0,0,0,0,0,0,0,0,0,0,0],"sum_hessian":[8.13E2,3.78E2,4.35E2,1.05E2,2.73E2,3.01E2,1.34E2,4.6E1,5.9E1,1.34E2,1.39E2,1.38E2,1.63E2,1.03E2,3.1E1,7.1E1,6.3E1,8.9E1,5E1,6.4E1,7.4E1,9E1,7.3E1,5.6E1,4.7E1,4.5E1,4.4E1,2.6E1,2.4E1,2.6E1,3.8E1,3.5E1,3.9E1,1.1E1,1.5E1,1.4E1,1E1,1E1,1.6E1,1.6E1,2.2E1,5E0,5E0,5E0,1.1E1],"tree_param":{"num_deleted":"0","num_feature":"31","num_nodes":"45","size_leaf_vector":"1"}},{"base_weights":[-1.3454306E1,-4.3224942E2,2.9314377E2,-8.0271423E2,-2.8503244E2,1.5479341E2,6.2753906E2,-1.9787863E1,-1.2979137E1,-4.0150494E2,-1.8974234E2,4.405689E1,2.6800687E2,5.248275E2,9.030681E2,-9.010002E0,-6.666297E0,-2.4050555E2,-1.3137265E2,-1.7197042E1,9.597462E1,2.1135452E2,6.2752686E0,8.927691E0,1.1569765E1,1.506768E1,2.1475477E1,-5.250502E0,-3.991182E0,-3.0423586E0,-1.9704576E0,-3.9908947E1,1.2697685E1,6.41351E1,2.3812594E0,3.4269273E0,4.7129116E0,-1.0078934E0,-2.1957634E1,1.551709E-3,1.7233818E1,9.256699E-1,1.4820704E0,-4.9247006E-1,-2.8472963E-1,2.2495691E-1,3.7862518E-1],"categories":[],"categories_nodes":[],"categories_segments":[],"categories_sizes":[],"default_left":[0,0,0,0,0,0,0,0,0,0,0,0,0,0,0,0,0,0,0,0,0,0,0,0,0,0,0,0,0,0,0,0,0,0,0,0,0,0,0,0,0,0,0,0,0,0,0],"id":6,"left_children":[1,3,5,7,9,11,13,-1,-1,15,17,19,21,23,25,-1,-1,27,29,31,33,35,-1,-1,-1,-1,-1,-1,-1,-1,-1,37,39,41,-1,-1,-1,-1,43,-1,45,-1,-1,-1,-1,-1,-1],"loss_changes":[1.0207773E8,1.8096092E7,2.1137824E7,2.084572E6,2.60964E6,4.0751795E6,3.318108E6,0E0,0E0,2.1059E5,3.683765E5,5.2956575E5,3.50979E5,1.626E5,8.517E4,0E0,0E0,1.15795E4,2.9283875E4,5.278986E4,5.85065E4,3.247025E4,0E0,0E0,0E0,0E0,0E0,0E0,0E0,0E0,0E0,7.168453E3,1.9433105E3,3.6762812E3,0E0,0E0,0E0,0E0,1.6066406E1,0E0,3.8067383E1,0E0,0E0,0E0,0E0,0E0,0E0],"parents":[2147483647,0,0,1,1,2,2,3,3,4,4,5,5,6,6,9,9,10,10,11,11,12,12,13,13,14,14,17,17,18,18,19,19,20,20,21,21,31,31,32,32,33,33,38,38,40,40],"right_children":[2,4,6,8,10,12,14,-1,-1,16,18,20,22,24,26,-1,-1,28,30,32,34,36,-1,-1,-1,-1,-1,-1,-1,-1,-1,38,40,42,-1,-1,-1,-1,44,-1,46,-1,-1,-1,-1,-1,-1],"split_conditions":[4.2726627E-1,2.3909383E-1,6.028479E-1,1.3160925E-1,3.3582518E-1,5.1224834E-1,7.230822E-1,-1.9787863E1,-1.2979137E1,2.9933962E-1,3.8089594E-1,4.653871E-1,5.542109E-1,6.4980775E-1,8.002751E-1,-9.010002E0,-6.666297E0,3.632634E-1,4.0250516E-1,4.4878396E-1,4.885456E-1,5.352293E-1,6.2752686E0,8.927691E0,1.1569765E1,1.506768E1,2.1475477E1,-5.250502E0,-3.991182E0,-3.0423586E0,-1.9704576E0,4.3780932E-1,4.5579666E-1,4.7484145E-1,2.3812594E0,3.4269273E0,4.7129116E0,-1.0078934E0,4.4341025E-1,1.551709E-3,4.580562E-1,9.256699E-1,1.4820704E0,-4.9247006E-1,-2.8472963E-1,2.2495691E-1,3.7862518E-1],"split_indices":[28,28,28,28,28,28,28,0,0,28,28,28,28,28,28,0,0,28,28,28,28,28,0,0,0,0,0,0,0,0,0,28,28,28,0,0,0,0,28,0,28,0,0,0,0,0,0],"split_type":[0,0,0,0,0,0,0,0,0,0,0,0,0,0,0,0,0,0,0,0,0,0,0,0,0,0,0,0,0,0,0,0,0,0,0,0,0,0,0,0,0,0,0,0,0,0,0],"sum_hessian":[7.93E2,3.35E2,4.58E2,9.4E1,2.41E2,3.25E2,1.33E2,4E1,5.4E1,1.07E2,1.34E2,1.65E2,1.6E2,9.9E1,3.4E1,5.9E1,4.8E1,7E1,6.4E1,7.6E1,8.9E1,7.4E1,8.6E1,4.4E1,5.5E1,2.1E1,1.3E1,4.2E1,2.8E1,3.7E1,2.7E1,4.3E1,3.3E1,3.9E1,5E1,3.1E1,4.3E1,2.6E1,1.7E1,9E0,2.4E1,1.6E1,2.3E1,1.1E1,6E0,7E0,1.7E1],"tree_param":{"num_deleted":"0","num_feature":"31","num_nodes":"47","size_leaf_vector":"1"}},{"base_weights":[-1.1300298E1,-4.232534E2,2.9170865E2,-7.658195E2,-2.8252634E2,1.5358922E2,6.317373E2,-1.9084822E1,-1.2759636E1,-3.9214352E2,-1.8338326E2,4.501389E1,2.7002573E2,5.225749E2,9.255775E2,-8.923748E0,-6.5864387E0,-4.6742263E0,-1.2945808E2,-1.4093864E1,1.0226791E2,2.1761807E2,6.473792E0,9.102823E0,1.1836792E1,1.5078066E1,2.1259941E1,-2.9769542E0,-2.0677452E0,-3.8235394E1,1.740426E1,6.514411E1,2.4068995E0,3.6222632E0,4.850008E0,-9.900976E-1,-2.2149897E1,1.0858001E1,6.4952344E-1,9.455442E-1,1.5083182E0,-5.4469895E-1,-3.1268877E-1,5.6916457E-2,2.89964E-1],"categories":[],"categories_nodes":[],"categories_segments":[],"categories_sizes":[],"default_left":[0,0,0,0,0,0,0,0,0,0,0,0,0,0,0,0,0,0,0,0,0,0,0,0,0,0,0,0,0,0,0,0,0,0,0,0,0,0,0,0,0,0,0,0,0],"id":7,"left_children":[1,3,5,7,9,11,13,-1,-1,15,17,19,21,23,25,-1,-1,-1,27,29,31,33,-1,-1,-1,-1,-1,-1,-1,35,37,39,-1,-1,-1,-1,41,43,-1,-1,-1,-1,-1,-1,-1],"loss_changes":[1.0073282E8,1.6270768E7,2.174142E7,1.775704E6,2.579772E6,4.1850005E6,3.814396E6,0E0,0E0,2.43422E5,3.225215E5,5.8690925E5,3.79489E5,1.97602E5,2.412E4,0E0,0E0,0E0,1.74435E4,6.6063055E4,5.11975E4,3.233725E4,0E0,0E0,0E0,0E0,0E0,0E0,0E0,7.778797E3,3.3922969E3,2.1115625E3,0E0,0E0,0E0,0E0,2.9880273E2,7.736521E2,0E0,0E0,0E0,0E0,0E0,0E0,0E0],"parents":[2147483647,0,0,1,1,2,2,3,3,4,4,5,5,6,6,9,9,10,10,11,11,12,12,13,13,14,14,18,18,19,19,20,20,21,21,29,29,30,30,31,31,36,36,37,37],"right_children":[2,4,6,8,10,12,14,-1,-1,16,18,20,22,24,26,-1,-1,-1,28,30,32,34,-1,-1,-1,-1,-1,-1,-1,36,38,40,-1,-1,-1,-1,42,44,-1,-1,-1,-1,-1,-1,-1],"split_conditions":[4.2726627E-1,2.4421096E-1,6.086934E-1,1.3160925E-1,3.395687E-1,5.167318E-1,7.380457E-1,-1.9084822E1,-1.2759636E1,2.9869765E-1,3.8089594E-1,4.6893954E-1,5.608566E-1,6.602092E-1,8.002751E-1,-8.923748E0,-6.5864387E0,-4.6742263E0,4.0250516E-1,4.4878396E-1,4.897461E-1,5.3957367E-1,6.473792E0,9.102823E0,1.1836792E1,1.5078066E1,2.1259941E1,-2.9769542E0,-2.0677452E0,4.3780932E-1,4.6120372E-1,4.7811246E-1,2.4068995E0,3.6222632E0,4.850008E0,-9.900976E-1,4.4341025E-1,4.5579666E-1,6.4952344E-1,9.455442E-1,1.5083182E0,-5.4469895E-1,-3.1268877E-1,5.6916457E-2,2.89964E-1],"split_indices":[28,28,28,28,28,28,28,0,0,28,28,28,28,28,28,0,0,0,28,28,28,28,0,0,0,0,0,0,0,28,28,28,0,0,0,0,28,28,0,0,0,0,0,0,0],"split_type":[0,0,0,0,0,0,0,0,0,0,0,0,0,0,0,0,0,0,0,0,0,0,0,0,0,0,0,0,0,0,0,0,0,0,0,0,0,0,0,0,0,0,0,0,0],"sum_hessian":[8.05E2,3.41E2,4.64E2,9.8E1,2.43E2,3.31E2,1.33E2,3.7E1,6.1E1,1.14E2,1.29E2,1.72E2,1.59E2,9.9E1,3.4E1,5.8E1,5.6E1,6.5E1,6.4E1,8.5E1,8.7E1,8.3E1,7.6E1,5.4E1,4.5E1,1.8E1,1.6E1,3.4E1,3E1,4.8E1,3.7E1,3E1,5.7E1,3.7E1,4.6E1,2.7E1,2.1E1,2.7E1,1E1,1.3E1,1.7E1,1E1,1.1E1,9E0,1.8E1],"tree_param":{"num_deleted":"0","num_feature":"31","num_nodes":"45","size_leaf_vector":"1"}},{"base_weights":[8.997956E0,-3.4705078E2,3.3499704E2,-6.892908E2,-2.0862685E2,1.888202E2,6.469601E2,-1.741503E1,-1.1061161E1,-3.1808868E2,-1.0467159E2,9.0600365E1,2.864013E2,5.2595496E2,1.7874634E1,-7.5241337E0,-5.257124E0,-1.460709E2,-4.290756E1,4.1681164E1,1.343967E2,4.682564E0,6.7075086E0,9.228301E0,1.1633464E1,-3.4380233E0,-2.3735945E0,-1.2805454E0,-2.7196682E1,1.8274109E1,6.523625E1,2.0855544E0,3.1115286E0,-7.13519E-1,-1.7200933E1,1.2266774E1,6.1605775E-1,9.221596E-1,1.4713895E0,-4.0106642E-1,-1.9679123E-1,6.059668E-2,2.976273E-1],"categories":[],"categories_nodes":[],"categories_segments":[],"categories_sizes":[],"default_left":[0,0,0,0,0,0,0,0,0,0,0,0,0,0,0,0,0,0,0,0,0,0,0,0,0,0,0,0,0,0,0,0,0,0,0,0,0,0,0,0,0,0,0],"id":8,"left_children":[1,3,5,7,9,11,13,-1,-1,15,17,19,21,23,-1,-1,-1,25,27,29,31,-1,-1,-1,-1,-1,-1,-1,33,35,37,-1,-1,-1,39,41,-1,-1,-1,-1,-1,-1,-1],"loss_changes":[9.227707E7,1.78583E7,1.8802496E7,2.21286E6,3.061788E6,2.695983E6,3.471396E6,0E0,0E0,3.24767E5,3.54249E5,3.0075538E5,2.84947E5,5.8746E4,0E0,0E0,0E0,3.9001375E4,1.7494477E4,3.684303E4,3.159425E4,0E0,0E0,0E0,0E0,0E0,0E0,0E0,2.3475332E3,2.3273643E3,2.0155E3,0E0,0E0,0E0,1.776499E2,5.8104224E2,0E0,0E0,0E0,0E0,0E0,0E0,0E0],"parents":[2147483647,0,0,1,1,2,2,3,3,4,4,5,5,6,6,9,9,10,10,11,11,12,12,13,13,17,17,18,18,19,19,20,20,28,28,29,29,30,30,34,34,35,35],"right_children":[2,4,6,8,10,12,14,-1,-1,16,18,20,22,24,-1,-1,-1,26,28,30,32,-1,-1,-1,-1,-1,-1,-1,34,36,38,-1,-1,-1,40,42,-1,-1,-1,-1,-1,-1,-1],"split_conditions":[4.5028636E-1,2.7234817E-1,6.232695E-1,1.7258699E-1,3.6759898E-1,5.282058E-1,7.380457E-1,-1.741503E1,-1.1061161E1,3.2543018E-1,4.147104E-1,4.897461E-1,5.667932E-1,6.6419643E-1,1.7874634E1,-7.5241337E0,-5.257124E0,3.930552E-1,4.3297845E-1,4.6893954E-1,5.053764E-1,4.682564E0,6.7075086E0,9.228301E0,1.1633464E1,-3.4380233E0,-2.3735945E0,-1.2805454E0,4.415687E-1,4.6120372E-1,4.7811246E-1,2.0855544E0,3.1115286E0,-7.13519E-1,4.4648948E-1,4.5579666E-1,6.1605775E-1,9.221596E-1,1.4713895E0,-4.0106642E-1,-1.9679123E-1,6.059668E-2,2.976273E-1],"split_indices":[28,28,28,28,28,28,28,0,0,28,28,28,28,28,0,0,0,28,28,28,28,0,0,0,0,0,0,0,28,28,28,0,0,0,28,28,0,0,0,0,0,0,0],"split_type":[0,0,0,0,0,0,0,0,0,0,0,0,0,0,0,0,0,0,0,0,0,0,0,0,0,0,0,0,0,0,0,0,0,0,0,0,0,0,0,0,0,0,0],"sum_hessian":[7.93E2,3.79E2,4.14E2,1.08E2,2.71E2,2.83E2,1.31E2,4.4E1,6.4E1,1.31E2,1.4E2,1.42E2,1.41E2,9E1,4.1E1,6.1E1,7E1,8.3E1,5.7E1,6.8E1,7.4E1,7.1E1,7E1,4.6E1,4.4E1,4E1,4.3E1,2.3E1,3.4E1,3.5E1,3.3E1,3.3E1,4.1E1,1.7E1,1.7E1,2.5E1,1E1,1.2E1,2.1E1,1.1E1,6E0,6E0,1.9E1],"tree_param":{"num_deleted":"0","num_feature":"31","num_nodes":"43","size_leaf_vector":"1"}},{"base_weights":[5.231885E0,-3.843878E2,3.0002124E2,-7.2916394E2,-2.468765E2,1.6087674E2,6.3612177E2,-1.7834446E1,-1.1988836E1,-3.4645618E2,-1.4282373E2,6.705007E1,2.8324582E2,5.1158368E2,8.9080615E2,-8.23488E0,-5.9179015E0,-1.9299448E2,-9.585715E1,9.987679E0,1.1865779E2,4.5219126E0,6.500805E0,8.993689E0,1.1651661E1,1.5044451E1,2.1007027E1,-4.238686E0,-3.1902504E0,-2.3028553E0,-1.207809E0,-2.0350908E1,3.4552082E1,1.8054869E0,2.8187315E0,-6.00688E-1,-8.062081E0,1.5670519E1,9.196945E-1,-2.407622E-1,5.084668E-2,1.9750725E-1,3.488326E-1],"categories":[],"categories_nodes":[],"categories_segments":[],"categories_sizes":[],"default_left":[0,0,0,0,0,0,0,0,0,0,0,0,0,0,0,0,0,0,0,0,0,0,0,0,0,0,0,0,0,0,0,0,0,0,0,0,0,0,0,0,0,0,0],"id":9,"left_children":[1,3,5,7,9,11,13,-1,-1,15,17,19,21,23,25,-1,-1,27,29,31,33,-1,-1,-1,-1,-1,-1,-1,-1,-1,-1,35,37,-1,-1,-1,39,41,-1,-1,-1,-1,-1],"loss_changes":[9.119591E7,1.6034316E7,2.103606E7,1.510796E6,2.499409E6,3.666528E6,3.730896E6,0E0,0E0,2.90724E5,2.6894575E5,5.377114E5,2.58465E5,1.37846E5,1.38356E5,0E0,0E0,2.937E3,3.748875E4,6.628653E4,4.7959375E4,0E0,0E0,0E0,0E0,0E0,0E0,0E0,0E0,0E0,0E0,4.514002E3,9.850668E3,0E0,0E0,0E0,8.326603E2,3.0303223E1,0E0,0E0,0E0,0E0,0E0],"parents":[2147483647,0,0,1,1,2,2,3,3,4,4,5,5,6,6,9,9,10,10,11,11,12,12,13,13,14,14,17,17,18,18,19,19,20,20,31,31,32,32,36,36,37,37],"right_children":[2,4,6,8,10,12,14,-1,-1,16,18,20,22,24,26,-1,-1,28,30,32,34,-1,-1,-1,-1,-1,-1,-1,-1,-1,-1,36,38,-1,-1,-1,40,42,-1,-1,-1,-1,-1],"split_conditions":[4.3480068E-1,2.515221E-1,6.172207E-1,1.4307916E-1,3.531809E-1,5.2314115E-1,7.380457E-1,-1.7834446E1,-1.1988836E1,3.0409783E-1,3.9134428E-1,4.8068425E-1,5.6643546E-1,6.7065567E-1,8.3656937E-1,-8.23488E0,-5.9179015E0,3.7556037E-1,4.147104E-1,4.5579666E-1,5.000769E-1,4.5219126E0,6.500805E0,8.993689E0,1.1651661E1,1.5044451E1,2.1007027E1,-4.238686E0,-3.1902504E0,-2.3028553E0,-1.207809E0,4.4341025E-1,4.653871E-1,1.8054869E0,2.8187315E0,-6.00688E-1,4.5028636E-1,4.580562E-1,9.196945E-1,-2.407622E-1,5.084668E-2,1.9750725E-1,3.488326E-1],"split_indices":[28,28,28,28,28,28,28,0,0,28,28,28,28,28,28,0,0,28,28,28,28,0,0,0,0,0,0,0,0,0,0,28,28,0,0,0,28,28,0,0,0,0,0],"split_type":[0,0,0,0,0,0,0,0,0,0,0,0,0,0,0,0,0,0,0,0,0,0,0,0,0,0,0,0,0,0,0,0,0,0,0,0,0,0,0,0,0,0,0],"sum_hessian":[7.92E2,3.41E2,4.51E2,9.6E1,2.45E2,3.2E2,1.31E2,4E1,5.6E1,1.24E2,1.21E2,1.82E2,1.38E2,9E1,4.1E1,5.1E1,7.3E1,5.7E1,6.4E1,8.7E1,9.5E1,6.1E1,7.7E1,5.2E1,3.8E1,2.5E1,1.6E1,3.3E1,2.4E1,4E1,2.4E1,3.9E1,4.8E1,4.4E1,5.1E1,2.1E1,1.8E1,1.9E1,2.9E1,1.3E1,5E0,6E0,1.3E1],"tree_param":{"num_deleted":"0","num_feature":"31","num_nodes":"43","size_leaf_vector":"1"}},{"base_weights":[-1.2900244E1,-3.685864E2,3.0301868E2,-6.992209E2,-2.4026776E2,1.62563E2,5.9801825E2,-1.7329956E1,-1.1607509E1,-3.447567E2,-1.3327983E2,6.7572945E1,2.6242804E2,4.922531E2,8.734217E2,-7.935552E0,-5.756186E0,-1.7386299E2,-7.920005E1,1.5978232E1,1.1316227E2,2.2111104E2,6.1075354E0,8.452846E0,1.1071498E1,1.4532994E1,2.041276E1,-4.044012E0,-2.8951387E0,-1.9939555E0,-9.553717E-1,-3.0249643E0,4.2686874E1,1.7564803E0,2.7024002E0,3.507395E0,4.686276E0,-1.9088865E1,1.0483494E1,5.9270704E-1,9.5451725E-1,-4.7958297E-1,-2.5797427E-1,3.845695E-2,2.525966E-1],"categories":[],"categories_nodes":[],"categories_segments":[],"categories_sizes":[],"default_left":[0,0,0,0,0,0,0,0,0,0,0,0,0,0,0,0,0,0,0,0,0,0,0,0,0,0,0,0,0,0,0,0,0,0,0,0,0,0,0,0,0,0,0,0,0],"id":10,"left_children":[1,3,5,7,9,11,13,-1,-1,15,17,19,21,23,25,-1,-1,27,29,31,33,35,-1,-1,-1,-1,-1,-1,-1,-1,-1,37,39,-1,-1,-1,-1,41,43,-1,-1,-1,-1,-1,-1],"loss_changes":[9.1017384E7,1.5996424E7,1.7678052E7,1.604248E6,3.039423E6,2.7521985E6,3.589596E6,0E0,0E0,2.97516E5,2.890775E5,3.5335625E5,1.84407E5,2.0134E5,5.7648E4,0E0,0E0,3.502925E4,3.452353E4,3.6676656E4,3.2620625E4,4.76475E3,0E0,0E0,0E0,0E0,0E0,0E0,0E0,0E0,0E0,9.531916E3,5.508906E2,0E0,0E0,0E0,0E0,2.9244336E2,4.1523608E2,0E0,0E0,0E0,0E0,0E0,0E0],"parents":[2147483647,0,0,1,1,2,2,3,3,4,4,5,5,6,6,9,9,10,10,11,11,12,12,13,13,14,14,17,17,18,18,19,19,20,20,21,21,31,31,32,32,37,37,38,38],"right_children":[2,4,6,8,10,12,14,-1,-1,16,18,20,22,24,26,-1,-1,28,30,32,34,36,-1,-1,-1,-1,-1,-1,-1,-1,-1,38,40,-1,-1,-1,-1,42,44,-1,-1,-1,-1,-1,-1],"split_conditions":[4.3983686E-1,2.562357E-1,6.135712E-1,1.4307916E-1,3.531809E-1,5.2186936E-1,7.380457E-1,-1.7329956E1,-1.1607509E1,3.0866012E-1,3.9827257E-1,4.8068425E-1,5.640876E-1,6.5505826E-1,8.3656937E-1,-7.935552E0,-5.756186E0,3.7962258E-1,4.2136046E-1,4.6120372E-1,5.000769E-1,5.3957367E-1,6.1075354E0,8.452846E0,1.1071498E1,1.4532994E1,2.041276E1,-4.044012E0,-2.8951387E0,-1.9939555E0,-9.553717E-1,4.5028636E-1,4.6893954E-1,1.7564803E0,2.7024002E0,3.507395E0,4.686276E0,4.4341025E-1,4.5579666E-1,5.9270704E-1,9.5451725E-1,-4.7958297E-1,-2.5797427E-1,3.845695E-2,2.525966E-1],"split_indices":[28,28,28,28,28,28,28,0,0,28,28,28,28,28,28,0,0,28,28,28,28,28,0,0,0,0,0,0,0,0,0,28,28,0,0,0,0,28,28,0,0,0,0,0,0],"split_type":[0,0,0,0,0,0,0,0,0,0,0,0,0,0,0,0,0,0,0,0,0,0,0,0,0,0,0,0,0,0,0,0,0,0,0,0,0,0,0,0,0,0,0,0,0],"sum_hessian":[8.08E2,3.8E2,4.28E2,1.05E2,2.75E2,2.91E2,1.37E2,4.1E1,6.4E1,1.38E2,1.37E2,1.5E2,1.41E2,1.01E2,3.6E1,6.9E1,6.9E1,7.7E1,6E1,7.1E1,7.9E1,7.5E1,6.6E1,5.1E1,5E1,2.1E1,1.5E1,3.6E1,4.1E1,3.5E1,2.5E1,4.2E1,2.9E1,3.9E1,4E1,2E1,5.5E1,1.9E1,2.3E1,1E1,1.9E1,9E0,1E1,5E0,1.8E1],"tree_param":{"num_deleted":"0","num_feature":"31","num_nodes":"45","size_leaf_vector":"1"}},{"base_weights":[1.3795466E1,-3.3257437E2,3.152338E2,-6.89104E2,-2.0958676E2,1.8611964E2,6.380798E2,-1.7119667E1,-1.1092343E1,-3.1075186E2,-9.7875984E1,8.587452E1,2.8201385E2,5.3731464E2,1.9529032E1,-7.3471756E0,-5.060682E0,-1.4004753E2,-4.441957E1,3.234907E1,1.2504162E2,2.389799E2,6.7981467E0,9.163539E0,1.2301836E1,-3.2427914E0,-2.3098977E0,-1.2284006E0,-2.7090405E1,1.1228919E1,5.073181E1,1.9731375E0,3.0317569E0,3.9048793E0,5.0399036E0,-6.8953323E-1,-3.508621E-1,-1.112896E-2,1.5184727E1,6.7986095E-1,1.1596555E0,1.8813607E-1,3.316509E-1],"categories":[],"categories_nodes":[],"categories_segments":[],"categories_sizes":[],"default_left":[0,0,0,0,0,0,0,0,0,0,0,0,0,0,0,0,0,0,0,0,0,0,0,0,0,0,0,0,0,0,0,0,0,0,0,0,0,0,0,0,0,0,0],"id":11,"left_children":[1,3,5,7,9,11,13,-1,-1,15,17,19,21,23,-1,-1,-1,25,27,29,31,33,-1,-1,-1,-1,-1,-1,35,37,39,-1,-1,-1,-1,-1,-1,-1,41,-1,-1,-1,-1],"loss_changes":[8.436302E7,1.6342604E7,1.7888636E7,1.679652E6,3.14519E6,2.955753E6,3.669008E6,0E0,0E0,3.87267E5,2.980965E5,3.16694E5,3.12349E5,3.15118E5,0E0,0E0,0E0,2.1927375E4,1.6298094E4,2.504839E4,4.6656375E4,4.263E3,0E0,0E0,0E0,0E0,0E0,0E0,1.6465742E3,1.501773E3,2.2678203E3,0E0,0E0,0E0,0E0,0E0,0E0,0E0,3.5248047E1,0E0,0E0,0E0,0E0],"parents":[2147483647,0,0,1,1,2,2,3,3,4,4,5,5,6,6,9,9,10,10,11,11,12,12,13,13,17,17,18,18,19,19,20,20,21,21,28,28,29,29,30,30,38,38],"right_children":[2,4,6,8,10,12,14,-1,-1,16,18,20,22,24,-1,-1,-1,26,28,30,32,34,-1,-1,-1,-1,-1,-1,36,38,40,-1,-1,-1,-1,-1,-1,-1,42,-1,-1,-1,-1],"split_conditions":[4.4878396E-1,2.6007026E-1,6.278868E-1,1.5805231E-1,3.6496282E-1,5.312085E-1,7.7777785E-1,-1.7119667E1,-1.1092343E1,3.1922412E-1,4.1168863E-1,4.8726004E-1,5.7841307E-1,6.809651E-1,1.9529032E1,-7.3471756E0,-5.060682E0,3.9134428E-1,4.3297845E-1,4.653871E-1,5.068693E-1,5.48415E-1,6.7981467E0,9.163539E0,1.2301836E1,-3.2427914E0,-2.3098977E0,-1.2284006E0,4.415687E-1,4.5579666E-1,4.7199327E-1,1.9731375E0,3.0317569E0,3.9048793E0,5.0399036E0,-6.8953323E-1,-3.508621E-1,-1.112896E-2,4.580562E-1,6.7986095E-1,1.1596555E0,1.8813607E-1,3.316509E-1],"split_indices":[28,28,28,28,28,28,28,0,0,28,28,28,28,28,0,0,0,28,28,28,28,28,0,0,0,0,0,0,28,28,28,0,0,0,0,0,0,0,28,0,0,0,0],"split_type":[0,0,0,0,0,0,0,0,0,0,0,0,0,0,0,0,0,0,0,0,0,0,0,0,0,0,0,0,0,0,0,0,0,0,0,0,0,0,0,0,0,0,0],"sum_hessian":[8.06E2,3.75E2,4.31E2,9.5E1,2.8E2,3.09E2,1.22E2,4E1,5.5E1,1.46E2,1.34E2,1.52E2,1.57E2,9.6E1,2.6E1,7.1E1,7.5E1,7.4E1,6E1,6.5E1,8.7E1,9.3E1,6.4E1,5.1E1,4.5E1,3.6E1,3.8E1,2.9E1,3.1E1,3.1E1,3.4E1,4.6E1,4.1E1,2.5E1,6.8E1,1.6E1,1.5E1,8E0,2.3E1,1.2E1,2.2E1,6E0,1.7E1],"tree_param":{"num_deleted":"0","num_feature":"31","num_nodes":"43","size_leaf_vector":"1"}},{"base_weights":[-1.8088341E0,-3.7151593E2,2.8763666E2,-7.5253986E2,-2.4407079E2,1.5161517E2,5.8129626E2,-1.7984528E1,-1.2288842E1,-3.5084763E2,-1.4317676E2,5.7940376E1,2.5045465E2,4.764775E2,8.715404E2,-8.370026E0,-5.9768896E0,-1.8503241E2,-8.9081245E1,1.0871279E1,1.03727646E2,2.0509782E2,5.9098043E0,8.286323E0,1.0910911E1,1.4180627E1,2.0420277E1,-4.130046E0,-3.0550435E0,-2.1433082E0,-1.1844101E0,-2.3753149E1,2.6754562E1,1.5829018E0,2.4631402E0,3.3587027E0,4.423248E0,-5.740696E-1,-2.5904533E-1,1.2143718E1,8.185626E-1,1.364541E-1,3.0985016E-1],"categories":[],"categories_nodes":[],"categories_segments":[],"categories_sizes":[],"default_left":[0,0,0,0,0,0,0,0,0,0,0,0,0,0,0,0,0,0,0,0,0,0,0,0,0,0,0,0,0,0,0,0,0,0,0,0,0,0,0,0,0,0,0],"id":12,"left_children":[1,3,5,7,9,11,13,-1,-1,15,17,19,21,23,25,-1,-1,27,29,31,33,35,-1,-1,-1,-1,-1,-1,-1,-1,-1,37,39,-1,-1,-1,-1,-1,-1,41,-1,-1,-1],"loss_changes":[8.699903E7,1.715202E7,1.8126264E7,1.2502E6,2.847693E6,2.8834515E6,3.965512E6,0E0,0E0,3.32228E5,3.00478E5,3.479977E5,2.49832E5,2.3756E5,1.74656E5,0E0,0E0,2.24785E4,2.7657344E4,4.5181723E4,2.9397562E4,9.9835E3,0E0,0E0,0E0,0E0,0E0,0E0,0E0,0E0,0E0,1.01422656E3,1.1094586E4,0E0,0E0,0E0,0E0,0E0,0E0,4.0881787E2,0E0,0E0,0E0],"parents":[2147483647,0,0,1,1,2,2,3,3,4,4,5,5,6,6,9,9,10,10,11,11,12,12,13,13,14,14,17,17,18,18,19,19,20,20,21,21,31,31,32,32,39,39],"right_children":[2,4,6,8,10,12,14,-1,-1,16,18,20,22,24,26,-1,-1,28,30,32,34,36,-1,-1,-1,-1,-1,-1,-1,-1,-1,38,40,-1,-1,-1,-1,-1,-1,42,-1,-1,-1],"split_conditions":[4.3297845E-1,2.2910213E-1,6.135712E-1,1.1387116E-1,3.4465915E-1,5.1987195E-1,7.447838E-1,-1.7984528E1,-1.2288842E1,2.944853E-1,3.930552E-1,4.7811246E-1,5.6256914E-1,6.6419643E-1,8.3656937E-1,-8.370026E0,-5.9768896E0,3.7556037E-1,4.147104E-1,4.5028636E-1,4.9703032E-1,5.3957367E-1,5.9098043E0,8.286323E0,1.0910911E1,1.4180627E1,2.0420277E1,-4.130046E0,-3.0550435E0,-2.1433082E0,-1.1844101E0,4.4341025E-1,4.653871E-1,1.5829018E0,2.4631402E0,3.3587027E0,4.423248E0,-5.740696E-1,-2.5904533E-1,4.580562E-1,8.185626E-1,1.364541E-1,3.0985016E-1],"split_indices":[28,28,28,28,28,28,28,0,0,28,28,28,28,28,28,0,0,28,28,28,28,28,0,0,0,0,0,0,0,0,0,28,28,0,0,0,0,0,0,28,0,0,0],"split_type":[0,0,0,0,0,0,0,0,0,0,0,0,0,0,0,0,0,0,0,0,0,0,0,0,0,0,0,0,0,0,0,0,0,0,0,0,0,0,0,0,0,0,0],"sum_hessian":[8.11E2,3.56E2,4.55E2,8.8E1,2.68E2,3.12E2,1.43E2,4E1,4.8E1,1.29E2,1.39E2,1.61E2,1.51E2,1.07E2,3.6E1,5.3E1,7.6E1,7.7E1,6.2E1,8E1,8.1E1,7.8E1,7.3E1,6E1,4.7E1,2E1,1.6E1,4.3E1,3.4E1,3.7E1,2.5E1,2.5E1,5.5E1,3.8E1,4.3E1,2.7E1,5.1E1,1.6E1,9E0,2.8E1,2.7E1,1.2E1,1.6E1],"tree_param":{"num_deleted":"0","num_feature":"31","num_nodes":"43","size_leaf_vector":"1"}},{"base_weights":[2.0323722E0,-3.809686E2,2.3604126E2,-7.8765106E2,-2.884946E2,8.270812E1,4.785174E2,-1.9727955E1,-1.3616383E1,-4.0250784E2,-1.8024327E2,-9.940322E0,1.6072961E2,4.0849277E2,7.9928326E2,-9.931003E0,-3.5741107E2,-1.933416E2,1.4755315E0,4.5584526E1,-7.7647835E1,4.873445E1,1.824452E2,3.2959494E2,4.8321725E2,1.3044596E1,1.9506802E1,-7.7470737E0,-5.7452564E0,-2.4804457E2,-1.3988977E2,2.8292122E1,3.4616716E0,-5.1941705E0,-4.6442486E1,7.6828865E1,-1.3413304E0,1.6063483E2,2.616093E2,2.7920395E2,8.470213E0,8.137947E0,1.0752957E1,-4.020801E0,-2.7898328E2,-7.4748634E1,-1.797277E2,-1.54937E1,6.0426685E1,-8.54038E1,2.0699827E1,4.4063652E1,3.2460601E0,1.3386722E2,1.963221E2,2.6068616E0,5.6894803E0,6.093188E0,4.198956E0,-3.331985E0,-5.8619657E0,-2.2322407E0,-2.8649452E-1,-4.0369606E0,-2.7061598E0,-7.648283E-1,8.364447E-1,1.6448244E0,-9.1035105E-2,-1.9830842E0,-3.2445934E-1,-3.2858115E-1,8.088984E-1,-3.2769236E-1,1.3716207E0,1.1651946E0,2.836969E0,4.2759266E0,2.275453E0],"categories":[],"categories_nodes":[],"categories_segments":[],"categories_sizes":[],"default_left":[0,0,0,0,0,0,0,0,0,0,0,0,0,0,0,0,0,0,0,0,0,0,0,0,0,0,0,0,0,0,0,0,0,0,0,0,0,0,0,0,0,0,0,0,0,0,0,0,0,0,0,0,0,0,0,0,0,0,0,0,0,0,0,0,0,0,0,0,0,0,0,0,0,0,0,0,0,0,0],"id":13,"left_children":[1,3,5,7,9,11,13,-1,-1,15,17,19,21,23,25,-1,27,29,-1,31,33,35,37,39,41,-1,-1,-1,-1,43,45,47,-1,-1,49,51,-1,53,55,57,-1,-1,-1,-1,59,61,63,65,67,69,71,73,-1,75,77,-1,-1,-1,-1,-1,-1,-1,-1,-1,-1,-1,-1,-1,-1,-1,-1,-1,-1,-1,-1,-1,-1,-1,-1],"loss_changes":[7.089416E7,1.1054924E7,1.8215566E7,4.96064E5,2.963546E6,2.1846408E6,3.941064E6,0E0,0E0,3.27122E5,4.401625E5,5.261062E5,3.899405E5,7.72158E5,2.18052E5,0E0,6.5096E4,3.21987E5,0E0,1.6484994E5,3.4582775E5,9.62477E4,1.944785E5,2.60284E5,1.09314E5,0E0,0E0,0E0,0E0,2.966625E4,1.5262588E5,9.802636E4,0E0,0E0,1.456517E5,5.7241E4,0E0,7.87645E4,4.69175E4,3.29475E4,0E0,0E0,0E0,0E0,3.472E3,5.6301797E4,1.0975125E4,4.071318E4,5.708111E4,3.1674188E4,1.6062252E4,2.78055E4,0E0,3.1543125E4,4.0555E4,0E0,0E0,0E0,0E0,0E0,0E0,0E0,0E0,0E0,0E0,0E0,0E0,0E0,0E0,0E0,0E0,0E0,0E0,0E0,0E0,0E0,0E0,0E0,0E0],"parents":[2147483647,0,0,1,1,2,2,3,3,4,4,5,5,6,6,9,9,10,10,11,11,12,12,13,13,14,14,16,16,17,17,19,19,20,20,21,21,22,22,23,23,24,24,29,29,30,30,31,31,34,34,35,35,37,37,38,38,39,39,44,44,45,45,46,46,47,47,48,48,49,49,50,50,51,51,53,53,54,54],"right_children":[2,4,6,8,10,12,14,-1,-1,16,18,20,22,24,26,-1,28,30,-1,32,34,36,38,40,42,-1,-1,-1,-1,44,46,48,-1,-1,50,52,-1,54,56,58,-1,-1,-1,-1,60,62,64,66,68,70,72,74,-1,76,78,-1,-1,-1,-1,-1,-1,-1,-1,-1,-1,-1,-1,-1,-1,-1,-1,-1,-1,-1,-1,-1,-1,-1,-1],"split_conditions":[3.9944237E-1,1.4758396E-1,5.549514E-1,8.543594E-2,3.1430897E-1,4.6967626E-1,6.5957725E-1,-1.9727955E1,-1.3616383E1,2.3269027E-1,6.9028807E-1,3.2698613E-1,3.7106377E-1,6.234802E-1,5.5492014E-1,-9.931003E0,2.492835E-1,3.6259243E-1,1.4755315E0,6.592695E-1,4.0862423E-1,4.4688356E-1,4.645259E-1,5.319118E-1,4.6765432E-1,1.3044596E1,1.9506802E1,-7.7470737E0,-5.7452564E0,2.6157218E-1,2.710516E-1,4.3068403E-1,3.4616716E0,-5.1941705E0,4.489238E-1,3.3836475E-1,-1.3413304E0,5.2453643E-1,2.3842828E-1,4.6636218E-1,8.470213E0,8.137947E0,1.0752957E1,-4.020801E0,3.3436456E-1,5.630888E-1,5.451971E-1,3.9540628E-1,3.5347524E-1,1E0,5.1472056E-1,8.181818E-1,3.2460601E0,4.3458095E-1,4.6209463E-1,2.6068616E0,5.6894803E0,6.093188E0,4.198956E0,-3.331985E0,-5.8619657E0,-2.2322407E0,-2.8649452E-1,-4.0369606E0,-2.7061598E0,-7.648283E-1,8.364447E-1,1.6448244E0,-9.1035105E-2,-1.9830842E0,-3.2445934E-1,-3.2858115E-1,8.088984E-1,-3.2769236E-1,1.3716207E0,1.1651946E0,2.836969E0,4.2759266E0,2.275453E0],"split_indices":[25,1,25,10,25,25,0,0,0,25,27,10,1,25,9,0,0,25,0,27,27,11,5,1,0,0,0,0,0,10,10,25,0,0,25,17,0,25,20,10,0,0,0,0,16,27,27,0,11,19,27,22,0,27,10,0,0,0,0,0,0,0,0,0,0,0,0,0,0,0,0,0,0,0,0,0,0,0,0],"split_type":[0,0,0,0,0,0,0,0,0,0,0,0,0,0,0,0,0,0,0,0,0,0,0,0,0,0,0,0,0,0,0,0,0,0,0,0,0,0,0,0,0,0,0,0,0,0,0,0,0,0,0,0,0,0,0,0,0,0,0,0,0,0,0,0,0,0,0,0,0,0,0,0,0,0,0,0,0,0,0],"sum_hessian":[7.89E2,2.99E2,4.9E2,5.4E1,2.45E2,3.01E2,1.89E2,1.6E1,3.8E1,1.18E2,1.27E2,1.38E2,1.63E2,1.57E2,3.2E1,3.5E1,8.3E1,1.21E2,6E0,7.6E1,6.2E1,2.7E1,1.36E2,7.9E1,7.8E1,2E1,1.2E1,5.5E1,2.8E1,5.8E1,6.3E1,6.8E1,8E0,8E0,5.4E1,2.2E1,5E0,1.09E2,2.7E1,5.4E1,2.5E1,3.6E1,4.2E1,2.6E1,3.2E1,2.5E1,3.8E1,2.9E1,3.9E1,3.4E1,2E1,1.7E1,5E0,6.5E1,4.4E1,5E0,2.2E1,3.7E1,1.7E1,5E0,2.7E1,1.5E1,1E1,2.3E1,1.5E1,2.1E1,8E0,2.9E1,1E1,2.8E1,6E0,7E0,1.3E1,5E0,1.2E1,7E0,5.8E1,3.5E1,9E0],"tree_param":{"num_deleted":"0","num_feature":"31","num_nodes":"79","size_leaf_vector":"1"}},{"base_weights":[-6.5693283E0,-3.7792755E2,2.5291914E2,-7.096605E2,-2.4895822E2,1.2415247E2,5.277669E2,-1.697487E1,-1.1678637E1,-3.483128E2,-1.6450166E2,3.5434593E1,2.2321066E2,4.3350763E2,7.916925E2,-8.066578E0,-5.8785887E0,-4.2527347E0,-1.21505806E2,-1.3815981E1,8.602347E1,3.3355014E0,2.5472137E2,7.3779407E0,9.66707E0,1.3360038E1,1.912024E1,-2.728616E0,-1.771652E0,-3.2620655E1,1.3727328E1,5.5949303E1,2.0690553E0,4.4247193E0,5.481783E0,-9.3169117E-1,-2.0824308E1,7.304199E-4,1.8285873E1,7.293984E-1,1.1957443E0,-5.028835E-1,-2.6466772E-1,2.5890893E-1,5.503447E-1],"categories":[],"categories_nodes":[],"categories_segments":[],"categories_sizes":[],"default_left":[0,0,0,0,0,0,0,0,0,0,0,0,0,0,0,0,0,0,0,0,0,0,0,0,0,0,0,0,0,0,0,0,0,0,0,0,0,0,0,0,0,0,0,0,0],"id":14,"left_children":[1,3,5,7,9,11,13,-1,-1,15,17,19,21,23,25,-1,-1,-1,27,29,31,-1,33,-1,-1,-1,-1,-1,-1,35,37,39,-1,-1,-1,-1,41,-1,43,-1,-1,-1,-1,-1,-1],"loss_changes":[7.660796E7,1.3813396E7,1.6497508E7,1.09554E6,1.931353E6,2.8042995E6,3.363412E6,0E0,0E0,2.04512E5,2.43179E5,4.24756E5,2.260035E5,1.8231E5,1.3356E5,0E0,0E0,0E0,2.2780062E4,4.5510727E4,3.8226375E4,0E0,9.235E2,0E0,0E0,0E0,0E0,0E0,0E0,7.5887656E3,2.2442666E3,2.7702344E2,0E0,0E0,0E0,0E0,6.471738E2,0E0,9.708154E2,0E0,0E0,0E0,0E0,0E0,0E0],"parents":[2147483647,0,0,1,1,2,2,3,3,4,4,5,5,6,6,9,9,10,10,11,11,12,12,13,13,14,14,18,18,19,19,20,20,22,22,29,29,30,30,31,31,36,36,38,38],"right_children":[2,4,6,8,10,12,14,-1,-1,16,18,20,22,24,26,-1,-1,-1,28,30,32,-1,34,-1,-1,-1,-1,-1,-1,36,38,40,-1,-1,-1,-1,42,-1,44,-1,-1,-1,-1,-1,-1],"split_conditions":[4.2136046E-1,2.2910213E-1,5.9664893E-1,1.2322018E-1,3.3438167E-1,5.1224834E-1,7.230822E-1,-1.697487E1,-1.1678637E1,2.944853E-1,3.7695122E-1,4.6893954E-1,5.48415E-1,6.430064E-1,8.3656937E-1,-8.066578E0,-5.8785887E0,-4.2527347E0,4.0250516E-1,4.4878396E-1,4.885456E-1,3.3355014E0,5.6643546E-1,7.3779407E0,9.66707E0,1.3360038E1,1.912024E1,-2.728616E0,-1.771652E0,4.3604368E-1,4.5579666E-1,4.7454116E-1,2.0690553E0,4.4247193E0,5.481783E0,-9.3169117E-1,4.4341025E-1,7.304199E-4,4.6120372E-1,7.293984E-1,1.1957443E0,-5.028835E-1,-2.6466772E-1,2.5890893E-1,5.503447E-1],"split_indices":[28,28,28,28,28,28,28,0,0,28,28,28,28,28,28,0,0,0,28,28,28,0,28,0,0,0,0,0,0,28,28,28,0,0,0,0,28,0,28,0,0,0,0,0,0],"split_type":[0,0,0,0,0,0,0,0,0,0,0,0,0,0,0,0,0,0,0,0,0,0,0,0,0,0,0,0,0,0,0,0,0,0,0,0,0,0,0,0,0,0,0,0,0],"sum_hessian":[7.93E2,3.26E2,4.67E2,9E1,2.36E2,3.19E2,1.48E2,4E1,5E1,1.07E2,1.29E2,1.69E2,1.5E2,1.11E2,3.7E1,5E1,5.7E1,5.9E1,7E1,8.6E1,8.3E1,5.6E1,9.4E1,5.2E1,5.9E1,2.4E1,1.3E1,4.6E1,2.4E1,5.1E1,3.5E1,3.2E1,5.1E1,3.9E1,5.5E1,2.2E1,2.9E1,9E0,2.6E1,7E0,2.5E1,1.7E1,1.2E1,1.8E1,8E0],"tree_param":{"num_deleted":"0","num_feature":"31","num_nodes":"45","size_leaf_vector":"1"}},{"base_weights":[2.9501224E0,-3.4777945E2,2.5379181E2,-6.3575916E2,-2.2814726E2,1.3588802E2,5.3368036E2,-1.6146204E1,-1.0481839E1,-3.1791974E2,-1.3086028E2,4.6341625E1,2.2570049E2,4.4939883E2,1.6329834E1,-7.3299456E0,-5.347571E0,-1.6583803E2,-8.596491E1,-4.8543963E0,8.746541E1,1.8099599E2,5.3421226E0,7.4963408E0,1.0074421E1,-3.6294622E0,-2.6961954E0,-1.9858139E0,-1.0536591E0,-2.4926846E1,1.7022823E1,6.2576023E1,2.115151E0,2.9573357E0,3.9516492E0,-6.466764E-1,-1.5422985E1,9.804157E0,5.8064896E-1,9.247811E-1,1.3701215E0,-3.542377E-1,-1.4990103E-1,2.1503825E-2,2.4078803E-1],"categories":[],"categories_nodes":[],"categories_segments":[],"categories_sizes":[],"default_left":[0,0,0,0,0,0,0,0,0,0,0,0,0,0,0,0,0,0,0,0,0,0,0,0,0,0,0,0,0,0,0,0,0,0,0,0,0,0,0,0,0,0,0,0,0],"id":15,"left_children":[1,3,5,7,9,11,13,-1,-1,15,17,19,21,23,-1,-1,-1,25,27,29,31,33,-1,-1,-1,-1,-1,-1,-1,35,37,39,-1,-1,-1,-1,41,43,-1,-1,-1,-1,-1,-1,-1],"loss_changes":[6.941461E7,1.1189456E7,1.5107376E7,1.415796E6,2.002036E6,2.603288E6,2.874604E6,0E0,0E0,1.99018E5,1.6473725E5,3.4571416E5,2.514745E5,2.44616E5,0E0,0E0,0E0,6.06725E3,1.7816312E4,3.292069E4,3.4795812E4,1.525875E4,0E0,0E0,0E0,0E0,0E0,0E0,0E0,2.2419395E3,2.8324424E3,7.929219E2,0E0,0E0,0E0,0E0,2.0950635E2,4.5401685E2,0E0,0E0,0E0,0E0,0E0,0E0,0E0],"parents":[2147483647,0,0,1,1,2,2,3,3,4,4,5,5,6,6,9,9,10,10,11,11,12,12,13,13,17,17,18,18,19,19,20,20,21,21,29,29,30,30,31,31,36,36,37,37],"right_children":[2,4,6,8,10,12,14,-1,-1,16,18,20,22,24,-1,-1,-1,26,28,30,32,34,-1,-1,-1,-1,-1,-1,-1,36,38,40,-1,-1,-1,-1,42,44,-1,-1,-1,-1,-1,-1,-1],"split_conditions":[4.313832E-1,2.515221E-1,6.028479E-1,1.4307916E-1,3.472882E-1,5.167318E-1,7.447838E-1,-1.6146204E1,-1.0481839E1,3.0409783E-1,3.9508915E-1,4.7199327E-1,5.575929E-1,6.525437E-1,1.6329834E1,-7.3299456E0,-5.347571E0,3.7962258E-1,4.1884595E-1,4.5028636E-1,4.9203897E-1,5.312085E-1,5.3421226E0,7.4963408E0,1.0074421E1,-3.6294622E0,-2.6961954E0,-1.9858139E0,-1.0536591E0,4.415687E-1,4.6120372E-1,4.8068425E-1,2.115151E0,2.9573357E0,3.9516492E0,-6.466764E-1,4.4648948E-1,4.5579666E-1,5.8064896E-1,9.247811E-1,1.3701215E0,-3.542377E-1,-1.4990103E-1,2.1503825E-2,2.4078803E-1],"split_indices":[28,28,28,28,28,28,28,0,0,28,28,28,28,28,0,0,0,28,28,28,28,28,0,0,0,0,0,0,0,28,28,28,0,0,0,0,28,28,0,0,0,0,0,0,0],"split_type":[0,0,0,0,0,0,0,0,0,0,0,0,0,0,0,0,0,0,0,0,0,0,0,0,0,0,0,0,0,0,0,0,0,0,0,0,0,0,0,0,0,0,0,0,0],"sum_hessian":[7.87E2,3.28E2,4.59E2,9.5E1,2.33E2,3.24E2,1.35E2,3.5E1,6E1,1.2E2,1.13E2,1.63E2,1.61E2,1.06E2,2.9E1,5.8E1,6.2E1,6.2E1,5.1E1,7.3E1,9E1,8E1,8.1E1,4.8E1,5.8E1,3.8E1,2.4E1,3.5E1,1.6E1,3.8E1,3.5E1,4E1,5E1,3E1,5E1,2E1,1.8E1,2.3E1,1.2E1,1.3E1,2.7E1,1.3E1,5E0,5E0,1.8E1],"tree_param":{"num_deleted":"0","num_feature":"31","num_nodes":"45","size_leaf_vector":"1"}},{"base_weights":[3.3055766E0,-3.4009097E2,2.5950745E2,-6.91261E2,-2.3260474E2,1.4077032E2,5.37577E2,-1.667111E1,-1.1483011E1,-3.22782E2,-1.2621019E2,5.447126E1,2.3352345E2,4.4606232E2,7.743071E2,-7.74773E0,-5.462971E0,-1.6634218E2,-8.044078E1,7.560362E0,9.543125E1,1.8893185E2,5.490037E0,7.926316E0,1.03097315E1,1.2665509E1,1.7893465E1,-3.792412E0,-2.7572489E0,-1.9163172E0,-1.0184346E0,-1.6005785E1,2.7116661E1,7.376252E1,2.3084257E0,3.0696084E0,4.0283737E0,-2.1434492E1,4.8461426E-3,2.4376068E-1,7.2810143E-1,1.178764E0,1.629176E0,-5.644636E-1,-2.9994136E-1],"categories":[],"categories_nodes":[],"categories_segments":[],"categories_sizes":[],"default_left":[0,0,0,0,0,0,0,0,0,0,0,0,0,0,0,0,0,0,0,0,0,0,0,0,0,0,0,0,0,0,0,0,0,0,0,0,0,0,0,0,0,0,0,0,0],"id":16,"left_children":[1,3,5,7,9,11,13,-1,-1,15,17,19,21,23,25,-1,-1,27,29,31,33,35,-1,-1,-1,-1,-1,-1,-1,-1,-1,37,39,41,-1,-1,-1,43,-1,-1,-1,-1,-1,-1,-1],"loss_changes":[6.897569E7,1.2484012E7,1.4748972E7,8.21076E5,2.434563E6,2.516675E6,2.557504E6,0E0,0E0,3.39829E5,2.0701275E5,3.1631075E5,2.258405E5,1.37522E5,4.4388E4,0E0,0E0,1.559225E4,2.1429969E4,3.6382734E4,2.9585312E4,2.694E3,0E0,0E0,0E0,0E0,0E0,0E0,0E0,0E0,0E0,3.1827344E3,5.513951E3,3.1907812E2,0E0,0E0,0E0,7.523584E2,0E0,0E0,0E0,0E0,0E0,0E0,0E0],"parents":[2147483647,0,0,1,1,2,2,3,3,4,4,5,5,6,6,9,9,10,10,11,11,12,12,13,13,14,14,17,17,18,18,19,19,20,20,21,21,31,31,32,32,33,33,37,37],"right_children":[2,4,6,8,10,12,14,-1,-1,16,18,20,22,24,26,-1,-1,28,30,32,34,36,-1,-1,-1,-1,-1,-1,-1,-1,-1,38,40,42,-1,-1,-1,44,-1,-1,-1,-1,-1,-1,-1],"split_conditions":[4.3480068E-1,2.2550462E-1,6.135712E-1,1.1387116E-1,3.4465915E-1,5.1987195E-1,7.380457E-1,-1.667111E1,-1.1483011E1,2.944853E-1,3.9508915E-1,4.7811246E-1,5.608566E-1,6.7429894E-1,8.002751E-1,-7.74773E0,-5.462971E0,3.7556037E-1,4.1884595E-1,4.5579666E-1,4.9703032E-1,5.364498E-1,5.490037E0,7.926316E0,1.03097315E1,1.2665509E1,1.7893465E1,-3.792412E0,-2.7572489E0,-1.9163172E0,-1.0184346E0,4.4878396E-1,4.6120372E-1,4.885456E-1,2.3084257E0,3.0696084E0,4.0283737E0,4.415687E-1,4.8461426E-3,2.4376068E-1,7.2810143E-1,1.178764E0,1.629176E0,-5.644636E-1,-2.9994136E-1],"split_indices":[28,28,28,28,28,28,28,0,0,28,28,28,28,28,28,0,0,28,28,28,28,28,0,0,0,0,0,0,0,0,0,28,28,28,0,0,0,28,0,0,0,0,0,0,0],"split_type":[0,0,0,0,0,0,0,0,0,0,0,0,0,0,0,0,0,0,0,0,0,0,0,0,0,0,0,0,0,0,0,0,0,0,0,0,0,0,0,0,0,0,0,0,0],"sum_hessian":[7.82E2,3.34E2,4.48E2,7.7E1,2.57E2,3.15E2,1.33E2,3.2E1,4.5E1,1.38E2,1.19E2,1.64E2,1.51E2,9.8E1,3.5E1,5.7E1,8.1E1,6.2E1,5.7E1,7.7E1,8.7E1,7.5E1,7.6E1,6.1E1,3.7E1,1.9E1,1.6E1,3.1E1,3.1E1,3.6E1,2.1E1,3.5E1,4.2E1,4.4E1,4.3E1,2.3E1,5.2E1,2.6E1,9E0,1.7E1,2.5E1,1.8E1,2.6E1,1.1E1,1.5E1],"tree_param":{"num_deleted":"0","num_feature":"31","num_nodes":"45","size_leaf_vector":"1"}},{"base_weights":[-6.8509994E0,-3.327956E2,2.2752676E2,-6.4715955E2,-2.3589737E2,1.15108444E2,4.9918323E2,-1.5587808E1,-1.0774904E1,-3.3666064E2,-1.6060837E2,3.4234093E1,2.0480208E2,4.1108203E2,1.4285519E1,-7.6287045E0,-5.860553E0,-4.2184753E0,-1.146833E2,-1.1179725E1,7.768957E1,3.0277188E0,2.343835E2,6.840333E0,9.126937E0,-2.6217155E0,-1.6489019E0,-3.0077797E1,1.2485778E1,5.0512764E1,9.11052E1,4.1339526E0,5.1552215E0,-7.7384055E-1,-1.7565317E1,-5.604115E-1,1.7168718E1,7.9878044E-1,1.1824431E0,1.4791071E0,1.9810437E0,-3.973807E-1,-2.4549825E-1,-6.777051E-2,4.688875E-2,2.485102E-1,4.8907882E-1],"categories":[],"categories_nodes":[],"categories_segments":[],"categories_sizes":[],"default_left":[0,0,0,0,0,0,0,0,0,0,0,0,0,0,0,0,0,0,0,0,0,0,0,0,0,0,0,0,0,0,0,0,0,0,0,0,0,0,0,0,0,0,0,0,0,0,0],"id":17,"left_children":[1,3,5,7,9,11,13,-1,-1,15,17,19,21,23,-1,-1,-1,-1,25,27,29,-1,31,-1,-1,-1,-1,33,35,37,39,-1,-1,-1,41,43,45,-1,-1,-1,-1,-1,-1,-1,-1,-1,-1],"loss_changes":[5.93576E7,9.747176E6,1.374618E7,6.6949E5,1.842471E6,2.3214715E6,2.207652E6,0E0,0E0,9.5248E4,3.1083525E5,3.3636666E5,2.046585E5,1.43961E5,0E0,0E0,0E0,0E0,3.0416688E4,3.794482E4,2.7103562E4,0E0,8.8085E3,0E0,0E0,0E0,0E0,4.3806484E3,2.332874E3,4.5085156E2,4.2575E2,0E0,0E0,0E0,8.834961E0,9.841628E1,6.600088E2,0E0,0E0,0E0,0E0,0E0,0E0,0E0,0E0,0E0,0E0],"parents":[2147483647,0,0,1,1,2,2,3,3,4,4,5,5,6,6,9,9,10,10,11,11,12,12,13,13,18,18,19,19,20,20,22,22,27,27,28,28,29,29,30,30,34,34,35,35,36,36],"right_children":[2,4,6,8,10,12,14,-1,-1,16,18,20,22,24,-1,-1,-1,-1,26,28,30,-1,32,-1,-1,-1,-1,34,36,38,40,-1,-1,-1,42,44,46,-1,-1,-1,-1,-1,-1,-1,-1,-1,-1],"split_conditions":[4.2726627E-1,2.3228738E-1,5.9471357E-1,1.3160925E-1,3.3044684E-1,5.1053214E-1,7.1330225E-1,-1.5587808E1,-1.0774904E1,2.8707737E-1,3.727398E-1,4.6893954E-1,5.461651E-1,6.410549E-1,1.4285519E1,-7.6287045E0,-5.860553E0,-4.2184753E0,4.0250516E-1,4.4878396E-1,4.8726004E-1,3.0277188E0,5.6643546E-1,6.840333E0,9.126937E0,-2.6217155E0,-1.6489019E0,4.3983686E-1,4.5579666E-1,4.7811246E-1,4.9521524E-1,4.1339526E0,5.1552215E0,-7.7384055E-1,4.4341025E-1,3.2893857E-1,4.6120372E-1,7.9878044E-1,1.1824431E0,1.4791071E0,1.9810437E0,-3.973807E-1,-2.4549825E-1,-6.777051E-2,4.688875E-2,2.485102E-1,4.8907882E-1],"split_indices":[28,28,28,28,28,28,28,0,0,28,28,28,28,28,0,0,0,0,28,28,28,0,28,0,0,0,0,28,28,28,28,0,0,0,28,10,28,0,0,0,0,0,0,0,0,0,0],"split_type":[0,0,0,0,0,0,0,0,0,0,0,0,0,0,0,0,0,0,0,0,0,0,0,0,0,0,0,0,0,0,0,0,0,0,0,0,0,0,0,0,0,0,0,0,0,0,0],"sum_hessian":[7.75E2,3.24E2,4.51E2,7.5E1,2.49E2,3.2E2,1.31E2,3.1E1,4.4E1,1.05E2,1.44E2,1.69E2,1.51E2,9.5E1,3.6E1,4.8E1,5.7E1,6.7E1,7.7E1,8.3E1,8.6E1,5.6E1,9.5E1,4.1E1,5.4E1,4.9E1,2.8E1,4.6E1,3.7E1,3E1,5.6E1,4.8E1,4.7E1,2.6E1,2E1,1E1,2.7E1,1.6E1,1.4E1,2.1E1,3.5E1,1.2E1,8E0,5E0,5E0,1.8E1,9E0],"tree_param":{"num_deleted":"0","num_feature":"31","num_nodes":"47","size_leaf_vector":"1"}},{"base_weights":[1.4180669E0,-3.247923E2,2.4964981E2,-6.480815E2,-2.1578442E2,1.3086623E2,5.1682587E2,-1.5743706E1,-1.0587978E1,-3.1105634E2,-1.2992595E2,4.380242E1,2.1710634E2,4.3395856E2,1.6380798E1,-7.1864214E0,-5.08776E0,-1.7123256E2,-8.5537605E1,2.3803797E0,8.678582E1,1.7471678E2,5.0955853E0,7.4280787E0,1.0081924E1,-3.802511E0,-2.8452435E0,-2.0000002E0,-1.0018128E0,-2.0813068E1,2.0097055E1,1.2293918E0,2.0434754E0,2.8647058E0,3.8084695E0,-5.685482E-1,-1.4015804E1,9.616125E0,6.3131124E-1,-1.4494824E-1,-3.1343424E-1,4.315625E-2,2.2568798E-1],"categories":[],"categories_nodes":[],"categories_segments":[],"categories_sizes":[],"default_left":[0,0,0,0,0,0,0,0,0,0,0,0,0,0,0,0,0,0,0,0,0,0,0,0,0,0,0,0,0,0,0,0,0,0,0,0,0,0,0,0,0,0,0],"id":18,"left_children":[1,3,5,7,9,11,13,-1,-1,15,17,19,21,23,-1,-1,-1,25,27,29,31,33,-1,-1,-1,-1,-1,-1,-1,35,37,-1,-1,-1,-1,-1,39,41,-1,-1,-1,-1,-1],"loss_changes":[6.502364E7,1.2088712E7,1.4403976E7,1.019432E6,2.094496E6,2.3706245E6,3.150556E6,0E0,0E0,2.44947E5,2.4018825E5,2.8287762E5,2.09356E5,3.04084E5,0E0,0E0,0E0,1.178E4,3.0348625E4,3.4112895E4,2.4089125E4,1.125975E4,0E0,0E0,0E0,0E0,0E0,0E0,0E0,1.4605654E3,5.3417734E3,0E0,0E0,0E0,0E0,0E0,1.1949365E2,2.9781152E2,0E0,0E0,0E0,0E0,0E0],"parents":[2147483647,0,0,1,1,2,2,3,3,4,4,5,5,6,6,9,9,10,10,11,11,12,12,13,13,17,17,18,18,19,19,20,20,21,21,29,29,30,30,36,36,37,37],"right_children":[2,4,6,8,10,12,14,-1,-1,16,18,20,22,24,-1,-1,-1,26,28,30,32,34,-1,-1,-1,-1,-1,-1,-1,36,38,-1,-1,-1,-1,-1,40,42,-1,-1,-1,-1,-1],"split_conditions":[4.3297845E-1,2.3228738E-1,6.086934E-1,1.2322018E-1,3.4280682E-1,5.167318E-1,7.699211E-1,-1.5743706E1,-1.0587978E1,3.0409783E-1,3.8902977E-1,4.7454116E-1,5.575929E-1,6.7065567E-1,1.6380798E1,-7.1864214E0,-5.08776E0,3.6882177E-1,4.1884595E-1,4.5028636E-1,4.9203897E-1,5.352293E-1,5.0955853E0,7.4280787E0,1.0081924E1,-3.802511E0,-2.8452435E0,-2.0000002E0,-1.0018128E0,4.415687E-1,4.6120372E-1,1.2293918E0,2.0434754E0,2.8647058E0,3.8084695E0,-5.685482E-1,3.172583E-1,4.5579666E-1,6.3131124E-1,-1.4494824E-1,-3.1343424E-1,4.315625E-2,2.2568798E-1],"split_indices":[28,28,28,28,28,28,28,0,0,28,28,28,28,28,0,0,0,28,28,28,28,28,0,0,0,0,0,0,0,28,28,0,0,0,0,0,9,28,0,0,0,0,0],"split_type":[0,0,0,0,0,0,0,0,0,0,0,0,0,0,0,0,0,0,0,0,0,0,0,0,0,0,0,0,0,0,0,0,0,0,0,0,0,0,0,0,0,0,0],"sum_hessian":[8.01E2,3.46E2,4.55E2,8.6E1,2.6E2,3.16E2,1.39E2,3.7E1,4.9E1,1.22E2,1.38E2,1.58E2,1.58E2,1.11E2,2.8E1,6.3E1,5.9E1,7E1,6.8E1,8.1E1,7.7E1,7.7E1,8.1E1,6.2E1,4.9E1,3.9E1,3.1E1,4.7E1,2.1E1,3.5E1,4.6E1,3.1E1,4.6E1,2.9E1,4.8E1,1.5E1,2E1,2.5E1,2.1E1,5E0,1.5E1,5E0,2E1],"tree_param":{"num_deleted":"0","num_feature":"31","num_nodes":"43","size_leaf_vector":"1"}},{"base_weights":[5.5639204E-2,-3.2241684E2,2.3840497E2,-6.3911945E2,-2.2251137E2,1.3082153E2,4.991608E2,-1.6930971E1,-5.707922E2,-3.2943906E2,-1.5026239E2,4.479848E1,2.2032747E2,4.1633606E2,7.609192E2,-1.2140277E1,-8.889939E0,-7.404627E0,-5.595713E0,-2.0154419E2,-9.707726E1,-2.1293333E0,8.453113E1,1.8509833E2,5.15569E0,7.151978E0,9.4993105E0,1.20425825E1,1.744291E1,-4.32923E0,-3.2561302E0,-2.331643E0,-6.4783134E1,-2.1270391E1,1.8576265E1,6.061748E1,2.0259743E0,2.8854113E0,3.9714813E0,-1.477745E0,-9.1571563E-1,-2.6539518E1,-2.072254E-1,9.808634E0,6.271878E-1,8.8843465E-1,1.3353295E0,-5.7699704E-1,-3.4867483E-1,1.0742352E-1,2.7580318E-1],"categories":[],"categories_nodes":[],"categories_segments":[],"categories_sizes":[],"default_left":[0,0,0,0,0,0,0,0,0,0,0,0,0,0,0,0,0,0,0,0,0,0,0,0,0,0,0,0,0,0,0,0,0,0,0,0,0,0,0,0,0,0,0,0,0,0,0,0,0,0,0],"id":19,"left_children":[1,3,5,7,9,11,13,-1,15,17,19,21,23,25,27,-1,-1,-1,-1,29,31,33,35,37,-1,-1,-1,-1,-1,-1,-1,-1,39,41,43,45,-1,-1,-1,-1,-1,47,-1,49,-1,-1,-1,-1,-1,-1,-1],"loss_changes":[6.1488876E7,1.0615412E7,1.2839018E7,6.64678E5,1.959059E6,2.507864E6,2.58821E6,0E0,2.2854E4,1.06998E5,4.08611E5,3.134354E5,1.63373E5,1.88218E5,2.222E4,0E0,0E0,0E0,0E0,1.0372E4,4.2190875E4,3.1308904E4,3.0331938E4,1.8633E4,0E0,0E0,0E0,0E0,0E0,0E0,0E0,0E0,2.1395781E3,2.0780684E3,3.9472441E3,1.0065E3,0E0,0E0,0E0,0E0,0E0,6.041992E1,0E0,3.4804272E2,0E0,0E0,0E0,0E0,0E0,0E0,0E0],"parents":[2147483647,0,0,1,1,2,2,3,3,4,4,5,5,6,6,8,8,9,9,10,10,11,11,12,12,13,13,14,14,19,19,20,20,21,21,22,22,23,23,32,32,33,33,34,34,35,35,41,41,43,43],"right_children":[2,4,6,8,10,12,14,-1,16,18,20,22,24,26,28,-1,-1,-1,-1,30,32,34,36,38,-1,-1,-1,-1,-1,-1,-1,-1,40,42,44,46,-1,-1,-1,-1,-1,48,-1,50,-1,-1,-1,-1,-1,-1,-1],"split_conditions":[4.313832E-1,2.2910213E-1,6.086934E-1,9.465922E-2,3.3044684E-1,5.182121E-1,7.447838E-1,-1.6930971E1,1.9404744E-1,2.8707737E-1,3.7695122E-1,4.7454116E-1,5.6643546E-1,6.6419643E-1,8.002751E-1,-1.2140277E1,-8.889939E0,-7.404627E0,-5.595713E0,3.5730287E-1,4.061896E-1,4.5028636E-1,4.934928E-1,5.3957367E-1,5.15569E0,7.151978E0,9.4993105E0,1.20425825E1,1.744291E1,-4.32923E0,-3.2561302E0,-2.331643E0,4.2136046E-1,4.4341025E-1,4.6120372E-1,4.8168674E-1,2.0259743E0,2.8854113E0,3.9714813E0,-1.477745E0,-9.1571563E-1,4.415687E-1,-2.072254E-1,4.580562E-1,6.271878E-1,8.8843465E-1,1.3353295E0,-5.7699704E-1,-3.4867483E-1,1.0742352E-1,2.7580318E-1],"split_indices":[28,28,28,28,28,28,28,0,28,28,28,28,28,28,28,0,0,0,0,28,28,28,28,28,0,0,0,0,0,0,0,0,28,28,28,28,0,0,0,0,0,28,0,28,0,0,0,0,0,0,0],"split_type":[0,0,0,0,0,0,0,0,0,0,0,0,0,0,0,0,0,0,0,0,0,0,0,0,0,0,0,0,0,0,0,0,0,0,0,0,0,0,0,0,0,0,0,0,0,0,0,0,0,0,0],"sum_hessian":[7.98E2,3.39E2,4.59E2,8E1,2.59E2,3.26E2,1.33E2,1.7E1,6.3E1,1.03E2,1.56E2,1.67E2,1.59E2,1.03E2,3E1,4.6E1,1.7E1,5.3E1,5E1,7.8E1,7.8E1,7.7E1,9E1,8.5E1,7.4E1,5.5E1,4.8E1,1.5E1,1.5E1,5.3E1,2.5E1,4.7E1,3.1E1,4E1,3.7E1,3.9E1,5.1E1,2.4E1,6.1E1,1.9E1,1.2E1,2.6E1,1.4E1,2.3E1,1.4E1,1.3E1,2.6E1,1.9E1,7E0,1.2E1,1.1E1],"tree_param":{"num_deleted":"0","num_feature":"31","num_nodes":"51","size_leaf_vector":"1"}},{"base_weights":[1.894908E0,-3.040407E2,2.3595816E2,-6.1256525E2,-2.0912616E2,1.3235374E2,5.253045E2,-1.5017714E1,-1.0125081E1,-3.0587094E2,-1.2893518E2,4.7263397E1,2.227973E2,4.3731003E2,1.5611479E1,-7.003495E0,-5.1623383E0,-1.680797E2,-8.1236824E1,1.095412E0,8.4939354E1,1.8662753E2,5.4954157E0,7.4316177E0,9.983231E0,-3.7623363E0,-2.7159011E0,-1.9820433E0,-1.0511632E0,-1.9953814E1,1.754708E1,6.427463E1,2.156945E0,3.0829897E0,4.059875E0,-5.2961314E-1,-1.4026034E1,9.104691E0,5.6123894E-1,9.5394653E-1,1.4381621E0,-1.5271923E-1,-3.107887E-1,1.9136881E-2,2.1816869E-1],"categories":[],"categories_nodes":[],"categories_segments":[],"categories_sizes":[],"default_left":[0,0,0,0,0,0,0,0,0,0,0,0,0,0,0,0,0,0,0,0,0,0,0,0,0,0,0,0,0,0,0,0,0,0,0,0,0,0,0,0,0,0,0,0,0],"id":20,"left_children":[1,3,5,7,9,11,13,-1,-1,15,17,19,21,23,-1,-1,-1,25,27,29,31,33,-1,-1,-1,-1,-1,-1,-1,35,37,39,-1,-1,-1,-1,41,43,-1,-1,-1,-1,-1,-1,-1],"loss_changes":[5.8647316E7,1.0267448E7,1.3839996E7,8.4025E5,2.078469E6,2.6291285E6,2.398928E6,0E0,0E0,1.69783E5,2.6825725E5,3.095156E5,2.60732E5,1.92522E5,0E0,0E0,0E0,2.74675E4,3.0641E4,2.8399771E4,3.9442688E4,2.235875E4,0E0,0E0,0E0,0E0,0E0,0E0,0E0,1.0173594E3,3.8242354E3,3.3915E3,0E0,0E0,0E0,0E0,8.2109375E1,3.8518506E2,0E0,0E0,0E0,0E0,0E0,0E0,0E0],"parents":[2147483647,0,0,1,1,2,2,3,3,4,4,5,5,6,6,9,9,10,10,11,11,12,12,13,13,17,17,18,18,19,19,20,20,21,21,29,29,30,30,31,31,36,36,37,37],"right_children":[2,4,6,8,10,12,14,-1,-1,16,18,20,22,24,-1,-1,-1,26,28,30,32,34,-1,-1,-1,-1,-1,-1,-1,36,38,40,-1,-1,-1,-1,42,44,-1,-1,-1,-1,-1,-1,-1],"split_conditions":[4.3297845E-1,2.3909383E-1,6.232695E-1,1.2322018E-1,3.402256E-1,5.2186936E-1,7.699211E-1,-1.5017714E1,-1.0125081E1,2.962038E-1,3.8902977E-1,4.7199327E-1,5.7422274E-1,6.777484E-1,1.5611479E1,-7.003495E0,-5.1623383E0,3.6882177E-1,4.1168863E-1,4.5028636E-1,4.9837103E-1,5.461651E-1,5.4954157E0,7.4316177E0,9.983231E0,-3.7623363E0,-2.7159011E0,-1.9820433E0,-1.0511632E0,4.415687E-1,4.6120372E-1,4.835124E-1,2.156945E0,3.0829897E0,4.059875E0,-5.2961314E-1,4.049085E-1,4.5579666E-1,5.6123894E-1,9.5394653E-1,1.4381621E0,-1.5271923E-1,-3.107887E-1,1.9136881E-2,2.1816869E-1],"split_indices":[28,28,28,28,28,28,28,0,0,28,28,28,28,28,0,0,0,28,28,28,28,28,0,0,0,0,0,0,0,28,28,28,0,0,0,0,25,28,0,0,0,0,0,0,0],"split_type":[0,0,0,0,0,0,0,0,0,0,0,0,0,0,0,0,0,0,0,0,0,0,0,0,0,0,0,0,0,0,0,0,0,0,0,0,0,0,0,0,0,0,0,0,0],"sum_hessian":[8.17E2,3.54E2,4.63E2,8.2E1,2.72E2,3.42E2,1.21E2,3.3E1,4.9E1,1.22E2,1.5E2,1.77E2,1.65E2,9.2E1,2.9E1,6E1,6.2E1,8.1E1,6.9E1,8E1,9.7E1,1E2,6.5E1,4.8E1,4.4E1,4.7E1,3.4E1,4.1E1,2.8E1,3.5E1,4.5E1,5.3E1,4.4E1,3.7E1,6.3E1,1.5E1,2E1,2.6E1,1.9E1,1.9E1,3.4E1,5E0,1.5E1,5E0,2.1E1],"tree_param":{"num_deleted":"0","num_feature":"31","num_nodes":"45","size_leaf_vector":"1"}},{"base_weights":[-3.6196518E0,-3.039643E2,2.2772571E2,-5.6214435E2,-1.9043042E2,1.2851915E2,5.0842484E2,-6.878082E2,-8.796885E0,-2.692279E2,-1.11999855E2,5.068414E1,2.205892E2,4.306358E2,1.628764E1,-1.6868795E1,-1.2122445E1,-6.1766877E0,-4.4039545E0,-1.4463808E2,-7.30361E1,4.946773E0,9.123622E1,1.8296022E2,5.2284913E0,7.3798194E0,1.0256976E1,-3.2085218E0,-2.3682988E0,-1.7743822E0,-9.630888E-1,-1.6530472E1,2.583904E1,7.109324E1,2.2491772E0,3.0544775E0,3.906988E0,-2.0741499E1,-2.5766112E-3,1.1478747E1,7.3728245E-1,1.0646533E0,1.5112922E0,-5.228256E-1,-3.07592E-1,1.3961105E-1,2.5611976E-1],"categories":[],"categories_nodes":[],"categories_segments":[],"categories_sizes":[],"default_left":[0,0,0,0,0,0,0,0,0,0,0,0,0,0,0,0,0,0,0,0,0,0,0,0,0,0,0,0,0,0,0,0,0,0,0,0,0,0,0,0,0,0,0,0,0,0,0],"id":21,"left_children":[1,3,5,7,9,11,13,15,-1,17,19,21,23,25,-1,-1,-1,-1,-1,27,29,31,33,35,-1,-1,-1,-1,-1,-1,-1,37,39,41,-1,-1,-1,43,-1,45,-1,-1,-1,-1,-1,-1,-1],"loss_changes":[5.621176E7,1.0210766E7,1.2660762E7,1.341808E6,1.490121E6,2.4181595E6,2.481388E6,1.36988E5,0E0,1.68855E5,1.4837788E5,3.426669E5,1.902975E5,3.0227E5,0E0,0E0,0E0,0E0,0E0,8.714E3,1.8737031E4,3.9914395E4,3.3880375E4,1.59725E3,0E0,0E0,0E0,0E0,0E0,0E0,0E0,3.0342217E3,6.6965664E3,1.9725E2,0E0,0E0,0E0,6.0716406E2,0E0,3.400244E1,0E0,0E0,0E0,0E0,0E0,0E0,0E0],"parents":[2147483647,0,0,1,1,2,2,3,3,4,4,5,5,6,6,7,7,9,9,10,10,11,11,12,12,13,13,19,19,20,20,21,21,22,22,23,23,31,31,32,32,33,33,37,37,39,39],"right_children":[2,4,6,8,10,12,14,16,-1,18,20,22,24,26,-1,-1,-1,-1,-1,28,30,32,34,36,-1,-1,-1,-1,-1,-1,-1,38,40,42,-1,-1,-1,44,-1,46,-1,-1,-1,-1,-1,-1,-1],"split_conditions":[4.3297845E-1,2.6007026E-1,6.185377E-1,1.7258699E-1,3.531809E-1,5.2314115E-1,7.7777785E-1,5.7288624E-2,-8.796885E0,3.1425184E-1,3.9508915E-1,4.8068425E-1,5.7169765E-1,6.8565136E-1,1.628764E1,-1.6868795E1,-1.2122445E1,-6.1766877E0,-4.4039545E0,3.8089594E-1,4.147104E-1,4.5579666E-1,5.005632E-1,5.461651E-1,5.2284913E0,7.3798194E0,1.0256976E1,-3.2085218E0,-2.3682988E0,-1.7743822E0,-9.630888E-1,4.4878396E-1,4.653871E-1,4.8726004E-1,2.2491772E0,3.0544775E0,3.906988E0,4.415687E-1,-2.5766112E-3,4.580562E-1,7.3728245E-1,1.0646533E0,1.5112922E0,-5.228256E-1,-3.07592E-1,1.3961105E-1,2.5611976E-1],"split_indices":[28,28,28,28,28,28,28,0,0,28,28,28,28,28,0,0,0,0,0,28,28,28,28,28,0,0,0,0,0,0,0,28,28,28,0,0,0,28,0,28,0,0,0,0,0,0,0],"split_type":[0,0,0,0,0,0,0,0,0,0,0,0,0,0,0,0,0,0,0,0,0,0,0,0,0,0,0,0,0,0,0,0,0,0,0,0,0,0,0,0,0,0,0,0,0,0,0],"sum_hessian":[8.07E2,3.51E2,4.56E2,1.06E2,2.45E2,3.38E2,1.18E2,5E1,5.6E1,1.21E2,1.24E2,1.84E2,1.54E2,9.6E1,2.2E1,1.4E1,3.6E1,6.4E1,5.7E1,6.6E1,5.8E1,8.7E1,9.7E1,8.3E1,7.1E1,5.8E1,3.8E1,3.8E1,2.8E1,3.4E1,2.4E1,4.3E1,4.4E1,5.2E1,4.5E1,2.8E1,5.5E1,3.4E1,9E0,2E1,2.4E1,1.3E1,3.9E1,1.5E1,1.9E1,6E0,1.4E1],"tree_param":{"num_deleted":"0","num_feature":"31","num_nodes":"47","size_leaf_vector":"1"}},{"base_weights":[-2.847545E0,-3.1075748E2,2.118233E2,-6.0564496E2,-2.2115207E2,1.1438814E2,4.6289014E2,-1.4108311E1,-1.0431703E1,-3.1783627E2,-1.4374324E2,3.3446102E1,1.9225798E2,3.8746594E2,7.184207E2,-7.062409E0,-5.3127427E0,-1.8718852E2,-9.8243034E1,-1.0655411E1,7.1656E1,1.4779199E2,2.2616286E2,6.5267754E0,8.733343E0,1.1411381E1,1.6902424E1,-4.042201E0,-3.083188E0,-2.286577E0,-1.4311038E0,-2.7110952E1,8.835927E0,5.029198E1,1.7526319E0,2.4591284E0,3.26115E0,4.0972033E0,5.09581E0,-7.0907444E-1,-3.4150293E-1,-1.593921E0,1.3492816E1,6.8295735E-1,1.1359327E0,-1.22701734E-1,5.023849E-2,2.0198959E-1,4.152294E-1],"categories":[],"categories_nodes":[],"categories_segments":[],"categories_sizes":[],"default_left":[0,0,0,0,0,0,0,0,0,0,0,0,0,0,0,0,0,0,0,0,0,0,0,0,0,0,0,0,0,0,0,0,0,0,0,0,0,0,0,0,0,0,0,0,0,0,0,0,0],"id":22,"left_children":[1,3,5,7,9,11,13,-1,-1,15,17,19,21,23,25,-1,-1,27,29,31,33,35,37,-1,-1,-1,-1,-1,-1,-1,-1,39,41,43,-1,-1,-1,-1,-1,-1,-1,45,47,-1,-1,-1,-1,-1,-1],"loss_changes":[5.149108E7,8.321504E6,1.117539E7,2.5256E5,1.802867E6,2.086125E6,2.188496E6,0E0,0E0,1.06892E5,2.563525E5,2.771283E5,2.21324E5,1.61184E5,4.2179E4,0E0,0E0,3.30625E3,2.1851312E4,2.4938398E4,2.5613719E4,8.736125E3,5.0835E3,0E0,0E0,0E0,0E0,0E0,0E0,0E0,0E0,2.905877E3,1.7712397E3,2.2518984E3,0E0,0E0,0E0,0E0,0E0,0E0,0E0,2.3951712E2,4.038589E2,0E0,0E0,0E0,0E0,0E0,0E0],"parents":[2147483647,0,0,1,1,2,2,3,3,4,4,5,5,6,6,9,9,10,10,11,11,12,12,13,13,14,14,17,17,18,18,19,19,20,20,21,21,22,22,31,31,32,32,33,33,41,41,42,42],"right_children":[2,4,6,8,10,12,14,-1,-1,16,18,20,22,24,26,-1,-1,28,30,32,34,36,38,-1,-1,-1,-1,-1,-1,-1,-1,40,42,44,-1,-1,-1,-1,-1,-1,-1,46,48,-1,-1,-1,-1,-1,-1],"split_conditions":[4.2726627E-1,2.2244838E-1,6.028479E-1,1.1387116E-1,3.2766423E-1,5.1224834E-1,7.447838E-1,-1.4108311E1,-1.0431703E1,2.8707737E-1,3.7695122E-1,4.6893954E-1,5.5066675E-1,6.525437E-1,8.3656937E-1,-7.062409E0,-5.3127427E0,3.5730287E-1,4.0250516E-1,4.4648948E-1,4.9120754E-1,5.282058E-1,5.7841307E-1,6.5267754E0,8.733343E0,1.1411381E1,1.6902424E1,-4.042201E0,-3.083188E0,-2.286577E0,-1.4311038E0,4.3780932E-1,4.5579666E-1,4.7811246E-1,1.7526319E0,2.4591284E0,3.26115E0,4.0972033E0,5.09581E0,-7.0907444E-1,-3.4150293E-1,4.5028636E-1,4.6120372E-1,6.8295735E-1,1.1359327E0,-1.22701734E-1,5.023849E-2,2.0198959E-1,4.152294E-1],"split_indices":[28,28,28,28,28,28,28,0,0,28,28,28,28,28,28,0,0,28,28,28,28,28,28,0,0,0,0,0,0,0,0,28,28,28,0,0,0,0,0,0,0,28,28,0,0,0,0,0,0],"split_type":[0,0,0,0,0,0,0,0,0,0,0,0,0,0,0,0,0,0,0,0,0,0,0,0,0,0,0,0,0,0,0,0,0,0,0,0,0,0,0,0,0,0,0,0,0,0,0,0,0],"sum_hessian":[7.77E2,3.19E2,4.58E2,7.3E1,2.46E2,3.31E2,1.27E2,3E1,4.3E1,1.08E2,1.38E2,1.63E2,1.68E2,1E2,2.7E1,6.1E1,4.7E1,6.9E1,6.9E1,7.6E1,8.7E1,7.5E1,9.3E1,4.8E1,5.2E1,1.5E1,1.2E1,4.4E1,2.5E1,4.1E1,2.8E1,4.1E1,3.5E1,3.9E1,4.8E1,3.2E1,4.3E1,5.8E1,3.5E1,2.1E1,2E1,1.1E1,2.4E1,1.3E1,2.6E1,5E0,6E0,1.8E1,6E0],"tree_param":{"num_deleted":"0","num_feature":"31","num_nodes":"49","size_leaf_vector":"1"}},{"base_weights":[-9.5455675E0,-2.9469232E2,2.2556308E2,-5.8385254E2,-1.9724898E2,1.22677315E2,4.8626645E2,-1.4349105E1,-9.817173E0,-2.7318124E2,-1.1061774E2,4.230998E1,1.9797829E2,4.0603537E2,1.536753E1,-6.3812165E0,-4.4853926E0,-1.431313E2,-7.042603E1,3.4103446E0,7.832049E1,1.5542606E2,2.3352377E2,7.092183E0,9.639203E0,-3.2058105E0,-2.408179E0,-1.6949414E0,-9.281972E-1,-1.8408249E1,1.8516533E1,6.0623314E1,1.9255149E0,2.56526E0,3.3564436E0,4.142179E0,5.241517E0,-4.610157E-1,-1.7482907E-1,9.14643E0,5.663634E-1,9.1844654E-1,1.3189938E0,3.9004184E-2,2.2622028E-1],"categories":[],"categories_nodes":[],"categories_segments":[],"categories_sizes":[],"default_left":[0,0,0,0,0,0,0,0,0,0,0,0,0,0,0,0,0,0,0,0,0,0,0,0,0,0,0,0,0,0,0,0,0,0,0,0,0,0,0,0,0,0,0,0,0],"id":23,"left_children":[1,3,5,7,9,11,13,-1,-1,15,17,19,21,23,-1,-1,-1,25,27,29,31,33,35,-1,-1,-1,-1,-1,-1,37,39,41,-1,-1,-1,-1,-1,-1,-1,43,-1,-1,-1,-1,-1],"loss_changes":[5.5039668E7,1.0338328E7,1.2010486E7,8.03166E5,1.805035E6,1.952363E6,2.562414E6,0E0,0E0,2.60508E5,1.6239275E5,2.2105044E5,2.162595E5,2.23364E5,0E0,0E0,0E0,8.744125E3,1.7033906E4,2.571974E4,2.0203875E4,5.0455E3,1.27985E4,0E0,0E0,0E0,0E0,0E0,0E0,1.2314346E3,3.9619912E3,4.0557812E2,0E0,0E0,0E0,0E0,0E0,0E0,0E0,3.6603564E2,0E0,0E0,0E0,0E0,0E0],"parents":[2147483647,0,0,1,1,2,2,3,3,4,4,5,5,6,6,9,9,10,10,11,11,12,12,13,13,17,17,18,18,19,19,20,20,21,21,22,22,29,29,30,30,31,31,39,39],"right_children":[2,4,6,8,10,12,14,-1,-1,16,18,20,22,24,-1,-1,-1,26,28,30,32,34,36,-1,-1,-1,-1,-1,-1,38,40,42,-1,-1,-1,-1,-1,-1,-1,44,-1,-1,-1,-1,-1],"split_conditions":[4.3297845E-1,2.3228738E-1,6.185377E-1,1.1387116E-1,3.472882E-1,5.167318E-1,7.7777785E-1,-1.4349105E1,-9.817173E0,3.0640173E-1,3.9508915E-1,4.7454116E-1,5.575929E-1,6.809651E-1,1.536753E1,-6.3812165E0,-4.4853926E0,3.7695122E-1,4.147104E-1,4.5028636E-1,4.960285E-1,5.312085E-1,5.8373344E-1,7.092183E0,9.639203E0,-3.2058105E0,-2.408179E0,-1.6949414E0,-9.281972E-1,4.4341025E-1,4.6120372E-1,4.835124E-1,1.9255149E0,2.56526E0,3.3564436E0,4.142179E0,5.241517E0,-4.610157E-1,-1.7482907E-1,4.5579666E-1,5.663634E-1,9.1844654E-1,1.3189938E0,3.9004184E-2,2.2622028E-1],"split_indices":[28,28,28,28,28,28,28,0,0,28,28,28,28,28,0,0,0,28,28,28,28,28,28,0,0,0,0,0,0,28,28,28,0,0,0,0,0,0,0,28,0,0,0,0,0],"split_type":[0,0,0,0,0,0,0,0,0,0,0,0,0,0,0,0,0,0,0,0,0,0,0,0,0,0,0,0,0,0,0,0,0,0,0,0,0,0,0,0,0,0,0,0,0],"sum_hessian":[8.19E2,3.7E2,4.49E2,9.2E1,2.78E2,3.23E2,1.26E2,3.5E1,5.7E1,1.47E2,1.31E2,1.57E2,1.66E2,1E2,2.6E1,7.3E1,7.4E1,7.1E1,6E1,7.6E1,8.1E1,7.8E1,8.8E1,6.3E1,3.7E1,3.7E1,3.4E1,3.6E1,2.4E1,3.1E1,4.5E1,4.3E1,3.8E1,2.8E1,5E1,5E1,3.8E1,2E1,1.1E1,2.4E1,2.1E1,1.4E1,2.9E1,6E0,1.8E1],"tree_param":{"num_deleted":"0","num_feature":"31","num_nodes":"45","size_leaf_vector":"1"}},{"base_weights":[7.20986E-1,-2.6408322E2,2.2823625E2,-5.0496204E2,-1.629172E2,1.3729916E2,5.131927E2,-1.25699005E1,-7.8377995E0,-2.4414267E2,-9.004902E1,5.9638634E1,2.1705244E2,4.4620468E2,1.7350067E1,-5.575322E0,-4.019645E0,-1.1870951E2,-4.5679756E1,1.9761547E1,9.17627E1,1.815815E2,5.457819E0,7.5420437E0,1.0507683E1,-2.7104526E0,-1.891913E0,-1.301681E0,-3.0768284E1,3.9122903E0,3.6379864E1,1.4562378E0,2.215615E0,2.991249E0,3.8928077E0,-6.910466E-1,-4.2517024E-1,-4.3894706E0,2.1062708E-1,5.308323E-1,8.583676E-1,-1.8043084E-1,2.4677679E-2],"categories":[],"categories_nodes":[],"categories_segments":[],"categories_sizes":[],"default_left":[0,0,0,0,0,0,0,0,0,0,0,0,0,0,0,0,0,0,0,0,0,0,0,0,0,0,0,0,0,0,0,0,0,0,0,0,0,0,0,0,0,0,0],"id":24,"left_children":[1,3,5,7,9,11,13,-1,-1,15,17,19,21,23,-1,-1,-1,25,27,29,31,33,-1,-1,-1,-1,-1,-1,35,37,39,-1,-1,-1,-1,-1,-1,41,-1,-1,-1,-1,-1],"loss_changes":[4.693244E7,8.690416E6,1.0787066E7,1.23422E6,1.487264E6,1.9628125E6,2.009974E6,0E0,0E0,1.232485E5,1.6750462E5,2.0698075E5,2.61364E5,2.77808E5,0E0,0E0,0E0,2.040225E4,1.3901945E4,1.9344354E4,2.4352188E4,1.225E4,0E0,0E0,0E0,0E0,0E0,0E0,4.4740625E2,2.189887E3,1.1697227E3,0E0,0E0,0E0,0E0,0E0,0E0,4.8077045E2,0E0,0E0,0E0,0E0,0E0],"parents":[2147483647,0,0,1,1,2,2,3,3,4,4,5,5,6,6,9,9,10,10,11,11,12,12,13,13,17,17,18,18,19,19,20,20,21,21,28,28,29,29,30,30,37,37],"right_children":[2,4,6,8,10,12,14,-1,-1,16,18,20,22,24,-1,-1,-1,26,28,30,32,34,-1,-1,-1,-1,-1,-1,36,38,40,-1,-1,-1,-1,-1,-1,42,-1,-1,-1,-1,-1],"split_conditions":[4.4341025E-1,2.6808774E-1,6.3509786E-1,1.8230827E-1,3.581635E-1,5.282058E-1,8.3656937E-1,-1.25699005E1,-7.8377995E0,3.1922412E-1,4.061896E-1,4.835124E-1,5.8120394E-1,6.993652E-1,1.7350067E1,-5.575322E0,-4.019645E0,3.8902977E-1,4.2726627E-1,4.6120372E-1,5.0374407E-1,5.48415E-1,5.457819E0,7.5420437E0,1.0507683E1,-2.7104526E0,-1.891913E0,-1.301681E0,4.3780932E-1,4.5579666E-1,4.7199327E-1,1.4562378E0,2.215615E0,2.991249E0,3.8928077E0,-6.910466E-1,-4.2517024E-1,4.5028636E-1,2.1062708E-1,5.308323E-1,8.583676E-1,-1.8043084E-1,2.4677679E-2],"split_indices":[28,28,28,28,28,28,28,0,0,28,28,28,28,28,0,0,0,28,28,28,28,28,0,0,0,0,0,0,28,28,28,0,0,0,0,0,0,28,0,0,0,0,0],"split_type":[0,0,0,0,0,0,0,0,0,0,0,0,0,0,0,0,0,0,0,0,0,0,0,0,0,0,0,0,0,0,0,0,0,0,0,0,0,0,0,0,0,0,0],"sum_hessian":[7.77E2,3.59E2,4.18E2,1.05E2,2.54E2,3.18E2,1E2,4.8E1,5.7E1,1.19E2,1.35E2,1.62E2,1.56E2,8.6E1,1.4E1,6.3E1,5.6E1,8.1E1,5.4E1,7.3E1,8.9E1,9.8E1,5.8E1,4.9E1,3.7E1,4.5E1,3.6E1,2.2E1,3.2E1,3.8E1,3.5E1,4.7E1,4.2E1,3.2E1,6.6E1,2.1E1,1.1E1,1.7E1,2.1E1,1.6E1,1.9E1,9E0,8E0],"tree_param":{"num_deleted":"0","num_feature":"31","num_nodes":"43","size_leaf_vector":"1"}},{"base_weights":[1.07694235E1,-2.9030618E2,1.6918062E2,-5.1776685E2,-1.8902036E2,5.5381016E1,3.313515E2,-6.4369244E2,-7.7745643E0,-8.251581E1,-2.48854E2,-1.3762598E1,1.39717E2,2.6420636E2,6.180509E2,-1.5822717E1,-1.1006262E1,-1.529824E2,-1.8965036E1,-6.116274E0,-1.8604155E2,4.368701E1,-1.0182051E2,1.1092224E2,2.8387146E2,2.0490172E2,3.2524463E2,5.416571E2,1.823425E1,-3.8485413E0,-1.2271591E2,-6.132415E1,7.046274E1,-2.0356566E2,-8.459113E-1,1.16746185E2,-5.809559E-1,-1.5059499E2,-5.8065155E1,2.0320897E2,7.9278015E1,6.9112577E0,3.9703152E0,2.3695029E2,9.566264E1,3.387957E2,3.4029446E0,1.1617464E1,6.733621E0,-2.7874653E0,-1.1010143E0,-9.6075096E1,-9.870878E0,2.375959E0,-1.1422639E-1,-2.2641916E2,-1.4400462E2,6.946261E1,1.4233382E2,-3.552907E1,9.6523865E1,-8.352655E1,-1.920825E2,6.3484883E0,-8.4546585E1,2.20163E2,1.9736482E0,5.9964508E1,1.4483774E2,1.977991E2,2.9487265E2,1.3447833E2,4.065909E-1,3.652825E2,5.168397E0,-2.575423E0,-1.2714069E0,6.554094E-1,-1.1598128E0,-4.7601905E0,-2.4983788E0,-1.8596511E0,-3.2351754E0,2.0863357E0,6.150387E-1,3.1937938E0,1.2148391E0,-1.52873E0,-1.5975718E-1,-2.14611E-2,2.6830273E0,-2.344571E0,-3.8071567E-1,-4.3480716E0,-2.3520606E0,-1.1923001E0,1.6452895E0,-2.1157007E0,-4.173925E-1,5.1858377E0,3.417817E0,3.4594658E-1,1.8360146E0,3.7351842E0,2.157817E0,1.8331348E0,4.228531E0,6.4166083E0,3.4972093E0,3.331494E0,1.4797217E0,5.290081E0,7.7808843E0],"categories":[],"categories_nodes":[],"categories_segments":[],"categories_sizes":[],"default_left":[0,0,0,0,0,0,0,0,0,0,0,0,0,0,0,0,0,0,0,0,0,0,0,0,0,0,0,0,0,0,0,0,0,0,0,0,0,0,0,0,0,0,0,0,0,0,0,0,0,0,0,0,0,0,0,0,0,0,0,0,0,0,0,0,0,0,0,0,0,0,0,0,0,0,0,0,0,0,0,0,0,0,0,0,0,0,0,0,0,0,0,0,0,0,0,0,0,0,0,0,0,0,0,0,0,0,0,0,0,0,0,0,0],"id":25,"left_children":[1,3,5,7,9,11,13,15,-1,17,19,21,23,25,27,-1,-1,29,31,-1,33,35,37,39,41,43,45,47,-1,-1,49,51,53,55,-1,57,59,61,63,65,67,-1,-1,69,71,73,-1,-1,-1,-1,-1,75,77,-1,-1,79,81,83,85,87,89,91,93,95,97,99,-1,101,103,105,107,109,-1,111,-1,-1,-1,-1,-1,-1,-1,-1,-1,-1,-1,-1,-1,-1,-1,-1,-1,-1,-1,-1,-1,-1,-1,-1,-1,-1,-1,-1,-1,-1,-1,-1,-1,-1,-1,-1,-1,-1,-1],"loss_changes":[3.8871816E7,6.375892E6,9.836572E6,1.14711E6,1.228453E6,1.838793E6,4.071724E6,1.42758E5,0E0,3.195124E5,3.902795E5,8.847014E5,5.5789975E5,5.84877E5,4.25809E5,0E0,0E0,1.6945562E4,1.5205531E5,0E0,1.4754475E5,3.429027E5,1.3849075E5,3.3430275E5,5.245725E4,3.063895E5,1.25154E5,8.5682E4,0E0,0E0,1.7104719E4,4.73184E4,4.8554355E4,4.222225E4,0E0,3.8486875E4,2.3079656E5,7.2968625E4,6.536365E4,3.140625E4,1.0651756E5,0E0,0E0,1.04902E5,6.4505094E4,7.3724E4,0E0,0E0,0E0,0E0,0E0,8.799172E3,2.65256E4,0E0,0E0,1.4936125E4,1.239125E3,1.8366203E4,2.5680531E4,5.5713004E4,6.625917E4,2.818339E4,1.023125E4,6.4998668E4,3.4294453E4,3.845375E3,0E0,9.620325E4,1.0798281E4,4.712775E4,2.79615E4,1.6775469E4,0E0,3.3527E4,0E0,0E0,0E0,0E0,0E0,0E0,0E0,0E0,0E0,0E0,0E0,0E0,0E0,0E0,0E0,0E0,0E0,0E0,0E0,0E0,0E0,0E0,0E0,0E0,0E0,0E0,0E0,0E0,0E0,0E0,0E0,0E0,0E0,0E0,0E0,0E0,0E0,0E0,0E0],"parents":[2147483647,0,0,1,1,2,2,3,3,4,4,5,5,6,6,7,7,9,9,10,10,11,11,12,12,13,13,14,14,17,17,18,18,20,20,21,21,22,22,23,23,24,24,25,25,26,26,27,27,30,30,31,31,32,32,33,33,35,35,36,36,37,37,38,38,39,39,40,40,43,43,44,44,45,45,51,51,52,52,55,55,56,56,57,57,58,58,59,59,60,60,61,61,62,62,63,63,64,64,65,65,67,67,68,68,69,69,70,70,71,71,73,73],"right_children":[2,4,6,8,10,12,14,16,-1,18,20,22,24,26,28,-1,-1,30,32,-1,34,36,38,40,42,44,46,48,-1,-1,50,52,54,56,-1,58,60,62,64,66,68,-1,-1,70,72,74,-1,-1,-1,-1,-1,76,78,-1,-1,80,82,84,86,88,90,92,94,96,98,100,-1,102,104,106,108,110,-1,112,-1,-1,-1,-1,-1,-1,-1,-1,-1,-1,-1,-1,-1,-1,-1,-1,-1,-1,-1,-1,-1,-1,-1,-1,-1,-1,-1,-1,-1,-1,-1,-1,-1,-1,-1,-1,-1,-1,-1],"split_conditions":[3.3641803E-1,2.116621E-1,5.8858633E-1,8.618139E-2,4.5103598E-1,3.8843274E-1,6.047946E-1,8.543594E-2,-7.7745643E0,2.8384963E-1,3.522536E-1,5.406621E-1,5.5597305E-1,4.659953E-1,1E0,-1.5822717E1,-1.1006262E1,2.1611547E-1,2.8020352E-1,-6.116274E0,6.356606E-1,4.5550597E-1,3.4387568E-1,5.1393527E-1,6.2216604E-1,8.928286E-1,6.3354E-1,5.482087E-1,1.823425E1,-3.8485413E0,3.308759E-1,3.2943028E-1,3.7512124E-1,3.7139368E-1,-8.459113E-1,3.0989575E-1,5.707457E-1,5.680493E-1,1.1272141E-1,2.3841475E-1,3.5809377E-1,6.9112577E0,3.9703152E0,6.734945E-1,4.4957227E-1,4.7494984E-1,3.4029446E0,1.1617464E1,6.733621E0,-2.7874653E0,-1.1010143E0,2.1482988E-1,3.638125E-1,2.375959E0,-1.1422639E-1,2.9060626E-1,2.562362E-1,6.483578E-1,8.524222E-1,5.033564E-1,3.3556226E-1,6.097954E-1,3.027336E-1,5.8806515E-1,3.6404976E-1,3.1667846E-1,1.9736482E0,4.7744253E-1,5.74473E-1,3.4123743E-1,7.148376E-1,6.2823206E-1,4.065909E-1,4.649068E-1,5.168397E0,-2.575423E0,-1.2714069E0,6.554094E-1,-1.1598128E0,-4.7601905E0,-2.4983788E0,-1.8596511E0,-3.2351754E0,2.0863357E0,6.150387E-1,3.1937938E0,1.2148391E0,-1.52873E0,-1.5975718E-1,-2.14611E-2,2.6830273E0,-2.344571E0,-3.8071567E-1,-4.3480716E0,-2.3520606E0,-1.1923001E0,1.6452895E0,-2.1157007E0,-4.173925E-1,5.1858377E0,3.417817E0,3.4594658E-1,1.8360146E0,3.7351842E0,2.157817E0,1.8331348E0,4.228531E0,6.4166083E0,3.4972093E0,3.331494E0,1.4797217E0,5.290081E0,7.7808843E0],"split_indices":[1,1,16,0,21,0,5,10,0,10,16,21,0,1,29,0,0,0,17,0,27,21,0,21,2,23,21,20,0,0,14,12,20,8,0,10,27,21,6,6,17,0,0,16,15,12,0,0,0,0,0,17,8,0,0,5,5,23,20,27,0,27,15,27,15,12,0,16,20,8,2,2,0,0,0,0,0,0,0,0,0,0,0,0,0,0,0,0,0,0,0,0,0,0,0,0,0,0,0,0,0,0,0,0,0,0,0,0,0,0,0,0,0],"split_type":[0,0,0,0,0,0,0,0,0,0,0,0,0,0,0,0,0,0,0,0,0,0,0,0,0,0,0,0,0,0,0,0,0,0,0,0,0,0,0,0,0,0,0,0,0,0,0,0,0,0,0,0,0,0,0,0,0,0,0,0,0,0,0,0,0,0,0,0,0,0,0,0,0,0,0,0,0,0,0,0,0,0,0,0,0,0,0,0,0,0,0,0,0,0,0,0,0,0,0,0,0,0,0,0,0,0,0,0,0,0,0,0,0],"sum_hessian":[8.13E2,2.8E2,5.33E2,8.5E1,1.95E2,3.14E2,2.19E2,4.1E1,4.4E1,7.1E1,1.24E2,1.73E2,1.41E2,1.79E2,4E1,1.3E1,2.8E1,3.3E1,3.8E1,6.3E1,6.1E1,1.05E2,6.8E1,1.19E2,2.2E1,9.3E1,8.6E1,3.4E1,6E0,1.2E1,2.1E1,2.6E1,1.2E1,5.4E1,7E0,3.9E1,6.6E1,3.1E1,3.7E1,2.9E1,9E1,1.1E1,1.1E1,7.1E1,2.2E1,7.8E1,8E0,2.7E1,7E0,1.6E1,5E0,1.5E1,1.1E1,7E0,5E0,3.7E1,1.7E1,1.5E1,2.4E1,4.9E1,1.7E1,1.3E1,1.8E1,1.1E1,2.6E1,2.4E1,5E0,7.1E1,1.9E1,4.5E1,2.6E1,1.4E1,8E0,5.6E1,2.2E1,6E0,9E0,6E0,5E0,3.2E1,5E0,6E0,1.1E1,7E0,8E0,1.9E1,5E0,1.9E1,3E1,5E0,1.2E1,8E0,5E0,1.2E1,6E0,6E0,5E0,1.9E1,7E0,1.1E1,1.3E1,3.1E1,4E1,7E0,1.2E1,6E0,3.9E1,2E1,6E0,8E0,6E0,1.3E1,4.3E1],"tree_param":{"num_deleted":"0","num_feature":"31","num_nodes":"113","size_leaf_vector":"1"}},{"base_weights":[3.2865226E0,-2.772606E2,2.1384335E2,-5.826803E2,-1.8516428E2,1.1906942E2,4.7310645E2,-1.5240023E1,-1.0263873E1,-2.8045258E2,-1.1782868E2,4.4503895E1,2.0279132E2,3.90524E2,6.9316254E2,-6.5164967E0,-4.698738E0,-1.5653554E2,-7.557954E1,3.872579E0,8.2883804E1,1.6682912E2,4.935161E0,6.727636E0,8.913568E0,1.125366E1,1.6811447E1,-3.4083383E0,-2.5450659E0,-9.161053E1,-8.499166E-1,-1.3755831E1,2.1025412E1,6.414259E1,2.0549212E0,2.7487128E0,3.598841E0,-1.9593114E0,-1.3562076E0,-4.089063E-1,-6.1324673E0,9.269344E0,3.0055492E1,9.928345E-1,1.4021081E0,-1.7803706E-1,-3.2161863E-3,2.1044771E-1,1.0491552E-1,4.5990568E-1,6.9592094E-1],"categories":[],"categories_nodes":[],"categories_segments":[],"categories_sizes":[],"default_left":[0,0,0,0,0,0,0,0,0,0,0,0,0,0,0,0,0,0,0,0,0,0,0,0,0,0,0,0,0,0,0,0,0,0,0,0,0,0,0,0,0,0,0,0,0,0,0,0,0,0,0],"id":26,"left_children":[1,3,5,7,9,11,13,-1,-1,15,17,19,21,23,25,-1,-1,27,29,31,33,35,-1,-1,-1,-1,-1,-1,-1,37,-1,39,41,43,-1,-1,-1,-1,-1,-1,45,47,49,-1,-1,-1,-1,-1,-1,-1,-1],"loss_changes":[4.72571E7,9.53994E6,1.1172728E7,5.9319E5,1.667233E6,2.08852E6,1.946272E6,0E0,0E0,1.48497E5,2.44893E5,2.7880766E5,2.08613E5,1.21746E5,1.42371E5,0E0,0E0,1.1208875E4,3.6931594E4,2.6899139E4,2.7639188E4,9.927E3,0E0,0E0,0E0,0E0,0E0,0E0,0E0,1.0541562E3,0E0,2.1158037E3,4.4945938E3,8.311719E2,0E0,0E0,0E0,0E0,0E0,0E0,3.614945E2,4.9100708E1,3.0808594E1,0E0,0E0,0E0,0E0,0E0,0E0,0E0,0E0],"parents":[2147483647,0,0,1,1,2,2,3,3,4,4,5,5,6,6,9,9,10,10,11,11,12,12,13,13,14,14,17,17,18,18,19,19,20,20,21,21,29,29,31,31,32,32,33,33,40,40,41,41,42,42],"right_children":[2,4,6,8,10,12,14,-1,-1,16,18,20,22,24,26,-1,-1,28,30,32,34,36,-1,-1,-1,-1,-1,-1,-1,38,-1,40,42,44,-1,-1,-1,-1,-1,-1,46,48,50,-1,-1,-1,-1,-1,-1,-1,-1],"split_conditions":[4.3480068E-1,2.2244838E-1,6.252329E-1,8.947057E-2,3.3438167E-1,5.2314115E-1,7.699211E-1,-1.5240023E1,-1.0263873E1,2.8707737E-1,3.8655478E-1,4.8068425E-1,5.7422274E-1,6.777484E-1,8.5832065E-1,-6.5164967E0,-4.698738E0,3.6759898E-1,4.147104E-1,4.5579666E-1,5.023507E-1,5.441636E-1,4.935161E0,6.727636E0,8.913568E0,1.125366E1,1.6811447E1,-3.4083383E0,-2.5450659E0,4.0483665E-1,-8.499166E-1,4.4341025E-1,4.6120372E-1,4.8726004E-1,2.0549212E0,2.7487128E0,3.598841E0,-1.9593114E0,-1.3562076E0,-4.089063E-1,4.5028636E-1,4.6829486E-1,4.7199327E-1,9.928345E-1,1.4021081E0,-1.7803706E-1,-3.2161863E-3,2.1044771E-1,1.0491552E-1,4.5990568E-1,6.9592094E-1],"split_indices":[28,28,28,28,28,28,28,0,0,28,28,28,28,28,28,0,0,28,28,28,28,28,0,0,0,0,0,0,0,28,0,28,28,28,0,0,0,0,0,0,28,25,28,0,0,0,0,0,0,0,0],"split_type":[0,0,0,0,0,0,0,0,0,0,0,0,0,0,0,0,0,0,0,0,0,0,0,0,0,0,0,0,0,0,0,0,0,0,0,0,0,0,0,0,0,0,0,0,0,0,0,0,0,0,0],"sum_hessian":[7.98E2,3.42E2,4.56E2,7.8E1,2.64E2,3.35E2,1.21E2,1.9E1,5.9E1,1.08E2,1.56E2,1.78E2,1.57E2,9E1,3.1E1,5.1E1,5.7E1,8E1,7.6E1,8.7E1,9.1E1,8.9E1,6.8E1,4.9E1,4.1E1,1.9E1,1.2E1,5.1E1,2.9E1,5E1,2.6E1,4.3E1,4.4E1,4.9E1,4.2E1,3.1E1,5.8E1,3.7E1,1.3E1,2.2E1,2.1E1,2E1,2.4E1,1.7E1,3.2E1,1.4E1,7E0,1.4E1,6E0,1.2E1,1.2E1],"tree_param":{"num_deleted":"0","num_feature":"31","num_nodes":"51","size_leaf_vector":"1"}},{"base_weights":[1.6853628E0,-2.9399918E2,2.0145244E2,-5.6885675E2,-2.0267302E2,1.03822754E2,4.4302307E2,-1.477758E1,-1.0170983E1,-2.9165314E2,-1.3258282E2,3.2393616E1,1.8108029E2,3.5280252E2,6.362386E2,-6.6142297E0,-4.8645706E0,-3.4220233E0,-9.591511E1,-5.0756683E0,6.9508026E1,1.4495535E2,2.1299818E2,6.0511217E0,7.9558086E0,1.0968399E1,1.6347868E1,-2.176706E0,-1.4422024E0,-2.2606407E1,1.5016933E1,4.9775642E1,1.6420949E0,2.3403275E0,3.1351202E0,3.8256614E0,4.7834425E0,-3.2164055E1,-1.2140502E1,6.1172094E0,4.497102E-1,7.134763E-1,1.0706874E0,-7.390442E-1,-4.777842E-1,-3.0816212E-1,-1.4616512E-1,-6.472168E-4,1.8402898E-1],"categories":[],"categories_nodes":[],"categories_segments":[],"categories_sizes":[],"default_left":[0,0,0,0,0,0,0,0,0,0,0,0,0,0,0,0,0,0,0,0,0,0,0,0,0,0,0,0,0,0,0,0,0,0,0,0,0,0,0,0,0,0,0,0,0,0,0,0,0],"id":27,"left_children":[1,3,5,7,9,11,13,-1,-1,15,17,19,21,23,25,-1,-1,-1,27,29,31,33,35,-1,-1,-1,-1,-1,-1,37,39,41,-1,-1,-1,-1,-1,43,45,47,-1,-1,-1,-1,-1,-1,-1,-1,-1],"loss_changes":[4.790433E7,8.092884E6,1.1368828E7,4.54664E5,1.501738E6,1.9034922E6,2.198484E6,0E0,0E0,1.23774E5,1.8129525E5,2.5206694E5,1.604925E5,9.8842E4,2.35666E5,0E0,0E0,0E0,1.4893625E4,3.239391E4,1.8519281E4,8.335125E3,3.08725E3,0E0,0E0,0E0,0E0,0E0,0E0,4.5065234E3,2.7177256E3,9.5484375E1,0E0,0E0,0E0,0E0,0E0,1.0168945E2,2.7986865E2,3.9951636E2,0E0,0E0,0E0,0E0,0E0,0E0,0E0,0E0,0E0],"parents":[2147483647,0,0,1,1,2,2,3,3,4,4,5,5,6,6,9,9,10,10,11,11,12,12,13,13,14,14,18,18,19,19,20,20,21,21,22,22,29,29,30,30,31,31,37,37,38,38,39,39],"right_children":[2,4,6,8,10,12,14,-1,-1,16,18,20,22,24,26,-1,-1,-1,28,30,32,34,36,-1,-1,-1,-1,-1,-1,38,40,42,-1,-1,-1,-1,-1,44,46,48,-1,-1,-1,-1,-1,-1,-1,-1,-1],"split_conditions":[4.2136046E-1,2.1613468E-1,6.135712E-1,8.947057E-2,3.2766423E-1,5.167318E-1,7.380457E-1,-1.477758E1,-1.0170983E1,2.8297308E-1,3.7556037E-1,4.7199327E-1,5.575929E-1,6.5505826E-1,8.5832065E-1,-6.6142297E0,-4.8645706E0,-3.4220233E0,3.9827257E-1,4.5028636E-1,4.9203897E-1,5.312085E-1,5.8373344E-1,6.0511217E0,7.9558086E0,1.0968399E1,1.6347868E1,-2.176706E0,-1.4422024E0,4.3983686E-1,4.6005017E-1,4.8068425E-1,1.6420949E0,2.3403275E0,3.1351202E0,3.8256614E0,4.7834425E0,4.3297845E-1,4.4471395E-1,4.5579666E-1,4.497102E-1,7.134763E-1,1.0706874E0,-7.390442E-1,-4.777842E-1,-3.0816212E-1,-1.4616512E-1,-6.472168E-4,1.8402898E-1],"split_indices":[28,28,28,28,28,28,28,0,0,28,28,28,28,28,28,0,0,0,28,28,28,28,28,0,0,0,0,0,0,28,28,28,0,0,0,0,0,28,28,28,0,0,0,0,0,0,0,0,0],"split_type":[0,0,0,0,0,0,0,0,0,0,0,0,0,0,0,0,0,0,0,0,0,0,0,0,0,0,0,0,0,0,0,0,0,0,0,0,0,0,0,0,0,0,0,0,0,0,0,0,0],"sum_hessian":[8.09E2,3.26E2,4.83E2,8E1,2.46E2,3.45E2,1.38E2,1.8E1,6.2E1,1.07E2,1.39E2,1.8E2,1.65E2,9.6E1,4.2E1,5.6E1,5.1E1,6.6E1,7.3E1,9E1,9E1,8E1,8.5E1,4.9E1,4.7E1,3.1E1,1.1E1,4.5E1,2.8E1,4.8E1,4.2E1,3.7E1,5.3E1,2.7E1,5.3E1,5.1E1,3.4E1,2.4E1,2.4E1,2E1,2.2E1,1E1,2.7E1,1.3E1,1.1E1,1.3E1,1.1E1,7E0,1.3E1],"tree_param":{"num_deleted":"0","num_feature":"31","num_nodes":"49","size_leaf_vector":"1"}},{"base_weights":[1.5797508E-1,-2.5592892E2,2.1555803E2,-4.957323E2,-1.6306929E2,1.254805E2,4.5392157E2,-6.289569E2,-4.0750424E2,-2.3871512E2,-9.3915276E1,5.626643E1,1.9704044E2,3.6744324E2,6.629105E2,-1.5021882E1,-1.0707956E1,-9.042169E0,-6.937475E0,-5.3891435E0,-3.848927E0,-1.24391174E2,-5.3404858E1,1.73697E1,8.410096E1,1.6560492E2,4.8600755E0,6.4676003E0,8.422967E0,1.090614E1,1.5671153E1,-2.7429638E0,-1.9620701E0,-1.411032E0,-3.067293E1,5.279211E-1,3.3231148E1,1.2916889E0,2.0210018E0,2.649244E0,3.489484E0,-7.1395993E-1,-4.6181723E-1,-2.612009E-1,7.59869E0,4.4225967E-1,7.758258E-1,3.1260498E-2,1.8365747E-1],"categories":[],"categories_nodes":[],"categories_segments":[],"categories_sizes":[],"default_left":[0,0,0,0,0,0,0,0,0,0,0,0,0,0,0,0,0,0,0,0,0,0,0,0,0,0,0,0,0,0,0,0,0,0,0,0,0,0,0,0,0,0,0,0,0,0,0,0,0],"id":28,"left_children":[1,3,5,7,9,11,13,15,17,19,21,23,25,27,29,-1,-1,-1,-1,-1,-1,31,33,35,37,39,-1,-1,-1,-1,-1,-1,-1,-1,41,43,45,-1,-1,-1,-1,-1,-1,-1,47,-1,-1,-1,-1],"loss_changes":[4.3466976E7,7.935594E6,9.132658E6,9.1901E5,1.3428945E6,1.53421E6,1.870858E6,3.1966E4,1.3472E4,1.244755E5,1.6371275E5,1.7175662E5,1.80783E5,6.488E4,4.0809E4,0E0,0E0,0E0,0E0,0E0,0E0,1.2679125E4,2.1602344E4,1.814426E4,2.4220438E4,4.48975E3,0E0,0E0,0E0,0E0,0E0,0E0,0E0,0E0,2.3663477E2,3.365324E3,1.2997734E3,0E0,0E0,0E0,0E0,0E0,0E0,0E0,2.0448926E2,0E0,0E0,0E0,0E0],"parents":[2147483647,0,0,1,1,2,2,3,3,4,4,5,5,6,6,7,7,8,8,9,9,10,10,11,11,12,12,13,13,14,14,21,21,22,22,23,23,24,24,25,25,34,34,35,35,36,36,44,44],"right_children":[2,4,6,8,10,12,14,16,18,20,22,24,26,28,30,-1,-1,-1,-1,-1,-1,32,34,36,38,40,-1,-1,-1,-1,-1,-1,-1,-1,42,44,46,-1,-1,-1,-1,-1,-1,-1,48,-1,-1,-1,-1],"split_conditions":[4.415687E-1,2.562357E-1,6.278868E-1,1.4307916E-1,3.531809E-1,5.282058E-1,7.595025E-1,2.0059671E-2,2.0818985E-1,3.1425184E-1,3.9827257E-1,4.835124E-1,5.7603395E-1,6.777484E-1,8.5832065E-1,-1.5021882E1,-1.0707956E1,-9.042169E0,-6.937475E0,-5.3891435E0,-3.848927E0,3.83771E-1,4.2136046E-1,4.6120372E-1,5.023507E-1,5.441636E-1,4.8600755E0,6.4676003E0,8.422967E0,1.090614E1,1.5671153E1,-2.7429638E0,-1.9620701E0,-1.411032E0,4.3297845E-1,4.4878396E-1,4.7199327E-1,1.2916889E0,2.0210018E0,2.649244E0,3.489484E0,-7.1395993E-1,-4.6181723E-1,-2.612009E-1,4.5579666E-1,4.4225967E-1,7.758258E-1,3.1260498E-2,1.8365747E-1],"split_indices":[28,28,28,28,28,28,28,0,28,28,28,28,28,28,28,0,0,0,0,0,0,28,28,28,28,28,0,0,0,0,0,0,0,0,28,28,28,0,0,0,0,0,0,0,28,0,0,0,0],"split_type":[0,0,0,0,0,0,0,0,0,0,0,0,0,0,0,0,0,0,0,0,0,0,0,0,0,0,0,0,0,0,0,0,0,0,0,0,0,0,0,0,0,0,0,0,0,0,0,0,0],"sum_hessian":[7.86E2,3.59E2,4.27E2,9.9E1,2.6E2,3.11E2,1.16E2,3.7E1,6.2E1,1.23E2,1.37E2,1.59E2,1.52E2,8.4E1,3.2E1,1.3E1,2.4E1,3.2E1,3E1,7.1E1,5.2E1,7.7E1,6E1,6.7E1,9.2E1,9.3E1,5.9E1,5E1,3.4E1,1.9E1,1.3E1,4.9E1,2.8E1,3.3E1,2.7E1,3.3E1,3.4E1,4.5E1,4.7E1,2.3E1,7E1,1.4E1,1.3E1,1.1E1,2.2E1,1.3E1,2.1E1,5E0,1.7E1],"tree_param":{"num_deleted":"0","num_feature":"31","num_nodes":"49","size_leaf_vector":"1"}},{"base_weights":[-1.4004789E1,-2.7303546E2,1.8394269E2,-5.35604E2,-1.8905234E2,9.156104E1,3.8938382E2,-1.4695677E1,-4.859786E2,-2.7466974E2,-1.2527328E2,2.6526653E1,1.6237227E2,3.2036743E2,5.9319244E2,-1.0316652E1,-7.806587E0,-6.249505E0,-4.6555724E0,-1.6523601E2,-8.622956E1,-9.76907E0,5.885509E1,1.23643845E2,3.7766304E0,5.3724246E0,7.1933103E0,1.0186643E1,1.5577041E1,-3.5125844E0,-2.6729207E0,-2.0434766E0,-1.2900931E0,-2.5752333E1,7.6916E0,3.752968E1,7.13539E1,2.0815904E0,2.7126725E0,-6.6977006E-1,-1.6416712E1,-1.0192101E0,1.1604523E1,5.5000955E-1,8.440291E-1,1.1329035E0,1.5395169E0,-1.9407909E-1,-3.58034E-1,-8.919042E-2,5.104834E-2,1.7246689E-1,3.5188803E-1],"categories":[],"categories_nodes":[],"categories_segments":[],"categories_sizes":[],"default_left":[0,0,0,0,0,0,0,0,0,0,0,0,0,0,0,0,0,0,0,0,0,0,0,0,0,0,0,0,0,0,0,0,0,0,0,0,0,0,0,0,0,0,0,0,0,0,0,0,0,0,0,0,0],"id":29,"left_children":[1,3,5,7,9,11,13,-1,15,17,19,21,23,25,27,-1,-1,-1,-1,29,31,33,35,37,-1,-1,-1,-1,-1,-1,-1,-1,-1,39,41,43,45,-1,-1,-1,47,49,51,-1,-1,-1,-1,-1,-1,-1,-1,-1,-1],"loss_changes":[4.178765E7,7.682788E6,8.732591E6,4.82962E5,1.434452E6,1.4693265E6,1.821328E6,0E0,1.306E3,1.07751E5,2.291325E5,1.977084E5,1.33404E5,1.24977E5,1.48108E5,0E0,0E0,0E0,0E0,1.449125E3,2.1450062E4,2.252616E4,2.1033469E4,1.1065E3,0E0,0E0,0E0,0E0,0E0,0E0,0E0,0E0,0E0,2.4785605E3,1.3421904E3,4.723711E2,1.74375E2,0E0,0E0,0E0,3.285791E1,1.713109E2,3.27792E2,0E0,0E0,0E0,0E0,0E0,0E0,0E0,0E0,0E0,0E0],"parents":[2147483647,0,0,1,1,2,2,3,3,4,4,5,5,6,6,8,8,9,9,10,10,11,11,12,12,13,13,14,14,19,19,20,20,21,21,22,22,23,23,33,33,34,34,35,35,36,36,40,40,41,41,42,42],"right_children":[2,4,6,8,10,12,14,-1,16,18,20,22,24,26,28,-1,-1,-1,-1,30,32,34,36,38,-1,-1,-1,-1,-1,-1,-1,-1,-1,40,42,44,46,-1,-1,-1,48,50,52,-1,-1,-1,-1,-1,-1,-1,-1,-1,-1],"split_conditions":[4.2726627E-1,2.2244838E-1,5.937674E-1,9.510024E-2,3.2766423E-1,5.1053214E-1,7.230822E-1,-1.4695677E1,1.8230827E-1,2.8297308E-1,3.7556037E-1,4.6765724E-1,5.48415E-1,6.410549E-1,8.5832065E-1,-1.0316652E1,-7.806587E0,-6.249505E0,-4.6555724E0,3.5730287E-1,4.0250516E-1,4.4471395E-1,4.8726004E-1,5.25371E-1,3.7766304E0,5.3724246E0,7.1933103E0,1.0186643E1,1.5577041E1,-3.5125844E0,-2.6729207E0,-2.0434766E0,-1.2900931E0,4.3604368E-1,4.5579666E-1,4.7454116E-1,4.9521524E-1,2.0815904E0,2.7126725E0,-6.6977006E-1,3.7457815E-1,4.5028636E-1,4.6120372E-1,5.5000955E-1,8.440291E-1,1.1329035E0,1.5395169E0,-1.9407909E-1,-3.58034E-1,-8.919042E-2,5.104834E-2,1.7246689E-1,3.5188803E-1],"split_indices":[28,28,28,11,28,28,28,0,28,28,28,28,28,28,28,0,0,